{"learner":{"attributes":{"scikit_learn":"{\"_estimator_type\": \"regressor\"}"},"feature_names":["temperature_2m_mean","precipitation_sum","wind_speed_10m_max","wind_direction_10m_dominant"],"feature_types":["float","float","float","float"],"gradient_booster":{"model":{"gbtree_model_param":{"num_parallel_tree":"1","num_trees":"100"},"iteration_indptr":[0,1,2,3,4,5,6,7,8,9,10,11,12,13,14,15,16,17,18,19,20,21,22,23,24,25,26,27,28,29,30,31,32,33,34,35,36,37,38,39,40,41,42,43,44,45,46,47,48,49,50,51,52,53,54,55,56,57,58,59,60,61,62,63,64,65,66,67,68,69,70,71,72,73,74,75,76,77,78,79,80,81,82,83,84,85,86,87,88,89,90,91,92,93,94,95,96,97,98,99,100],"tree_info":[0,0,0,0,0,0,0,0,0,0,0,0,0,0,0,0,0,0,0,0,0,0,0,0,0,0,0,0,0,0,0,0,0,0,0,0,0,0,0,0,0,0,0,0,0,0,0,0,0,0,0,0,0,0,0,0,0,0,0,0,0,0,0,0,0,0,0,0,0,0,0,0,0,0,0,0,0,0,0,0,0,0,0,0,0,0,0,0,0,0,0,0,0,0,0,0,0,0,0,0],"trees":[{"base_weights":[5.377971E-7,-2.075728E0,9.44995E0,3.2159853E0,-4.8233767E0,7.182366E0,1.8517614E1,3.8515373E1,2.924778E0,-6.468466E0,-1.5562987E0,4.434267E0,8.8372965E0,2.9641142E1,1.7069407E1,7.473469E-1,5.727483E1,8.235047E0,9.4630104E-1,-1.993105E0,-7.299862E0,-2.7321408E0,7.4583526E0,3.0296109E0,8.32401E0,7.001152E0,1.15232935E1,4.0608162E1,2.0096817E1,9.1357136E-1,1.7996492E1,2.0659592E0,-2.6505308E0,1.9949203E1,7.7659593E0,3.880771E0,9.573963E0,3.446511E0,-1.7432191E0,3.7997345E1,-2.7078955E0,-1.416376E1,-6.6412816E0,-5.293979E0,-1.1621783E0,2.6997347E1,6.3881736E0,5.553321E0,-1.2498701E-2,-6.0927653E-1,1.0237673E1,3.5335486E0,8.698119E0,6.236604E0,1.2537108E1,2.7494695E0,1.3519151E1,-1.0053063E-1,2.2404263E1,1.1247347E1,-2.260849E0,1.9518383E1,1.0663283E1,4.6879688E-1,5.429045E0,3.7665322E0,1.2941895E0,3.152452E0,7.8827494E-1,-1.2225957E0,8.911951E-1,1.4865959E1,4.994694E-1,-1.285131E0,3.4203202E-1,-2.8353167E0,-4.895332E0,-1.5750662E0,-2.5006526E0,-2.4450831E0,-5.103107E-1,1.9188923E-1,-1.1868609E0,3.3659594E0,1.1149469E1,-1.7580526E0,2.2381425E0,4.106713E0,1.2265844E0,-1.1158369E0,6.2187755E-1,6.212789E-1,-2.534041E0,3.965656E0,2.2619412E0,1.4891201E0,-1.2093062E0,3.5643437E0,2.0413418E0,2.1323164E0,-2.2005308E0,3.3479083E0,5.2573166E0,4.1824493E0,8.849204E0,9.494694E-1,3.8659594E0,4.9077296E0,6.975708E0,2.2568893E0,6.139151E0],"categories":[],"categories_nodes":[],"categories_segments":[],"categories_sizes":[],"default_left":[0,0,0,0,0,0,0,0,0,0,0,0,0,0,0,0,0,0,0,0,0,0,0,0,0,0,0,0,0,0,0,0,0,0,0,0,0,0,0,0,0,0,0,0,0,0,0,0,0,0,0,0,0,0,0,0,0,0,0,0,0,0,0,0,0,0,0,0,0,0,0,0,0,0,0,0,0,0,0,0,0,0,0,0,0,0,0,0,0,0,0,0,0,0,0,0,0,0,0,0,0,0,0,0,0,0,0,0,0,0,0],"id":0,"left_children":[1,3,5,7,9,11,13,15,17,19,21,23,25,27,29,31,33,35,37,39,41,43,45,47,49,51,53,55,57,59,61,-1,-1,-1,-1,63,65,67,69,71,73,75,77,79,81,83,85,87,89,91,93,95,97,99,101,-1,-1,-1,103,105,-1,107,109,-1,-1,-1,-1,-1,-1,-1,-1,-1,-1,-1,-1,-1,-1,-1,-1,-1,-1,-1,-1,-1,-1,-1,-1,-1,-1,-1,-1,-1,-1,-1,-1,-1,-1,-1,-1,-1,-1,-1,-1,-1,-1,-1,-1,-1,-1,-1,-1],"loss_changes":[7.765788E4,4.7211605E4,1.4527484E4,1.1297531E4,1.1475523E4,2.5622188E3,1.7815469E3,6.3337637E3,1.1570089E4,5.272707E3,7.6204395E3,1.160416E3,1.6750723E3,7.5399805E2,1.9007188E3,2.9615686E2,1.5490234E1,1.7060195E3,5.4123975E3,6.505887E3,5.3214023E3,2.547811E3,1.563085E3,1.2361313E3,9.806697E2,1.2285283E3,6.8825E2,4.275996E2,4.7896338E2,7.833032E2,1.1422734E3,0E0,0E0,0E0,0E0,2.3444395E3,3.5210625E3,2.3838965E3,4.2774736E3,1.5969087E3,1.3450209E3,9.0150586E2,2.5369062E3,2.4594019E3,1.9910786E3,2.2468823E2,1.0944331E3,9.926775E2,5.797728E2,2.4856078E2,2.783452E2,7.989577E2,7.810918E2,3.4769952E2,6.219121E2,0E0,0E0,0E0,1.2900684E2,1.220993E1,0E0,7.874883E2,5.5391895E2,0E0,0E0,0E0,0E0,0E0,0E0,0E0,0E0,0E0,0E0,0E0,0E0,0E0,0E0,0E0,0E0,0E0,0E0,0E0,0E0,0E0,0E0,0E0,0E0,0E0,0E0,0E0,0E0,0E0,0E0,0E0,0E0,0E0,0E0,0E0,0E0,0E0,0E0,0E0,0E0,0E0,0E0,0E0,0E0,0E0,0E0,0E0,0E0],"parents":[2147483647,0,0,1,1,2,2,3,3,4,4,5,5,6,6,7,7,8,8,9,9,10,10,11,11,12,12,13,13,14,14,15,15,16,16,17,17,18,18,19,19,20,20,21,21,22,22,23,23,24,24,25,25,26,26,27,27,28,28,29,29,30,30,35,35,36,36,37,37,38,38,39,39,40,40,41,41,42,42,43,43,44,44,45,45,46,46,47,47,48,48,49,49,50,50,51,51,52,52,53,53,54,54,58,58,59,59,61,61,62,62],"right_children":[2,4,6,8,10,12,14,16,18,20,22,24,26,28,30,32,34,36,38,40,42,44,46,48,50,52,54,56,58,60,62,-1,-1,-1,-1,64,66,68,70,72,74,76,78,80,82,84,86,88,90,92,94,96,98,100,102,-1,-1,-1,104,106,-1,108,110,-1,-1,-1,-1,-1,-1,-1,-1,-1,-1,-1,-1,-1,-1,-1,-1,-1,-1,-1,-1,-1,-1,-1,-1,-1,-1,-1,-1,-1,-1,-1,-1,-1,-1,-1,-1,-1,-1,-1,-1,-1,-1,-1,-1,-1,-1,-1,-1],"split_conditions":[2.4535997E1,1.2738099E1,2.9660997E1,4.5433316E-1,1.630225E1,2.6404753E1,5.2940266E1,7.8625183E0,8.089993E0,1.4773164E1,2.1999998E0,2.4537645E2,1.8919704E1,1.6862455E1,6.741163E1,7.754637E0,1.1435313E1,5.61725E0,1.14985E1,4.5433316E-1,4.4485E0,6.2333443E1,2.4E0,2.565892E1,1.3746156E1,1.437165E2,3.666174E1,1.1681987E1,1.7429354E1,1.6575644E1,2.706194E2,2.0659592E0,-2.6505308E0,1.9949203E1,7.7659593E0,7.8625183E0,1.2019333E1,3.6755831E0,1.9206831E1,1.872296E1,7.0000005E-1,1.757744E1,2.3517268E2,2.0925583E1,2.52061E2,1.749615E1,2.7E0,2.7339844E1,5.943602E1,1.3089354E1,2.5777252E1,1.221329E2,2.3950836E2,1E-1,2.4458813E1,2.7494695E0,1.3519151E1,-1.0053063E-1,2.2303686E1,1.224E1,-2.260849E0,1.9969458E1,3.4607706E2,4.6879688E-1,5.429045E0,3.7665322E0,1.2941895E0,3.152452E0,7.8827494E-1,-1.2225957E0,8.911951E-1,1.4865959E1,4.994694E-1,-1.285131E0,3.4203202E-1,-2.8353167E0,-4.895332E0,-1.5750662E0,-2.5006526E0,-2.4450831E0,-5.103107E-1,1.9188923E-1,-1.1868609E0,3.3659594E0,1.1149469E1,-1.7580526E0,2.2381425E0,4.106713E0,1.2265844E0,-1.1158369E0,6.2187755E-1,6.212789E-1,-2.534041E0,3.965656E0,2.2619412E0,1.4891201E0,-1.2093062E0,3.5643437E0,2.0413418E0,2.1323164E0,-2.2005308E0,3.3479083E0,5.2573166E0,4.1824493E0,8.849204E0,9.494694E-1,3.8659594E0,4.9077296E0,6.975708E0,2.2568893E0,6.139151E0],"split_indices":[0,2,0,0,0,0,3,2,2,2,1,3,2,2,3,2,2,0,0,0,0,3,1,0,2,3,3,2,2,2,3,0,0,0,0,2,0,0,0,3,1,2,3,0,3,2,1,3,3,2,0,3,3,1,2,0,0,0,3,2,0,2,3,0,0,0,0,0,0,0,0,0,0,0,0,0,0,0,0,0,0,0,0,0,0,0,0,0,0,0,0,0,0,0,0,0,0,0,0,0,0,0,0,0,0,0,0,0,0,0,0],"split_type":[0,0,0,0,0,0,0,0,0,0,0,0,0,0,0,0,0,0,0,0,0,0,0,0,0,0,0,0,0,0,0,0,0,0,0,0,0,0,0,0,0,0,0,0,0,0,0,0,0,0,0,0,0,0,0,0,0,0,0,0,0,0,0,0,0,0,0,0,0,0,0,0,0,0,0,0,0,0,0,0,0,0,0,0,0,0,0,0,0,0,0,0,0,0,0,0,0,0,0,0,0,0,0,0,0,0,0,0,0,0,0],"sum_hessian":[3.957E3,3.245E3,7.12E2,1.109E3,2.136E3,5.71E2,1.41E2,8E0,1.101E3,1.42E3,7.16E2,2.16E2,3.55E2,1.4E1,1.27E2,3E0,5E0,2.98E2,8.03E2,2.23E2,1.197E3,6.34E2,8.2E1,1.6E2,5.6E1,2.13E2,1.42E2,5E0,9E0,7E0,1.2E2,2E0,1E0,3E0,2E0,7.1E1,2.27E2,4.16E2,3.87E2,3E0,2.2E2,1.03E2,1.094E3,2.4E2,3.94E2,3E0,7.9E1,8.7E1,7.3E1,1E1,4.6E1,7.1E1,1.42E2,2.4E1,1.18E2,1E0,4E0,1E0,8E0,3E0,4E0,9.8E1,2.2E1,6.2E1,9E0,1.44E2,8.3E1,4.2E1,3.74E2,2.59E2,1.28E2,2E0,1E0,1.56E2,6.4E1,3.4E1,6.9E1,6.03E2,4.91E2,1.33E2,1.07E2,2.4E2,1.54E2,2E0,1E0,6E0,7.3E1,1.2E1,7.5E1,2.6E1,4.7E1,8E0,2E0,2E1,2.6E1,6E1,1.1E1,5.1E1,9.1E1,2.3E1,1E0,9.5E1,2.3E1,5E0,3E0,1E0,2E0,5.6E1,4.2E1,1.8E1,4E0],"tree_param":{"num_deleted":"0","num_feature":"4","num_nodes":"111","size_leaf_vector":"1"}},{"base_weights":[3.30898E-2,-1.4584899E0,6.6418266E0,2.324483E0,-3.4294374E0,5.0156584E0,1.3328765E1,2.340162E1,2.0135317E0,-4.526086E0,-1.2110187E0,3.6040673E0,7.520709E0,1.8734093E1,1.13162565E1,1.6352991E0,3.6297882E1,7.9749265E0,1.0484463E0,-2.4676867E0,-5.5119753E0,-2.3619955E0,4.466993E0,1.0453271E0,5.246016E0,3.4677203E0,8.53744E0,1.5615616E1,2.670095E1,8.266334E0,1.52669E1,6.921153E0,-2.3158672E0,1.4179148E1,2.1109951E1,4.5671744E0,1.0537071E1,2.8055613E0,-1.1567612E0,1.9014704E1,-2.7443314E0,-9.454166E0,-4.866552E0,9.417327E0,-2.541324E0,1.0926741E0,7.4490438E0,1.3515358E0,-1.0392624E1,-1.8858065E-1,5.9697733E0,9.903039E0,1.7625651E0,8.96712E0,2.204334E0,2.269545E1,7.4947405E0,2.8494308E1,1.8531133E0,4.714747E0,1.0700403E1,1.7814262E1,6.7771344E0,3.4071317E0,-1.6233983E0,-3.1233983E0,8.848942E0,1.078045E0,7.2424264E0,5.5717897E0,2.245395E0,1.1336449E0,-4.0764862E-1,-7.1031475E-1,1.9662476E0,9.13185E0,-7.669777E-1,-4.380096E0,-6.6748524E-1,-3.022868E0,2.5830684E0,5.0037727E0,-1.4974611E0,4.6647067E0,-2.4087217E0,-1.1459192E0,-3.2972276E-1,-6.044979E-1,1.6349024E0,5.527524E0,1.6552583E0,-1.0025846E0,6.36917E-1,-3.8673708E0,-4.3451846E-1,-2.902326E-1,3.1261015E0,6.4404696E-1,2.0511599E0,3.7767458E0,1.0194329E0,-2.6290688E-1,2.1340313E0,2.8392599E0,2.140923E-1,-1.3019031E0,4.9131823E0,9.3411455E0,4.6082654E0,2.8764668E-1,3.928145E0,4.601296E0,1.1344966E1,2.1136913E0,2.051547E-1,3.3562093E0,4.8441315E-1,7.3556037E0,4.325978E0,3.2801862E0,-3.687607E-1],"categories":[],"categories_nodes":[],"categories_segments":[],"categories_sizes":[],"default_left":[0,0,0,0,0,0,0,0,0,0,0,0,0,0,0,0,0,0,0,0,0,0,0,0,0,0,0,0,0,0,0,0,0,0,0,0,0,0,0,0,0,0,0,0,0,0,0,0,0,0,0,0,0,0,0,0,0,0,0,0,0,0,0,0,0,0,0,0,0,0,0,0,0,0,0,0,0,0,0,0,0,0,0,0,0,0,0,0,0,0,0,0,0,0,0,0,0,0,0,0,0,0,0,0,0,0,0,0,0,0,0,0,0,0,0,0,0,0,0,0,0],"id":1,"left_children":[1,3,5,7,9,11,13,15,17,19,21,23,25,27,29,31,33,35,37,39,41,43,45,47,49,51,53,55,57,59,61,63,-1,-1,65,67,69,71,73,75,77,79,81,83,85,87,89,91,93,95,97,99,101,103,105,107,109,111,-1,113,115,117,119,-1,-1,-1,-1,-1,-1,-1,-1,-1,-1,-1,-1,-1,-1,-1,-1,-1,-1,-1,-1,-1,-1,-1,-1,-1,-1,-1,-1,-1,-1,-1,-1,-1,-1,-1,-1,-1,-1,-1,-1,-1,-1,-1,-1,-1,-1,-1,-1,-1,-1,-1,-1,-1,-1,-1,-1,-1,-1],"loss_changes":[3.9025504E4,2.4090982E4,7.8603594E3,7.208114E3,5.16184E3,2.052126E3,1.3327129E3,4.431909E3,6.2741943E3,2.8701113E3,4.611373E3,1.5826157E3,8.398828E2,5.0229395E2,1.1510088E3,3.9956708E2,6.677637E2,1.2790107E3,3.649435E3,2.7978442E3,2.3965977E3,1.2617803E3,1.1892852E3,5.359037E2,9.057905E2,4.6536676E2,4.3739648E2,1.4972422E3,1.5524902E2,4.855288E2,8.524629E2,3.349885E2,0E0,0E0,1.8932207E3,1.1902191E3,1.9703906E3,2.128914E3,3.918625E3,1.5565073E3,2.7816162E3,1.5925352E3,2.3102812E3,1.0876282E3,1.0615068E3,7.8276715E2,1.2339639E3,5.357788E2,7.072104E1,2.414416E2,6.584956E2,1.1447748E2,5.14573E2,6.373594E2,1.1840465E3,4.5044922E2,5.363718E2,4.011797E2,0E0,2.4886255E2,1.4121289E2,4.2018262E2,4.128108E2,0E0,0E0,0E0,0E0,0E0,0E0,0E0,0E0,0E0,0E0,0E0,0E0,0E0,0E0,0E0,0E0,0E0,0E0,0E0,0E0,0E0,0E0,0E0,0E0,0E0,0E0,0E0,0E0,0E0,0E0,0E0,0E0,0E0,0E0,0E0,0E0,0E0,0E0,0E0,0E0,0E0,0E0,0E0,0E0,0E0,0E0,0E0,0E0,0E0,0E0,0E0,0E0,0E0,0E0,0E0,0E0,0E0,0E0],"parents":[2147483647,0,0,1,1,2,2,3,3,4,4,5,5,6,6,7,7,8,8,9,9,10,10,11,11,12,12,13,13,14,14,15,15,16,16,17,17,18,18,19,19,20,20,21,21,22,22,23,23,24,24,25,25,26,26,27,27,28,28,29,29,30,30,31,31,34,34,35,35,36,36,37,37,38,38,39,39,40,40,41,41,42,42,43,43,44,44,45,45,46,46,47,47,48,48,49,49,50,50,51,51,52,52,53,53,54,54,55,55,56,56,57,57,59,59,60,60,61,61,62,62],"right_children":[2,4,6,8,10,12,14,16,18,20,22,24,26,28,30,32,34,36,38,40,42,44,46,48,50,52,54,56,58,60,62,64,-1,-1,66,68,70,72,74,76,78,80,82,84,86,88,90,92,94,96,98,100,102,104,106,108,110,112,-1,114,116,118,120,-1,-1,-1,-1,-1,-1,-1,-1,-1,-1,-1,-1,-1,-1,-1,-1,-1,-1,-1,-1,-1,-1,-1,-1,-1,-1,-1,-1,-1,-1,-1,-1,-1,-1,-1,-1,-1,-1,-1,-1,-1,-1,-1,-1,-1,-1,-1,-1,-1,-1,-1,-1,-1,-1,-1,-1,-1,-1],"split_conditions":[2.4308916E1,1.2738099E1,2.9660997E1,1.2943333E0,1.630225E1,1.9353138E1,9.905457E1,9.290511E0,7.2805495E0,1.7057314E1,1.1E0,2.6404753E1,3.666174E1,8.523652E1,1.9969458E1,2.0501689E2,1.1435313E1,7.9026656E0,1.1694332E1,4.5433316E-1,5.7939167E0,1.6423082E1,1.5394658E2,1.9201874E1,1.1090103E1,7.072706E0,2.8165257E1,5.2940266E1,1.8079027E1,3.0221418E1,2.560511E2,7.9932976E0,-2.3158672E0,1.4179148E1,1.1753876E1,3.585312E2,2.080129E1,2.8499915E2,1E0,1.44E1,2.3755834E0,3.4793683E2,5.8939166E0,1E-1,2.0781418E1,1.9583914E1,1.8724673E2,2.4633917E1,1E-1,2.9308914E1,7.569969E1,2.7690165E1,2.4023088E1,6E-1,2.3950836E2,1.6862455E1,6.741163E1,1.3556282E1,1.8531133E0,1.6363178E1,1.908E1,2.1980644E1,3.0733915E1,3.4071317E0,-1.6233983E0,-3.1233983E0,8.848942E0,1.078045E0,7.2424264E0,5.5717897E0,2.245395E0,1.1336449E0,-4.0764862E-1,-7.1031475E-1,1.9662476E0,9.13185E0,-7.669777E-1,-4.380096E0,-6.6748524E-1,-3.022868E0,2.5830684E0,5.0037727E0,-1.4974611E0,4.6647067E0,-2.4087217E0,-1.1459192E0,-3.2972276E-1,-6.044979E-1,1.6349024E0,5.527524E0,1.6552583E0,-1.0025846E0,6.36917E-1,-3.8673708E0,-4.3451846E-1,-2.902326E-1,3.1261015E0,6.4404696E-1,2.0511599E0,3.7767458E0,1.0194329E0,-2.6290688E-1,2.1340313E0,2.8392599E0,2.140923E-1,-1.3019031E0,4.9131823E0,9.3411455E0,4.6082654E0,2.8764668E-1,3.928145E0,4.601296E0,1.1344966E1,2.1136913E0,2.051547E-1,3.3562093E0,4.8441315E-1,7.3556037E0,4.325978E0,3.2801862E0,-3.687607E-1],"split_indices":[0,2,0,0,0,2,3,2,2,2,1,0,3,3,2,3,2,0,0,0,0,0,3,2,2,3,2,3,2,0,3,2,0,0,2,3,3,3,1,2,0,3,0,1,0,0,3,0,1,0,3,0,2,1,3,2,3,2,0,2,2,2,0,0,0,0,0,0,0,0,0,0,0,0,0,0,0,0,0,0,0,0,0,0,0,0,0,0,0,0,0,0,0,0,0,0,0,0,0,0,0,0,0,0,0,0,0,0,0,0,0,0,0,0,0,0,0,0,0,0,0],"split_type":[0,0,0,0,0,0,0,0,0,0,0,0,0,0,0,0,0,0,0,0,0,0,0,0,0,0,0,0,0,0,0,0,0,0,0,0,0,0,0,0,0,0,0,0,0,0,0,0,0,0,0,0,0,0,0,0,0,0,0,0,0,0,0,0,0,0,0,0,0,0,0,0,0,0,0,0,0,0,0,0,0,0,0,0,0,0,0,0,0,0,0,0,0,0,0,0,0,0,0,0,0,0,0,0,0,0,0,0,0,0,0,0,0,0,0,0,0,0,0,0,0],"sum_hessian":[3.957E3,3.229E3,7.28E2,1.106E3,2.123E3,5.87E2,1.41E2,1.5E1,1.091E3,1.42E3,7.03E2,3.77E2,2.1E2,3.6E1,1.05E2,6E0,9E0,1.51E2,9.4E2,4.61E2,9.59E2,5.85E2,1.18E2,1.48E2,2.29E2,4.3E1,1.67E2,2.8E1,8E0,6.1E1,4.4E1,4E0,2E0,4E0,5E0,6.6E1,8.5E1,5.23E2,4.17E2,5E0,4.56E2,1.33E2,8.26E2,8E0,5.77E2,5.6E1,6.2E1,1.45E2,3E0,2.7E1,2.02E2,8E0,3.5E1,1.56E2,1.1E1,1.4E1,1.4E1,7E0,1E0,2.6E1,3.5E1,3.3E1,1.1E1,3E0,1E0,1E0,4E0,6.4E1,2E0,2.2E1,6.3E1,4.24E2,9.9E1,3.61E2,5.6E1,3E0,2E0,1.8E1,4.38E2,1.29E2,4E0,4E0,8.22E2,6E0,2E0,3.05E2,2.72E2,3.3E1,2.3E1,8E0,5.4E1,2E1,1.25E2,2E0,1E0,2.6E1,1E0,3.8E1,1.64E2,5E0,3E0,2.4E1,1.1E1,1.47E2,9E0,8E0,3E0,5E0,9E0,7E0,7E0,4E0,3E0,1.6E1,1E1,3.3E1,2E0,9E0,2.4E1,7E0,4E0],"tree_param":{"num_deleted":"0","num_feature":"4","num_nodes":"121","size_leaf_vector":"1"}},{"base_weights":[5.4436646E-2,-7.918838E-1,5.949622E0,2.8663602E0,-1.5846965E0,4.769459E0,1.0893371E1,5.6344376E0,1.9414675E0,1.8996052E1,-1.6858422E0,4.2601833E0,1.0002408E1,1.2799282E1,5.0448465E0,4.7435713E0,1.2101892E1,8.4031925E0,1.3783243E0,1.0079886E1,-6.075308E0,-2.4051359E0,1.0882958E0,1.0389987E1,3.9529119E0,2.1663721E1,6.313375E0,6.8528366E0,1.3892579E1,5.9429464E0,-1.0566605E0,6.519191E0,1.8936528E0,7.952688E0,4.6102395E0,-3.6820822E0,1.4351407E1,-5.31223E0,1.9323899E0,1.3981362E-1,-2.2430363E0,-1.5138581E0,-3.8466418E0,1.6104221E-1,6.383514E0,1.4864982E1,-3.322998E0,-7.344267E-2,4.5264816E0,9.349829E-1,2.3868078E1,-3.72469E0,9.836762E0,8.988931E0,-2.006073E-1,1.935402E1,1.0814544E1,4.619178E0,5.2598786E0,1.1830515E0,3.4589174E0,-5.7333606E-1,1.9150904E0,8.095303E-1,5.7939405E0,-2.2401907E0,2.0104463E0,6.291823E0,1.2052923E0,-2.0735685E-2,-3.0728571E0,1.5803857E0,2.0375873E-1,-2.9420927E-1,-1.4004463E0,-1.2877263E0,7.866498E-1,-4.8314422E-1,5.062165E-1,1.06621275E1,1.583804E0,-6.3197136E-2,4.841652E0,-1.7994913E0,1.379921E-1,-1.0602006E0,7.093457E-1,1.4787891E0,-7.400185E-2,7.8421674E0,1.5349829E0,6.202203E-1,-2.2840276E0,4.6643686E0,-4.1619447E-1,1.2177169E0,3.4797013E0,8.1317145E-1,-1.3401215E0,8.078164E-1,6.3167043E0,2.6043077E0,5.4790463E0,1.5168606E0,-6.8375015E-1],"categories":[],"categories_nodes":[],"categories_segments":[],"categories_sizes":[],"default_left":[0,0,0,0,0,0,0,0,0,0,0,0,0,0,0,0,0,0,0,0,0,0,0,0,0,0,0,0,0,0,0,0,0,0,0,0,0,0,0,0,0,0,0,0,0,0,0,0,0,0,0,0,0,0,0,0,0,0,0,0,0,0,0,0,0,0,0,0,0,0,0,0,0,0,0,0,0,0,0,0,0,0,0,0,0,0,0,0,0,0,0,0,0,0,0,0,0,0,0,0,0,0,0,0,0],"id":2,"left_children":[1,3,5,7,9,11,13,15,17,19,21,23,25,27,29,31,33,35,37,-1,39,41,43,45,47,49,51,53,55,57,-1,59,61,63,-1,65,67,69,71,-1,-1,73,75,77,79,81,83,85,87,-1,89,91,93,95,97,99,101,103,-1,-1,-1,-1,-1,-1,-1,-1,-1,-1,-1,-1,-1,-1,-1,-1,-1,-1,-1,-1,-1,-1,-1,-1,-1,-1,-1,-1,-1,-1,-1,-1,-1,-1,-1,-1,-1,-1,-1,-1,-1,-1,-1,-1,-1,-1,-1],"loss_changes":[1.975203E4,1.0045388E4,2.8477559E3,1.568689E3,5.9564126E3,1.0313887E3,9.9437305E2,8.2988525E2,1.6768562E3,5.329967E3,5.6556416E3,6.539458E2,1.3688923E3,3.6638477E2,2.1328387E2,6.8092554E2,1.21678955E2,2.7126182E3,1.5968638E3,0E0,5.8489975E1,2.8849375E3,2.8664177E3,1.0926106E3,8.1554834E2,2.5268823E2,1.0269429E3,1.9767188E2,7.8251465E2,2.7188873E2,0E0,1.0386001E3,9.347014E2,5.447915E2,0E0,5.6099524E2,1.6263218E3,8.524022E2,1.6517443E3,0E0,0E0,2.336413E3,2.4883184E3,1.3492882E3,2.6132578E3,2.5305493E2,5.336209E1,3.880028E2,5.953301E2,0E0,1.6453516E2,1.9593124E2,1.3677158E3,8.159235E1,6.179007E1,5.1034033E2,4.7715186E2,7.784833E1,0E0,0E0,0E0,0E0,0E0,0E0,0E0,0E0,0E0,0E0,0E0,0E0,0E0,0E0,0E0,0E0,0E0,0E0,0E0,0E0,0E0,0E0,0E0,0E0,0E0,0E0,0E0,0E0,0E0,0E0,0E0,0E0,0E0,0E0,0E0,0E0,0E0,0E0,0E0,0E0,0E0,0E0,0E0,0E0,0E0,0E0,0E0],"parents":[2147483647,0,0,1,1,2,2,3,3,4,4,5,5,6,6,7,7,8,8,9,9,10,10,11,11,12,12,13,13,14,14,15,15,16,16,17,17,18,18,20,20,21,21,22,22,23,23,24,24,25,25,26,26,27,27,28,28,29,29,31,31,32,32,33,33,35,35,36,36,37,37,38,38,41,41,42,42,43,43,44,44,45,45,46,46,47,47,48,48,50,50,51,51,52,52,53,53,54,54,55,55,56,56,57,57],"right_children":[2,4,6,8,10,12,14,16,18,20,22,24,26,28,30,32,34,36,38,-1,40,42,44,46,48,50,52,54,56,58,-1,60,62,64,-1,66,68,70,72,-1,-1,74,76,78,80,82,84,86,88,-1,90,92,94,96,98,100,102,104,-1,-1,-1,-1,-1,-1,-1,-1,-1,-1,-1,-1,-1,-1,-1,-1,-1,-1,-1,-1,-1,-1,-1,-1,-1,-1,-1,-1,-1,-1,-1,-1,-1,-1,-1,-1,-1,-1,-1,-1,-1,-1,-1,-1,-1,-1,-1],"split_conditions":[2.6404753E1,9.826088E0,3.0221418E1,7.2805495E0,4.5433316E-1,2.4458813E1,2.4986359E2,7.2E0,3.6755831E0,1.44E1,2.0781418E1,2.6488083E1,2.4850431E1,1.4182355E1,3.175267E1,1.221329E2,7.9026656E0,7.8625183E0,4.7897496E0,1.0079886E1,1.5463246E1,1.945333E1,2E-1,2.6910483E2,1.1988594E1,2.6935997E1,2.5711662E1,1.3976394E1,1.12135544E2,3.1269331E1,-1.0566605E0,3.5254364E1,3.2977817E2,3.585312E2,4.6102395E0,3.193583E2,9.021574E0,4.4485E0,7.7839165E0,1.3981362E-1,-2.2430363E0,2.8215323E2,1.21E1,2.3460999E1,1.14862E1,7.754637E0,2.7600885E2,2.7690165E1,2.2725668E1,9.349829E-1,1E-1,2.093099E2,2.8820242E1,7.8459526E1,3.0733915E1,1.499813E1,2.384996E2,1E-1,5.2598786E0,1.1830515E0,3.4589174E0,-5.7333606E-1,1.9150904E0,8.095303E-1,5.7939405E0,-2.2401907E0,2.0104463E0,6.291823E0,1.2052923E0,-2.0735685E-2,-3.0728571E0,1.5803857E0,2.0375873E-1,-2.9420927E-1,-1.4004463E0,-1.2877263E0,7.866498E-1,-4.8314422E-1,5.062165E-1,1.06621275E1,1.583804E0,-6.3197136E-2,4.841652E0,-1.7994913E0,1.379921E-1,-1.0602006E0,7.093457E-1,1.4787891E0,-7.400185E-2,7.8421674E0,1.5349829E0,6.202203E-1,-2.2840276E0,4.6643686E0,-4.1619447E-1,1.2177169E0,3.4797013E0,8.1317145E-1,-1.3401215E0,8.078164E-1,6.3167043E0,2.6043077E0,5.4790463E0,1.5168606E0,-6.8375015E-1],"split_indices":[0,2,0,2,0,2,3,2,0,2,0,0,2,2,0,3,0,2,0,0,2,2,1,3,2,0,2,2,3,0,0,3,3,3,0,3,2,0,0,0,0,3,1,0,2,2,3,0,2,0,1,3,2,3,0,3,3,1,0,0,0,0,0,0,0,0,0,0,0,0,0,0,0,0,0,0,0,0,0,0,0,0,0,0,0,0,0,0,0,0,0,0,0,0,0,0,0,0,0,0,0,0,0,0,0],"split_type":[0,0,0,0,0,0,0,0,0,0,0,0,0,0,0,0,0,0,0,0,0,0,0,0,0,0,0,0,0,0,0,0,0,0,0,0,0,0,0,0,0,0,0,0,0,0,0,0,0,0,0,0,0,0,0,0,0,0,0,0,0,0,0,0,0,0,0,0,0,0,0,0,0,0,0,0,0,0,0,0,0,0,0,0,0,0,0,0,0,0,0,0,0,0,0,0,0,0,0,0,0,0,0,0,0],"sum_hessian":[3.957E3,3.461E3,4.96E2,6.16E2,2.845E3,4.02E2,9.4E1,1.53E2,4.63E2,1.3E1,2.832E3,3.68E2,3.4E1,7E1,2.4E1,1.36E2,1.7E1,3.6E1,4.27E2,8E0,5E0,2.249E3,5.83E2,1.6E1,3.52E2,7E0,2.7E1,1.2E1,5.8E1,2.2E1,2E0,8.3E1,5.3E1,9E0,8E0,1.2E1,2.4E1,3.2E1,3.95E2,1E0,4E0,1.391E3,8.58E2,4.97E2,8.6E1,1.2E1,4E0,4.4E1,3.08E2,1E0,6E0,7E0,2E1,9E0,3E0,1.9E1,3.9E1,2.1E1,1E0,5.6E1,2.7E1,2.9E1,2.4E1,7E0,2E0,9E0,3E0,1.4E1,1E1,1.6E1,1.6E1,1.07E2,2.88E2,1.191E3,2E2,8.03E2,5.5E1,2.3E2,2.67E2,2E0,8.4E1,1E0,1.1E1,2E0,2E0,1.8E1,2.6E1,2.84E2,2.4E1,5E0,1E0,3E0,4E0,1.3E1,7E0,4E0,5E0,2E0,1E0,2E0,1.7E1,3.2E1,7E0,2E1,1E0],"tree_param":{"num_deleted":"0","num_feature":"4","num_nodes":"105","size_leaf_vector":"1"}},{"base_weights":[5.899657E-2,-5.651073E-1,4.114378E0,1.1651858E0,-1.5660933E0,2.9788294E0,7.1801734E0,1.5477028E1,9.683529E-1,-2.5975804E0,-1.4093142E-2,1.3364915E0,4.2592945E0,1.3948207E1,6.3309493E0,-1.2998581E-1,2.4001762E1,3.2853725E0,1.7411585E-1,-5.982634E0,-2.2437298E0,-8.919111E-1,2.563816E0,2.5278974E-1,4.3652387E0,7.8813834E0,2.9196668E0,1.8262962E1,6.4080634E0,-2.368394E0,6.8537903E0,3.4583862E0,-1.8201833E0,8.438005E0,1.3426517E1,4.2470894E0,-8.2031006E-1,-1.1814108E0,1.2534711E0,-4.0740056E0,-1.1515531E1,-1.6535677E-1,-3.3362694E0,-1.8934976E0,1.3338447E0,1.328445E0,4.218749E0,1.5311427E0,-2.110679E0,5.7243304E0,-5.422913E0,6.6333413E0,5.935189E0,-6.4715576E0,3.4565177E0,7.5321984E-1,1.9918148E1,-2.3046358E0,4.074168E0,5.3984833E0,-2.4324653E0,1.2695767E1,5.9073243E0,2.0772362E0,-1.5606824E0,-2.6107574E0,6.3403225E0,3.2342747E-1,2.0663297E0,1.2510512E0,-1.4717972E0,6.524098E-2,-1.5177613E0,9.351609E-1,-1.8670282E-1,-1.3789092E0,3.938658E0,-3.65848E0,1.3299832E0,-1.516178E-1,3.3378835E0,-2.5302227E0,-8.8754386E-1,-1.1226526E0,-1.9136553E-1,-3.3215363E0,6.3188183E-1,-1.0094772E-1,1.3220421E0,6.5565357E0,1.0191493E0,-2.6223458E-2,2.662325E0,-7.8556406E-1,3.0353258E0,1.4562261E0,5.949576E0,-2.566379E0,1.5353256E0,2.1323173E0,-3.220116E-1,-3.3149993E0,-1.7964202E-1,1.7894621E0,5.4031706E-1,7.1128855E0,3.0597827E0,1.9734448E0,2.7892286E-1,2.1564343E0,6.203151E0,1.39862E0,2.990311E0],"categories":[],"categories_nodes":[],"categories_segments":[],"categories_sizes":[],"default_left":[0,0,0,0,0,0,0,0,0,0,0,0,0,0,0,0,0,0,0,0,0,0,0,0,0,0,0,0,0,0,0,0,0,0,0,0,0,0,0,0,0,0,0,0,0,0,0,0,0,0,0,0,0,0,0,0,0,0,0,0,0,0,0,0,0,0,0,0,0,0,0,0,0,0,0,0,0,0,0,0,0,0,0,0,0,0,0,0,0,0,0,0,0,0,0,0,0,0,0,0,0,0,0,0,0,0,0,0,0,0,0,0,0],"id":3,"left_children":[1,3,5,7,9,11,13,15,17,19,21,23,25,27,29,31,33,35,37,39,41,43,45,47,49,51,53,55,57,59,61,63,-1,-1,65,67,69,71,73,75,77,79,81,83,85,87,89,91,93,95,97,99,-1,101,103,-1,105,-1,-1,107,-1,109,111,-1,-1,-1,-1,-1,-1,-1,-1,-1,-1,-1,-1,-1,-1,-1,-1,-1,-1,-1,-1,-1,-1,-1,-1,-1,-1,-1,-1,-1,-1,-1,-1,-1,-1,-1,-1,-1,-1,-1,-1,-1,-1,-1,-1,-1,-1,-1,-1,-1,-1],"loss_changes":[1.001994E4,5.9443145E3,1.8167686E3,3.5288513E3,3.480251E3,8.0815137E2,7.278506E2,2.2648958E3,2.2850342E3,1.5509072E3,1.9687773E3,5.601627E2,1.0299275E3,3.7097778E2,5.984248E2,1.7011946E2,1.0219971E2,1.2551597E3,1.3563068E3,1.2519956E3,2.687963E3,1.4493328E3,4.4622046E2,3.8694284E2,6.2967737E2,7.3035156E2,8.2903906E2,1.8464697E2,8.117599E2,4.0041605E2,5.9403955E2,1.8609888E2,0E0,0E0,1.0367639E3,2.1432266E3,1.264219E3,2.2305986E3,1.8058829E3,8.96048E2,3.8996924E2,1.5760034E3,1.4695469E3,1.037521E3,1.9589764E3,6.575187E2,1.2877932E3,9.8727106E2,3.0596295E2,3.948158E2,2.4184045E2,2.0504956E2,0E0,2.3537546E2,6.204343E2,0E0,5.2969727E1,0E0,0E0,1.4970497E1,0E0,5.5471094E2,4.8948877E2,0E0,0E0,0E0,0E0,0E0,0E0,0E0,0E0,0E0,0E0,0E0,0E0,0E0,0E0,0E0,0E0,0E0,0E0,0E0,0E0,0E0,0E0,0E0,0E0,0E0,0E0,0E0,0E0,0E0,0E0,0E0,0E0,0E0,0E0,0E0,0E0,0E0,0E0,0E0,0E0,0E0,0E0,0E0,0E0,0E0,0E0,0E0,0E0,0E0,0E0],"parents":[2147483647,0,0,1,1,2,2,3,3,4,4,5,5,6,6,7,7,8,8,9,9,10,10,11,11,12,12,13,13,14,14,15,15,16,16,17,17,18,18,19,19,20,20,21,21,22,22,23,23,24,24,25,25,26,26,27,27,28,28,29,29,30,30,31,31,34,34,35,35,36,36,37,37,38,38,39,39,40,40,41,41,42,42,43,43,44,44,45,45,46,46,47,47,48,48,49,49,50,50,51,51,53,53,54,54,56,56,59,59,61,61,62,62],"right_children":[2,4,6,8,10,12,14,16,18,20,22,24,26,28,30,32,34,36,38,40,42,44,46,48,50,52,54,56,58,60,62,64,-1,-1,66,68,70,72,74,76,78,80,82,84,86,88,90,92,94,96,98,100,-1,102,104,-1,106,-1,-1,108,-1,110,112,-1,-1,-1,-1,-1,-1,-1,-1,-1,-1,-1,-1,-1,-1,-1,-1,-1,-1,-1,-1,-1,-1,-1,-1,-1,-1,-1,-1,-1,-1,-1,-1,-1,-1,-1,-1,-1,-1,-1,-1,-1,-1,-1,-1,-1,-1,-1,-1,-1,-1],"split_conditions":[2.6206415E1,1.3392774E1,2.9660997E1,1.2943333E0,1.6035583E1,2.0244278E2,5.2940266E1,9.290511E0,8.209263E0,2.7339844E1,2E-1,2.8527672E1,2.3925473E2,1.757744E1,6.741163E1,2.0501689E2,4.5433316E-1,1.4456417E1,8.071199E1,1.1063083E1,2.122841E2,2.3460999E1,2.1999998E0,9.576792E1,1.7620963E2,2.3565567E1,2.4030418E2,1.1681987E1,2.0240196E1,1.6575644E1,9.905457E1,7.9932976E0,-1.8201833E0,8.438005E0,2.9304152E1,7.010999E0,7.4128532E0,4.5360943E1,2.4106944E2,1.06797495E1,1.7E0,2.9891924E1,4.1651664E0,6.2333443E1,1.3746156E1,2.1213081E1,2.4E0,7.369822E1,1.3E0,4E-1,1E-1,2.9433914E1,5.935189E0,2.7523499E1,2.720433E1,7.5321984E-1,1.6862455E1,-2.3046358E0,4.074168E0,1.5349684E1,-2.4324653E0,8.974072E1,3.1269331E1,2.0772362E0,-1.5606824E0,-2.6107574E0,6.3403225E0,3.2342747E-1,2.0663297E0,1.2510512E0,-1.4717972E0,6.524098E-2,-1.5177613E0,9.351609E-1,-1.8670282E-1,-1.3789092E0,3.938658E0,-3.65848E0,1.3299832E0,-1.516178E-1,3.3378835E0,-2.5302227E0,-8.8754386E-1,-1.1226526E0,-1.9136553E-1,-3.3215363E0,6.3188183E-1,-1.0094772E-1,1.3220421E0,6.5565357E0,1.0191493E0,-2.6223458E-2,2.662325E0,-7.8556406E-1,3.0353258E0,1.4562261E0,5.949576E0,-2.566379E0,1.5353256E0,2.1323173E0,-3.220116E-1,-3.3149993E0,-1.7964202E-1,1.7894621E0,5.4031706E-1,7.1128855E0,3.0597827E0,1.9734448E0,2.7892286E-1,2.1564343E0,6.203151E0,1.39862E0,2.990311E0],"split_indices":[0,2,0,0,0,3,3,2,2,3,1,0,3,2,3,3,0,0,3,0,3,0,1,3,3,2,3,2,2,2,3,2,0,0,3,0,2,3,3,0,1,2,0,3,2,0,1,3,1,1,1,0,0,0,0,0,2,0,0,2,0,3,0,0,0,0,0,0,0,0,0,0,0,0,0,0,0,0,0,0,0,0,0,0,0,0,0,0,0,0,0,0,0,0,0,0,0,0,0,0,0,0,0,0,0,0,0,0,0,0,0,0,0],"split_type":[0,0,0,0,0,0,0,0,0,0,0,0,0,0,0,0,0,0,0,0,0,0,0,0,0,0,0,0,0,0,0,0,0,0,0,0,0,0,0,0,0,0,0,0,0,0,0,0,0,0,0,0,0,0,0,0,0,0,0,0,0,0,0,0,0,0,0,0,0,0,0,0,0,0,0,0,0,0,0,0,0,0,0,0,0,0,0,0,0,0,0,0,0,0,0,0,0,0,0,0,0,0,0,0,0,0,0,0,0,0,0,0,0],"sum_hessian":[3.957E3,3.43E3,5.27E2,1.257E3,2.173E3,3.86E2,1.41E2,1.6E1,1.241E3,1.305E3,8.68E2,1.7E2,2.16E2,1.4E1,1.27E2,6E0,1E1,3.16E2,9.25E2,1.22E2,1.183E3,6.48E2,2.2E2,1.26E2,4.4E1,5.7E1,1.59E2,8E0,6E0,7E0,1.2E2,4E0,2E0,6E0,4E0,2.56E2,6E1,4.1E2,5.15E2,9.2E1,3E1,4.08E2,7.75E2,4.47E2,2.01E2,1.27E2,9.3E1,8.2E1,4.4E1,3.9E1,5E0,5.3E1,4E0,8E0,1.51E2,1E0,7E0,2E0,4E0,3E0,4E0,1.5E1,1.05E2,3E0,1E0,1E0,3E0,1.17E2,1.39E2,2.7E1,3.3E1,3.02E2,1.08E2,2.58E2,2.57E2,9E1,2E0,2.9E1,1E0,3.97E2,1.1E1,5.2E1,7.23E2,1.8E2,2.67E2,1.1E1,1.9E2,8.3E1,4.4E1,3E0,9E1,6.8E1,1.4E1,4.3E1,1E0,3.8E1,1E0,4E0,1E0,5E1,3E0,4E0,4E0,5.9E1,9.2E1,4E0,3E0,2E0,1E0,1E1,5E0,8.2E1,2.3E1],"tree_param":{"num_deleted":"0","num_feature":"4","num_nodes":"113","size_leaf_vector":"1"}},{"base_weights":[5.6513723E-2,-3.782144E-1,3.0846267E0,1.1356761E0,-9.3144715E-1,2.23058E0,5.2040353E0,7.2819984E-1,4.826051E0,-3.279228E0,-6.7439574E-1,1.2083706E0,3.6590343E0,1.06101055E1,4.529855E0,2.006839E0,-1.8179795E0,3.556016E0,4.1318436E1,-2.1536539E0,-8.802221E0,9.400456E0,-7.539873E-1,9.8731565E-1,3.6871822E0,7.2344847E0,2.5292113E0,7.062699E0,1.8599798E1,4.9097176E0,-2.7377353E0,1.4821065E1,1.8404027E0,-6.921154E0,-5.3977615E-1,7.3325405E0,-1.5705299E0,1.543126E1,3.1620364E0,-1.1511673E0,-9.485909E0,-1.4458565E1,-3.9575236E0,1.4843101E1,-1.2727121E0,-1.9860777E0,-1.579711E-1,6.527898E-1,5.9035234E0,9.2592125E0,-7.563715E-1,2.9401293E0,-7.016823E0,8.588081E0,-1.4574766E0,6.2917743E0,1.722218E0,3.6786702E0,8.25708E0,-3.7720413E0,5.202153E-1,-3.2274115E-1,8.103801E0,4.9891585E-1,3.3806186E0,-1.2645149E0,-4.211051E0,-3.6344165E-1,2.041975E0,9.4105643E-1,3.8734038E0,-1.69884E0,7.8007996E-1,-9.878165E-1,1.0784608E0,-3.0826497E0,-8.112641E-2,-9.2920935E-1,-4.9185615E0,1.0668966E0,-2.381015E0,-1.8344291E0,5.8938456E0,3.0006227E0,-3.6687965E0,-2.4948935E-1,-1.3031422E0,7.424555E-1,-2.4853382E-1,1.7405165E0,8.442666E-2,3.2611938E0,4.3207255E-1,3.2411852E0,-2.212372E-3,1.809105E-1,-1.5408326E0,6.6402256E-1,3.9951317E0,-3.845364E0,3.369526E-1,3.639066E0,1.0843792E0,2.9251412E-1,1.5385549E0,6.294011E0,2.0128648E0,-1.4439443E0,2.1502362E-1],"categories":[],"categories_nodes":[],"categories_segments":[],"categories_sizes":[],"default_left":[0,0,0,0,0,0,0,0,0,0,0,0,0,0,0,0,0,0,0,0,0,0,0,0,0,0,0,0,0,0,0,0,0,0,0,0,0,0,0,0,0,0,0,0,0,0,0,0,0,0,0,0,0,0,0,0,0,0,0,0,0,0,0,0,0,0,0,0,0,0,0,0,0,0,0,0,0,0,0,0,0,0,0,0,0,0,0,0,0,0,0,0,0,0,0,0,0,0,0,0,0,0,0,0,0,0,0,0,0],"id":4,"left_children":[1,3,5,7,9,11,13,15,17,19,21,23,25,27,29,31,33,35,37,39,41,43,45,47,-1,49,51,53,55,57,59,61,63,65,67,69,71,-1,-1,73,75,77,79,81,83,85,87,89,91,93,95,97,99,101,-1,-1,-1,103,105,107,-1,-1,-1,-1,-1,-1,-1,-1,-1,-1,-1,-1,-1,-1,-1,-1,-1,-1,-1,-1,-1,-1,-1,-1,-1,-1,-1,-1,-1,-1,-1,-1,-1,-1,-1,-1,-1,-1,-1,-1,-1,-1,-1,-1,-1,-1,-1,-1,-1],"loss_changes":[5.211501E3,2.9006E3,8.87999E2,1.3904529E3,1.5282656E3,5.1540247E2,4.6948022E2,2.7253674E3,4.1169604E3,1.5351777E3,1.840973E3,4.998699E2,5.7956714E2,2.937755E2,3.6680957E2,1.1606665E3,1.8226746E3,1.7539635E3,3.9218848E2,1.525332E3,1.0937175E3,1.0645159E3,1.6666511E3,3.349336E2,0E0,5.7327905E2,4.6781073E2,2.5993134E2,1.649292E0,4.723579E2,3.891728E1,1.3857183E3,9.0259375E2,1.0191575E3,1.118513E3,1.1766584E3,6.803778E2,0E0,0E0,1.8921575E3,1.7913281E2,3.6726636E2,7.458025E2,1.3280713E3,9.870527E2,2.0105735E3,2.7046355E3,3.6932367E2,2.7254932E2,4.0088452E2,5.0727997E1,8.000519E2,2.5049971E2,1.4993854E2,0E0,0E0,0E0,3.5170447E2,4.8928687E2,3.1489632E1,0E0,0E0,0E0,0E0,0E0,0E0,0E0,0E0,0E0,0E0,0E0,0E0,0E0,0E0,0E0,0E0,0E0,0E0,0E0,0E0,0E0,0E0,0E0,0E0,0E0,0E0,0E0,0E0,0E0,0E0,0E0,0E0,0E0,0E0,0E0,0E0,0E0,0E0,0E0,0E0,0E0,0E0,0E0,0E0,0E0,0E0,0E0,0E0,0E0],"parents":[2147483647,0,0,1,1,2,2,3,3,4,4,5,5,6,6,7,7,8,8,9,9,10,10,11,11,12,12,13,13,14,14,15,15,16,16,17,17,18,18,19,19,20,20,21,21,22,22,23,23,25,25,26,26,27,27,28,28,29,29,30,30,31,31,32,32,33,33,34,34,35,35,36,36,39,39,40,40,41,41,42,42,43,43,44,44,45,45,46,46,47,47,48,48,49,49,50,50,51,51,52,52,53,53,57,57,58,58,59,59],"right_children":[2,4,6,8,10,12,14,16,18,20,22,24,26,28,30,32,34,36,38,40,42,44,46,48,-1,50,52,54,56,58,60,62,64,66,68,70,72,-1,-1,74,76,78,80,82,84,86,88,90,92,94,96,98,100,102,-1,-1,-1,104,106,108,-1,-1,-1,-1,-1,-1,-1,-1,-1,-1,-1,-1,-1,-1,-1,-1,-1,-1,-1,-1,-1,-1,-1,-1,-1,-1,-1,-1,-1,-1,-1,-1,-1,-1,-1,-1,-1,-1,-1,-1,-1,-1,-1,-1,-1,-1,-1,-1,-1],"split_conditions":[2.6404753E1,1.1609651E1,2.9660997E1,2.0267248E1,5.7939167E0,1.8671474E1,5.2940266E1,1.1875585E1,1.3000001E0,5.271E0,5.981834E0,1.3E0,2.7052668E1,3.749967E1,1E-1,4.5433316E-1,1.3269333E1,2.2738083E1,2.0925583E1,2.4993439E1,1E-1,2.0304129E1,7.569969E1,3.085065E2,3.6871822E0,2.6204565E2,2.8820242E1,3.369009E1,3.175267E1,2.1637466E1,1.1E0,7.8625183E0,3.585312E2,1.0514218E1,3.5E0,2.1317251E1,2.4535997E1,1.543126E1,3.1620364E0,4.263084E0,5.2189164E0,3.2461502E1,1.8671474E1,1.2738099E1,1.2E0,4.3959824E1,2.093099E2,2.6488083E1,3.2831366E2,2E-1,2.6735582E1,2.6886963E1,2.8702673E1,1.757744E1,-1.4574766E0,6.2917743E0,1.722218E0,3.0221418E1,2.1980644E1,3.1269331E1,5.202153E-1,-3.2274115E-1,8.103801E0,4.9891585E-1,3.3806186E0,-1.2645149E0,-4.211051E0,-3.6344165E-1,2.041975E0,9.4105643E-1,3.8734038E0,-1.69884E0,7.8007996E-1,-9.878165E-1,1.0784608E0,-3.0826497E0,-8.112641E-2,-9.2920935E-1,-4.9185615E0,1.0668966E0,-2.381015E0,-1.8344291E0,5.8938456E0,3.0006227E0,-3.6687965E0,-2.4948935E-1,-1.3031422E0,7.424555E-1,-2.4853382E-1,1.7405165E0,8.442666E-2,3.2611938E0,4.3207255E-1,3.2411852E0,-2.212372E-3,1.809105E-1,-1.5408326E0,6.6402256E-1,3.9951317E0,-3.845364E0,3.369526E-1,3.639066E0,1.0843792E0,2.9251412E-1,1.5385549E0,6.294011E0,2.0128648E0,-1.4439443E0,2.1502362E-1],"split_indices":[0,2,0,0,0,2,3,0,1,0,0,1,0,3,1,0,0,0,0,2,1,2,3,3,0,3,2,3,0,2,1,2,3,2,1,0,0,0,0,0,0,3,2,2,1,3,3,0,3,1,0,2,0,2,0,0,0,0,2,0,0,0,0,0,0,0,0,0,0,0,0,0,0,0,0,0,0,0,0,0,0,0,0,0,0,0,0,0,0,0,0,0,0,0,0,0,0,0,0,0,0,0,0,0,0,0,0,0,0],"split_type":[0,0,0,0,0,0,0,0,0,0,0,0,0,0,0,0,0,0,0,0,0,0,0,0,0,0,0,0,0,0,0,0,0,0,0,0,0,0,0,0,0,0,0,0,0,0,0,0,0,0,0,0,0,0,0,0,0,0,0,0,0,0,0,0,0,0,0,0,0,0,0,0,0,0,0,0,0,0,0,0,0,0,0,0,0,0,0,0,0,0,0,0,0,0,0,0,0,0,0,0,0,0,0,0,0,0,0,0,0],"sum_hessian":[3.957E3,3.461E3,4.96E2,9.26E2,2.535E3,3.55E2,1.41E2,8.35E2,9.1E1,2.49E2,2.286E3,2.08E2,1.47E2,1.4E1,1.27E2,5.56E2,2.79E2,8.9E1,2E0,2.08E2,4.1E1,1.7E1,2.269E3,2.05E2,3E0,3.4E1,1.13E2,1.1E1,3E0,1.21E2,6E0,6E0,5.5E2,5.5E1,2.24E2,5.1E1,3.8E1,1E0,1E0,1.84E2,2.4E1,1.8E1,2.3E1,1.1E1,6E0,7.39E2,1.53E3,1.93E2,1.2E1,2.7E1,7E0,1.09E2,4E0,1E1,1E0,2E0,1E0,9E1,3.1E1,5E0,1E0,3E0,3E0,5.41E2,9E0,4.1E1,1.4E1,2.06E2,1.8E1,3E1,2.1E1,1.9E1,1.9E1,1.27E2,5.7E1,2.2E1,2E0,3E0,1.5E1,8E0,1.5E1,2E0,9E0,3E0,3E0,4.97E2,2.42E2,3.1E2,1.22E3,1.2E1,1.81E2,5E0,7E0,2.3E1,4E0,6E0,1E0,1.03E2,6E0,2E0,2E0,5E0,5E0,3.2E1,5.8E1,2E0,2.9E1,4E0,1E0],"tree_param":{"num_deleted":"0","num_feature":"4","num_nodes":"109","size_leaf_vector":"1"}},{"base_weights":[5.3555444E-2,-5.185575E-1,1.4322965E0,2.0531664E0,-8.409778E-1,9.454048E-1,3.2027483E0,1.4667431E0,5.893506E0,9.708196E0,-9.0033406E-1,7.675364E-1,5.6599135E0,5.127083E0,2.2500963E0,2.1145601E0,-1.7619789E0,-1.5424362E0,8.6714325E0,1.7031963E1,-2.8954885E0,-6.786749E-1,-3.0293453E0,5.954836E0,6.213722E-1,3.512067E1,2.6262949E0,-6.440048E-1,5.937567E0,8.7944925E-1,5.686948E0,-1.3674107E-1,4.195311E0,8.319918E0,-3.4822612E0,7.4479403E0,-6.196561E0,1.2078818E1,-4.2498083E0,7.631119E0,5.220472E0,2.8975698E-1,-1.1582787E0,-1.1536064E0,5.938528E-1,-6.786115E0,4.443237E-1,-3.2084198E0,7.416654E0,-4.5308943E0,8.7255716E-1,1.311657E1,2.6877308E0,1.3537767E1,-5.339693E-1,2.319686E0,-2.2548625E0,1.5716685E1,5.131197E0,1.1368024E0,-6.9966707E0,-2.598346E0,6.4992094E0,-2.1651317E-1,4.663614E0,4.2609644E0,1.0597078E0,4.3142053E-1,3.9365363E0,4.8651926E-2,-2.0361989E0,-2.3861873E0,1.7066106E0,2.4849582E0,1.0766138E1,-3.1100695E0,2.208583E0,3.1008255E0,-2.2862968E0,8.306265E-2,-5.393851E-1,3.6202545E0,9.7138196E-2,-2.6546185E0,-3.333795E-1,4.333504E0,-1.6005032E-1,2.6371005E0,-3.041435E0,5.8674E0,1.2919624E0,-2.7182946E-1,-2.3301973E0,1.8320636E0,1.8923531E-1,5.43412E0,-2.087704E0,-9.625339E-1,1.3731451E0,3.1465703E-1,-1.7305061E0,8.035614E0,-1.772705E-1,2.5392056E-2,1.8310828E0,2.043234E-1,1.5430768E0,-2.7974315E0,-1.8556595E-3,1.2879784E0,-2.5871513E0,2.334239E0,7.2997344E-1],"categories":[],"categories_nodes":[],"categories_segments":[],"categories_sizes":[],"default_left":[0,0,0,0,0,0,0,0,0,0,0,0,0,0,0,0,0,0,0,0,0,0,0,0,0,0,0,0,0,0,0,0,0,0,0,0,0,0,0,0,0,0,0,0,0,0,0,0,0,0,0,0,0,0,0,0,0,0,0,0,0,0,0,0,0,0,0,0,0,0,0,0,0,0,0,0,0,0,0,0,0,0,0,0,0,0,0,0,0,0,0,0,0,0,0,0,0,0,0,0,0,0,0,0,0,0,0,0,0,0,0,0,0],"id":5,"left_children":[1,3,5,7,9,11,13,15,17,19,21,23,25,27,29,31,33,35,37,39,41,43,45,47,49,51,53,55,57,59,61,63,65,67,69,-1,71,73,75,-1,77,-1,-1,79,81,83,85,87,89,91,93,-1,-1,95,97,-1,99,101,103,105,107,109,111,-1,-1,-1,-1,-1,-1,-1,-1,-1,-1,-1,-1,-1,-1,-1,-1,-1,-1,-1,-1,-1,-1,-1,-1,-1,-1,-1,-1,-1,-1,-1,-1,-1,-1,-1,-1,-1,-1,-1,-1,-1,-1,-1,-1,-1,-1,-1,-1,-1,-1],"loss_changes":[3.1227957E3,2.321761E3,9.977754E2,6.9399963E2,1.5659999E3,7.6042456E2,4.4676855E2,5.726468E2,8.602919E2,1.3416063E3,1.1654615E3,6.635137E2,2.8570615E3,3.873689E2,7.911086E2,1.0639318E3,8.267827E2,1.6265288E3,1.3721621E3,7.6069727E2,2.6096493E1,1.355668E3,3.0436128E3,3.4527606E2,1.1130586E3,2.833562E2,1.0762059E3,1.658584E2,4.8711694E2,2.5524106E2,3.3991907E2,1.0203111E3,7.327307E2,2.1245013E2,4.8290482E2,0E0,2.75006E2,1.8715579E3,5.7353143E2,0E0,4.0723087E2,0E0,0E0,1.5056702E3,1.8862166E3,1.3011289E3,1.6779133E3,4.217083E2,7.087528E2,4.622179E2,1.0313405E3,0E0,0E0,7.826017E2,3.5642484E2,0E0,1.2212604E2,9.1834595E2,3.331819E2,2.137897E2,6.504053E1,2.4465102E2,2.1034631E2,0E0,0E0,0E0,0E0,0E0,0E0,0E0,0E0,0E0,0E0,0E0,0E0,0E0,0E0,0E0,0E0,0E0,0E0,0E0,0E0,0E0,0E0,0E0,0E0,0E0,0E0,0E0,0E0,0E0,0E0,0E0,0E0,0E0,0E0,0E0,0E0,0E0,0E0,0E0,0E0,0E0,0E0,0E0,0E0,0E0,0E0,0E0,0E0,0E0,0E0],"parents":[2147483647,0,0,1,1,2,2,3,3,4,4,5,5,6,6,7,7,8,8,9,9,10,10,11,11,12,12,13,13,14,14,15,15,16,16,17,17,18,18,19,19,20,20,21,21,22,22,23,23,24,24,25,25,26,26,27,27,28,28,29,29,30,30,31,31,32,32,33,33,34,34,36,36,37,37,38,38,40,40,43,43,44,44,45,45,46,46,47,47,48,48,49,49,50,50,53,53,54,54,56,56,57,57,58,58,59,59,60,60,61,61,62,62],"right_children":[2,4,6,8,10,12,14,16,18,20,22,24,26,28,30,32,34,36,38,40,42,44,46,48,50,52,54,56,58,60,62,64,66,68,70,-1,72,74,76,-1,78,-1,-1,80,82,84,86,88,90,92,94,-1,-1,96,98,-1,100,102,104,106,108,110,112,-1,-1,-1,-1,-1,-1,-1,-1,-1,-1,-1,-1,-1,-1,-1,-1,-1,-1,-1,-1,-1,-1,-1,-1,-1,-1,-1,-1,-1,-1,-1,-1,-1,-1,-1,-1,-1,-1,-1,-1,-1,-1,-1,-1,-1,-1,-1,-1,-1,-1],"split_conditions":[2.0387667E1,8.209263E0,2.8527672E1,7.92E0,4.5433316E-1,2.6000001E0,1.221329E2,1.4456417E1,3.10301E1,1.44E1,2.707669E1,9.664148E0,1.14862E1,1.2738099E1,2.1413193E1,7.146416E0,1.7850403E1,2.8689167E0,2.9385788E2,1.872296E1,1.5463246E1,9E-1,1.0073502E1,2.1317251E1,2.4986433E1,2.0925583E1,3.3E0,9.746631E0,1.2879752E1,2.1385939E1,2.8808916E1,8.000001E-1,5.506941E0,1.0459866E1,7.4128532E0,7.4479403E0,1.3571416E1,2.68224E2,3.418601E2,7.631119E0,1.2096214E1,2.8975698E-1,-1.1582787E0,8.25225E0,2.080129E1,2.5441554E2,3.706572E1,2.0544333E1,2.1823496E1,1.6967983E1,3.194992E1,1.311657E1,2.6877308E0,2.9987592E2,2.2981834E1,2.319686E0,6.56507E1,2.9917252E1,1.4332341E1,3.193583E2,2.9660997E1,2.3087763E1,2.560511E2,-2.1651317E-1,4.663614E0,4.2609644E0,1.0597078E0,4.3142053E-1,3.9365363E0,4.8651926E-2,-2.0361989E0,-2.3861873E0,1.7066106E0,2.4849582E0,1.0766138E1,-3.1100695E0,2.208583E0,3.1008255E0,-2.2862968E0,8.306265E-2,-5.393851E-1,3.6202545E0,9.7138196E-2,-2.6546185E0,-3.333795E-1,4.333504E0,-1.6005032E-1,2.6371005E0,-3.041435E0,5.8674E0,1.2919624E0,-2.7182946E-1,-2.3301973E0,1.8320636E0,1.8923531E-1,5.43412E0,-2.087704E0,-9.625339E-1,1.3731451E0,3.1465703E-1,-1.7305061E0,8.035614E0,-1.772705E-1,2.5392056E-2,1.8310828E0,2.043234E-1,1.5430768E0,-2.7974315E0,-1.8556595E-3,1.2879784E0,-2.5871513E0,2.334239E0,7.2997344E-1],"split_indices":[0,2,0,2,0,1,3,0,3,2,2,3,2,2,2,0,3,0,3,3,2,1,0,0,3,0,1,2,2,2,0,1,2,3,2,0,0,3,3,0,2,0,0,0,3,3,3,0,0,3,3,0,0,3,0,0,3,0,2,3,0,2,3,0,0,0,0,0,0,0,0,0,0,0,0,0,0,0,0,0,0,0,0,0,0,0,0,0,0,0,0,0,0,0,0,0,0,0,0,0,0,0,0,0,0,0,0,0,0,0,0,0,0],"split_type":[0,0,0,0,0,0,0,0,0,0,0,0,0,0,0,0,0,0,0,0,0,0,0,0,0,0,0,0,0,0,0,0,0,0,0,0,0,0,0,0,0,0,0,0,0,0,0,0,0,0,0,0,0,0,0,0,0,0,0,0,0,0,0,0,0,0,0,0,0,0,0,0,0,0,0,0,0,0,0,0,0,0,0,0,0,0,0,0,0,0,0,0,0,0,0,0,0,0,0,0,0,0,0,0,0,0,0,0,0,0,0,0,0],"sum_hessian":[3.957E3,2.797E3,1.16E3,3.11E2,2.486E3,9.11E2,2.49E2,2.71E2,4E1,1.3E1,2.473E3,8.79E2,3.2E1,8.1E1,1.68E2,2.26E2,4.5E1,1.1E1,2.9E1,8E0,5E0,2.241E3,2.32E2,2.3E1,8.56E2,2E0,3E1,1E1,7.1E1,1.21E2,4.7E1,1.09E2,1.17E2,6E0,3.9E1,1E0,1E1,2.3E1,6E0,4E0,4E0,1E0,4E0,1.632E3,6.09E2,1.11E2,1.21E2,3E0,2E1,3.9E1,8.17E2,1E0,1E0,6E0,2.4E1,1E0,9E0,4E0,6.7E1,1.18E2,3E0,4E0,4.3E1,1.06E2,3E0,6E0,1.11E2,3E0,3E0,1.9E1,2E1,9E0,1E0,2.1E1,2E0,4E0,2E0,3E0,1E0,5.07E2,1.125E3,1.3E1,5.96E2,8.1E1,3E1,7E0,1.14E2,1E0,2E0,3E0,1.7E1,1.9E1,2E1,3.5E1,7.82E2,5E0,1E0,1.6E1,8E0,5E0,4E0,2E0,2E0,1.1E1,5.6E1,1.07E2,1.1E1,2E0,1E0,2E0,2E0,3.2E1,1.1E1],"tree_param":{"num_deleted":"0","num_feature":"4","num_nodes":"113","size_leaf_vector":"1"}},{"base_weights":[5.779197E-2,-3.9827245E-1,1.006787E0,4.356648E-1,-1.1295168E0,7.528424E-1,8.152066E0,6.260496E-1,-8.2112465E0,-5.465745E0,-9.5144516E-1,-2.0183751E-1,1.4361657E0,3.8888863E1,4.106165E0,1.4386135E0,-7.1261096E-1,1.5823574E0,-1.0508991E1,-8.841889E0,-3.89424E0,-8.623827E-1,-6.129912E0,4.4550104E0,-7.1883374E-1,7.832996E-1,2.5844128E0,1.5452155E1,3.992277E0,1.4985106E1,2.1238844E0,1.1771213E0,8.513418E0,-3.3412123E0,5.4535973E-1,-3.8113015E0,6.980564E0,-2.5962755E-1,-1.1430077E1,1.1402893E-1,-1.0043613E1,8.481164E0,-4.7687654E0,-1.0821674E0,3.5639563E0,-1.0101745E1,2.5799923E0,-3.603135E0,6.704833E0,-2.634501E0,1.7539519E-1,4.713746E0,5.290891E-1,1.1553245E1,2.329076E0,1.853428E-2,5.3872247E0,9.954496E0,1.6049919E-1,5.516392E-1,-4.1316155E-1,5.152456E0,9.685627E-1,-7.325041E-1,-3.5715353E0,2.0584784E0,-4.380261E-2,3.16722E0,-1.0990168E0,-3.6898708E0,-1.4631641E0,-1.9498044E-1,2.4629346E-1,-1.2723583E0,-3.1830144E0,-5.5884135E-1,4.3753653E0,-8.1105274E-1,-2.5597353E0,-2.4342437E-1,-1.1258972E0,-2.7128432E0,2.1824121E0,-1.4333949E0,-4.4484777E0,2.9195056E0,-4.2775574E-1,-2.2602607E-1,-3.5703418E0,2.865158E0,1.6035904E-1,-5.2550924E-1,-2.5747628E0,5.084563E-1,-3.327881E-1,-8.9701873E-1,2.5560873E0,-1.5982071E0,2.3820764E-1,4.313706E0,-8.102108E-1,6.334898E-1,3.3111854E0,4.611837E0,-7.182469E-1,1.19258E0,-6.169493E-1],"categories":[],"categories_nodes":[],"categories_segments":[],"categories_sizes":[],"default_left":[0,0,0,0,0,0,0,0,0,0,0,0,0,0,0,0,0,0,0,0,0,0,0,0,0,0,0,0,0,0,0,0,0,0,0,0,0,0,0,0,0,0,0,0,0,0,0,0,0,0,0,0,0,0,0,0,0,0,0,0,0,0,0,0,0,0,0,0,0,0,0,0,0,0,0,0,0,0,0,0,0,0,0,0,0,0,0,0,0,0,0,0,0,0,0,0,0,0,0,0,0,0,0,0,0,0,0],"id":6,"left_children":[1,3,5,7,9,11,13,15,17,19,21,23,25,27,29,31,33,35,37,39,41,43,45,47,49,51,53,-1,-1,55,57,59,61,63,65,-1,67,-1,69,71,73,75,77,79,81,83,85,87,89,91,93,95,97,99,101,-1,-1,103,105,-1,-1,-1,-1,-1,-1,-1,-1,-1,-1,-1,-1,-1,-1,-1,-1,-1,-1,-1,-1,-1,-1,-1,-1,-1,-1,-1,-1,-1,-1,-1,-1,-1,-1,-1,-1,-1,-1,-1,-1,-1,-1,-1,-1,-1,-1,-1,-1],"loss_changes":[1.7134347E3,1.6311293E3,2.325501E3,2.062941E3,1.0951271E3,8.105148E2,5.3120703E3,1.332428E3,6.242157E2,2.6268262E2,6.265674E2,1.2527328E3,5.407234E2,9.2852734E2,8.307779E2,1.399684E3,1.5328259E3,5.5141864E2,1.8552393E2,1.8410864E2,4.7334894E2,1.3152468E3,8.2173083E2,9.668871E2,8.021673E2,4.6011743E2,5.730907E2,0E0,0E0,2.65031E2,5.365101E2,1.2464729E3,1.1804646E3,1.1264573E3,1.3721913E3,0E0,2.2903421E2,0E0,5.396582E1,2.1538327E0,4.3009033E0,2.1656789E2,2.7230554E2,9.2618066E2,3.0597402E3,3.317561E2,2.4306448E2,2.747968E2,7.148053E2,7.673579E2,6.265304E2,8.465731E2,6.807212E2,3.207826E2,4.614403E2,0E0,0E0,5.0516504E2,2.5343762E2,0E0,0E0,0E0,0E0,0E0,0E0,0E0,0E0,0E0,0E0,0E0,0E0,0E0,0E0,0E0,0E0,0E0,0E0,0E0,0E0,0E0,0E0,0E0,0E0,0E0,0E0,0E0,0E0,0E0,0E0,0E0,0E0,0E0,0E0,0E0,0E0,0E0,0E0,0E0,0E0,0E0,0E0,0E0,0E0,0E0,0E0,0E0,0E0],"parents":[2147483647,0,0,1,1,2,2,3,3,4,4,5,5,6,6,7,7,8,8,9,9,10,10,11,11,12,12,13,13,14,14,15,15,16,16,17,17,18,18,19,19,20,20,21,21,22,22,23,23,24,24,25,25,26,26,29,29,30,30,31,31,32,32,33,33,34,34,36,36,38,38,39,39,40,40,41,41,42,42,43,43,44,44,45,45,46,46,47,47,48,48,49,49,50,50,51,51,52,52,53,53,54,54,57,57,58,58],"right_children":[2,4,6,8,10,12,14,16,18,20,22,24,26,28,30,32,34,36,38,40,42,44,46,48,50,52,54,-1,-1,56,58,60,62,64,66,-1,68,-1,70,72,74,76,78,80,82,84,86,88,90,92,94,96,98,100,102,-1,-1,104,106,-1,-1,-1,-1,-1,-1,-1,-1,-1,-1,-1,-1,-1,-1,-1,-1,-1,-1,-1,-1,-1,-1,-1,-1,-1,-1,-1,-1,-1,-1,-1,-1,-1,-1,-1,-1,-1,-1,-1,-1,-1,-1,-1,-1,-1,-1,-1,-1],"split_conditions":[1.9298498E1,1.4773164E1,2.6000001E0,1.09E1,3.2735004E0,2.4308916E1,1.1588701E1,1.1343917E1,7.146416E0,1.6923828E1,2.0700003E1,1.0009036E1,1.945333E1,4.5E0,1.9925583E1,1.44E1,5.0114098E1,4.7897496E0,8.435069E0,4.5433316E-1,1.7057314E1,1.15E1,2.8165257E1,2.6656265E1,1.4973576E1,3.194992E1,2.4535997E1,1.5452155E1,3.992277E0,1.9446415E1,3.3E0,2.8499915E2,7.610583E0,4.5360943E1,6.56507E1,-3.8113015E0,2.1800001E1,-2.5962755E-1,2.2859746E2,1E-1,1.2943333E0,1.2943333E0,2.8689167E0,5.8000007E0,8.123084E0,2.130093E1,3.1491255E1,2.1910997E1,2.5441554E2,1.4529915E1,1.8919704E1,1.3746156E1,2.4633917E1,2.964429E2,3.3750998E2,1.853428E-2,5.3872247E0,1.8724673E2,1.12135544E2,5.516392E-1,-4.1316155E-1,5.152456E0,9.685627E-1,-7.325041E-1,-3.5715353E0,2.0584784E0,-4.380261E-2,3.16722E0,-1.0990168E0,-3.6898708E0,-1.4631641E0,-1.9498044E-1,2.4629346E-1,-1.2723583E0,-3.1830144E0,-5.5884135E-1,4.3753653E0,-8.1105274E-1,-2.5597353E0,-2.4342437E-1,-1.1258972E0,-2.7128432E0,2.1824121E0,-1.4333949E0,-4.4484777E0,2.9195056E0,-4.2775574E-1,-2.2602607E-1,-3.5703418E0,2.865158E0,1.6035904E-1,-5.2550924E-1,-2.5747628E0,5.084563E-1,-3.327881E-1,-8.9701873E-1,2.5560873E0,-1.5982071E0,2.3820764E-1,4.313706E0,-8.102108E-1,6.334898E-1,3.3111854E0,4.611837E0,-7.182469E-1,1.19258E0,-6.169493E-1],"split_indices":[0,2,1,1,0,0,2,0,0,2,1,2,2,1,0,2,3,0,2,0,2,1,2,3,2,3,0,0,0,0,1,3,0,3,3,0,1,0,3,1,0,0,0,1,0,2,2,0,3,2,2,2,0,3,3,0,0,3,3,0,0,0,0,0,0,0,0,0,0,0,0,0,0,0,0,0,0,0,0,0,0,0,0,0,0,0,0,0,0,0,0,0,0,0,0,0,0,0,0,0,0,0,0,0,0,0,0],"split_type":[0,0,0,0,0,0,0,0,0,0,0,0,0,0,0,0,0,0,0,0,0,0,0,0,0,0,0,0,0,0,0,0,0,0,0,0,0,0,0,0,0,0,0,0,0,0,0,0,0,0,0,0,0,0,0,0,0,0,0,0,0,0,0,0,0,0,0,0,0,0,0,0,0,0,0,0,0,0,0,0,0,0,0,0,0,0,0,0,0,0,0,0,0,0,0,0,0,0,0,0,0,0,0,0,0,0,0],"sum_hessian":[3.957E3,2.673E3,1.284E3,1.249E3,1.424E3,1.241E3,4.3E1,1.223E3,2.6E1,5.5E1,1.369E3,5.18E2,7.23E2,4E0,3.9E1,7.61E2,4.62E2,5E0,2.1E1,1.6E1,3.9E1,1.347E3,2.2E1,5.1E1,4.67E2,4.62E2,2.61E2,2E0,2E0,5E0,3.4E1,7.35E2,2.6E1,1.49E2,3.13E2,1E0,4E0,2E0,1.9E1,2E0,1.4E1,2E0,3.7E1,1.284E3,6.3E1,1.5E1,7E0,1.1E1,4E1,1.48E2,3.19E2,2.7E1,4.35E2,6E0,2.55E2,1E0,4E0,6E0,2.8E1,5.84E2,1.51E2,9E0,1.7E1,1.36E2,1.3E1,3E1,2.83E2,3E0,1E0,1.6E1,3E0,1E0,1E0,2E0,1.2E1,1E0,1E0,2.5E1,1.2E1,1.167E3,1.17E2,1.4E1,4.9E1,8E0,7E0,2E0,5E0,9E0,2E0,2.7E1,1.3E1,1.3E2,1.8E1,1.46E2,1.73E2,9E0,1.8E1,1.8E1,4.17E2,5E0,1E0,2.5E2,5E0,4E0,2E0,1E1,1.8E1],"tree_param":{"num_deleted":"0","num_feature":"4","num_nodes":"107","size_leaf_vector":"1"}},{"base_weights":[4.574381E-2,-6.3178635E-1,4.2009452E-1,-7.2899334E-6,-1.7420361E0,-2.513362E-1,1.3671889E0,-1.4230543E-1,7.861965E0,1.0616401E0,-2.1675045E0,1.116201E0,-8.461902E-1,1.0790877E0,6.8098803E0,-6.346989E-1,1.8142368E0,2.2131516E1,-2.912916E0,1.1609597E1,4.022132E-2,-3.7608476E0,-7.599817E-1,5.427177E-1,1.1344603E1,1.7229575E-1,-1.9317046E0,1.6367996E0,1.4818865E-1,1.7643566E1,3.5524013E0,4.0888655E-1,-2.7324915E0,2.0845134E0,-3.1391778E0,2.9578662E0,1.4013128E1,-4.5558214E0,1.7809851E0,1.3498203E1,3.2498533E-1,-1.4051576E0,8.868624E0,-1.8750677E0,-6.311058E0,2.5367959E0,-2.1291153E0,1.7358603E0,-2.2547383E0,1.9580448E1,6.002902E0,1.8487737E0,-1.2045841E0,-4.0438943E0,4.085538E-1,1.3873518E0,6.099938E0,-1.1619152E0,1.2833123E0,2.6851255E1,-6.1744994E-1,7.6129036E0,4.8674378E-1,4.0157493E-2,6.537883E0,-3.6475215E0,-7.040218E-1,1.8925656E0,4.1140935E-1,4.6821704E0,-3.2032373E0,-1.2626238E-1,-1.9659449E0,4.9622557E-1,4.8137136E0,-1.0027122E0,2.2939663E0,3.7864604E0,-8.533131E-1,-4.157764E-1,-2.892954E0,-2.521847E0,-7.3928586E-3,3.7519674E0,1.398154E-1,-1.9119384E0,-3.133445E-1,7.462717E-1,-8.930471E-1,-8.061729E-2,-2.3387976E0,7.193128E0,3.3803146E0,2.9118724E0,-1.2257077E0,2.2813623E0,1.1789156E-1,-1.8307084E0,1.9941257E-2,-1.1198556E0,-3.26604E0,2.5953436E0,-5.3820543E-2,5.246935E-1,-2.3451583E-1,-2.1384916E0,2.9806662E0,-1.8485072E-1,-1.5482101E0,-1.4107038E0,5.051983E-1,8.724508E0,1.6857302E0,1.994302E0,-2.303027E0,2.9559526E0,-2.061854E0,1.8306651E0,-3.666706E-1],"categories":[],"categories_nodes":[],"categories_segments":[],"categories_sizes":[],"default_left":[0,0,0,0,0,0,0,0,0,0,0,0,0,0,0,0,0,0,0,0,0,0,0,0,0,0,0,0,0,0,0,0,0,0,0,0,0,0,0,0,0,0,0,0,0,0,0,0,0,0,0,0,0,0,0,0,0,0,0,0,0,0,0,0,0,0,0,0,0,0,0,0,0,0,0,0,0,0,0,0,0,0,0,0,0,0,0,0,0,0,0,0,0,0,0,0,0,0,0,0,0,0,0,0,0,0,0,0,0,0,0,0,0,0,0,0,0,0,0],"id":7,"left_children":[1,3,5,7,9,11,13,15,17,19,21,23,25,27,29,31,33,35,37,39,41,43,45,47,49,51,53,55,57,59,61,63,65,67,-1,69,-1,71,-1,73,-1,75,77,79,81,83,85,87,89,91,93,95,97,99,101,103,105,107,109,111,113,115,117,-1,-1,-1,-1,-1,-1,-1,-1,-1,-1,-1,-1,-1,-1,-1,-1,-1,-1,-1,-1,-1,-1,-1,-1,-1,-1,-1,-1,-1,-1,-1,-1,-1,-1,-1,-1,-1,-1,-1,-1,-1,-1,-1,-1,-1,-1,-1,-1,-1,-1,-1,-1,-1,-1,-1,-1],"loss_changes":[1.0041484E3,9.883184E2,1.6219097E3,1.00686975E3,6.118605E2,1.2154777E3,1.6516442E3,8.5278705E2,2.5245105E3,7.3215704E2,9.9288574E2,2.6510586E3,1.1512428E3,5.220459E2,1.8077197E3,1.5488999E3,6.125053E2,3.1607083E3,1.7243564E2,1.046579E2,8.1636615E2,9.8846655E2,1.0751549E3,1.4391526E3,9.38303E2,1.2440972E3,2.4929597E3,6.918154E2,5.636262E2,2.0342803E3,5.1911505E2,2.7788994E3,8.259426E2,5.1851306E2,0E0,1.0290366E3,0E0,7.157153E1,0E0,1.24323975E2,0E0,9.8998944E2,4.3152112E2,4.464045E2,1.1588113E3,1.4393093E3,7.666808E2,1.0772645E3,1.4175508E3,5.876587E1,6.3744037E2,2.033171E3,1.8431075E3,5.23396E2,1.1646587E3,4.6965027E2,1.745193E3,3.809088E2,4.947827E2,2.1544287E2,3.0746622E2,6.5185547E2,2.473765E2,0E0,0E0,0E0,0E0,0E0,0E0,0E0,0E0,0E0,0E0,0E0,0E0,0E0,0E0,0E0,0E0,0E0,0E0,0E0,0E0,0E0,0E0,0E0,0E0,0E0,0E0,0E0,0E0,0E0,0E0,0E0,0E0,0E0,0E0,0E0,0E0,0E0,0E0,0E0,0E0,0E0,0E0,0E0,0E0,0E0,0E0,0E0,0E0,0E0,0E0,0E0,0E0,0E0,0E0,0E0,0E0],"parents":[2147483647,0,0,1,1,2,2,3,3,4,4,5,5,6,6,7,7,8,8,9,9,10,10,11,11,12,12,13,13,14,14,15,15,16,16,17,17,18,18,19,19,20,20,21,21,22,22,23,23,24,24,25,25,26,26,27,27,28,28,29,29,30,30,31,31,32,32,33,33,35,35,37,37,39,39,41,41,42,42,43,43,44,44,45,45,46,46,47,47,48,48,49,49,50,50,51,51,52,52,53,53,54,54,55,55,56,56,57,57,58,58,59,59,60,60,61,61,62,62],"right_children":[2,4,6,8,10,12,14,16,18,20,22,24,26,28,30,32,34,36,38,40,42,44,46,48,50,52,54,56,58,60,62,64,66,68,-1,70,-1,72,-1,74,-1,76,78,80,82,84,86,88,90,92,94,96,98,100,102,104,106,108,110,112,114,116,118,-1,-1,-1,-1,-1,-1,-1,-1,-1,-1,-1,-1,-1,-1,-1,-1,-1,-1,-1,-1,-1,-1,-1,-1,-1,-1,-1,-1,-1,-1,-1,-1,-1,-1,-1,-1,-1,-1,-1,-1,-1,-1,-1,-1,-1,-1,-1,-1,-1,-1,-1,-1,-1,-1,-1,-1],"split_conditions":[7.8459526E1,4.1169403E1,1.6950584E1,9.200001E0,7.5359993E0,1.2738099E1,2.9E0,2.1058916E1,1.2499999E1,7.0911775E0,5.1376495E1,1.2475961E1,2.4209729E2,2.52061E2,1.2475961E1,1.2561E1,2.959235E1,2.1068459E1,1.8988083E1,1E-1,2.9E0,4.5360943E1,5.7724415E1,1E-1,7.2672496E0,1.1000001E0,2E-1,2.4936905E2,2.3119333E1,1.9214017E2,1.9925583E1,1.2273501E1,1.2896416E1,2.1910997E1,-3.1391778E0,1.07E1,1.4013128E1,6.256417E0,1.7809851E0,4.5433316E-1,3.2498533E-1,6.870999E0,2.1800001E1,2.6206415E1,2.1758419E1,1.0799999E1,1.0799999E1,1.1588701E1,2.5112251E2,1.2682018E1,5E-1,8.25225E0,7.610583E0,1.6423082E1,1.484318E1,2.4209729E2,1.2783802E1,2.1980644E1,2.5441554E2,2.0925583E1,6.2E0,1.58E1,3.3E0,4.0157493E-2,6.537883E0,-3.6475215E0,-7.040218E-1,1.8925656E0,4.1140935E-1,4.6821704E0,-3.2032373E0,-1.2626238E-1,-1.9659449E0,4.9622557E-1,4.8137136E0,-1.0027122E0,2.2939663E0,3.7864604E0,-8.533131E-1,-4.157764E-1,-2.892954E0,-2.521847E0,-7.3928586E-3,3.7519674E0,1.398154E-1,-1.9119384E0,-3.133445E-1,7.462717E-1,-8.930471E-1,-8.061729E-2,-2.3387976E0,7.193128E0,3.3803146E0,2.9118724E0,-1.2257077E0,2.2813623E0,1.1789156E-1,-1.8307084E0,1.9941257E-2,-1.1198556E0,-3.26604E0,2.5953436E0,-5.3820543E-2,5.246935E-1,-2.3451583E-1,-2.1384916E0,2.9806662E0,-1.8485072E-1,-1.5482101E0,-1.4107038E0,5.051983E-1,8.724508E0,1.6857302E0,1.994302E0,-2.303027E0,2.9559526E0,-2.061854E0,1.8306651E0,-3.666706E-1],"split_indices":[3,3,0,1,0,2,1,0,1,2,3,2,3,3,2,0,2,2,0,1,1,3,3,1,0,1,1,3,0,3,0,0,0,0,0,1,0,0,0,0,0,0,1,0,2,2,2,2,3,2,1,0,0,0,2,3,2,2,3,0,1,1,1,0,0,0,0,0,0,0,0,0,0,0,0,0,0,0,0,0,0,0,0,0,0,0,0,0,0,0,0,0,0,0,0,0,0,0,0,0,0,0,0,0,0,0,0,0,0,0,0,0,0,0,0,0,0,0,0],"split_type":[0,0,0,0,0,0,0,0,0,0,0,0,0,0,0,0,0,0,0,0,0,0,0,0,0,0,0,0,0,0,0,0,0,0,0,0,0,0,0,0,0,0,0,0,0,0,0,0,0,0,0,0,0,0,0,0,0,0,0,0,0,0,0,0,0,0,0,0,0,0,0,0,0,0,0,0,0,0,0,0,0,0,0,0,0,0,0,0,0,0,0,0,0,0,0,0,0,0,0,0,0,0,0,0,0,0,0,0,0,0,0,0,0,0,0,0,0,0,0],"sum_hessian":[3.957E3,1.408E3,2.549E3,8.98E2,5.1E2,1.492E3,1.057E3,8.83E2,1.5E1,6.7E1,4.43E2,4.52E2,1.04E3,1.005E3,5.2E1,7.06E2,1.77E2,6E0,9E0,5E0,6.2E1,2.07E2,2.36E2,4.29E2,2.3E1,5.37E2,5.03E2,6.28E2,3.77E2,1.1E1,4.1E1,4.72E2,2.34E2,1.74E2,3E0,4E0,2E0,8E0,1E0,4E0,1E0,5.4E1,8E0,1.2E2,8.7E1,6.9E1,1.67E2,3.01E2,1.28E2,8E0,1.5E1,2.42E2,2.95E2,2.64E2,2.39E2,5.96E2,3.2E1,1.75E2,2.02E2,7E0,4E0,1.7E1,2.4E1,4.67E2,5E0,8E0,2.26E2,2.4E1,1.5E2,2E0,2E0,3E0,5E0,1E0,3E0,4.5E1,9E0,6E0,2E0,1.14E2,6E0,6.5E1,2.2E1,1.1E1,5.8E1,3.3E1,1.34E2,2.6E2,4.1E1,9.5E1,3.3E1,4E0,4E0,1.1E1,4E0,4.8E1,1.94E2,6E1,2.35E2,2.54E2,1E1,1.5E1,2.24E2,5.11E2,8.5E1,7E0,2.5E1,1.55E2,2E1,1.2E1,1.9E2,6E0,1E0,2E0,2E0,1.5E1,2E0,5E0,1.9E1],"tree_param":{"num_deleted":"0","num_feature":"4","num_nodes":"119","size_leaf_vector":"1"}},{"base_weights":[4.254392E-2,-1.125181E0,1.863028E-1,-2.9281402E-1,-4.920435E0,4.5292273E0,1.2757796E-1,-5.8698547E-1,5.1042147E0,-5.5443096E0,3.757361E0,6.4892917E0,-5.4491367E0,-6.9870133E0,1.6246691E-1,-1.0245916E0,8.096699E0,-1.1092024E1,-3.3649113E0,-2.76888E-1,1.0365568E1,1.9966297E0,-1.3475226E1,-5.2658874E-1,5.25296E-1,1.1894926E0,-3.0202348E0,1.4695202E1,-3.429049E0,-1.3715977E1,-6.0694227E0,3.9141603E0,-5.4390707E0,8.132692E0,-3.4900427E0,1.4581192E1,1.319327E0,1.069665E1,-5.362712E0,-4.837291E0,-5.4705396E0,2.0031283E0,-7.147648E-1,5.0982475E0,3.7740836E-1,-6.8728095E-1,8.8045627E-1,-1.1162361E0,2.0767262E0,7.386713E-1,6.400116E0,-3.1387426E-2,-3.5063393E0,-2.1519217E0,-5.4898376E0,9.9261326E-1,-2.7664688E0,-8.0851036E-1,4.5083637E0,-7.04029E-1,-2.5274124E0,1.2072945E0,3.68493E0,-3.202305E0,7.003328E-1,-2.1522596E0,4.8565173E0,-1.7172402E0,2.8522844E0,7.683838E-1,3.7664042E0,-2.8139017E0,1.6057693E0,4.789639E-3,-2.191409E0,8.6125255E-1,-2.883301E0,-1.0862738E0,-1.6372012E-1,2.109022E0,-2.941393E-1,4.303169E-1,1.0003113E-2],"categories":[],"categories_nodes":[],"categories_segments":[],"categories_sizes":[],"default_left":[0,0,0,0,0,0,0,0,0,0,0,0,0,0,0,0,0,0,0,0,0,0,0,0,0,0,0,0,0,0,0,0,0,0,0,0,0,0,0,0,0,0,0,0,0,0,0,0,0,0,0,0,0,0,0,0,0,0,0,0,0,0,0,0,0,0,0,0,0,0,0,0,0,0,0,0,0,0,0,0,0,0,0],"id":8,"left_children":[1,3,5,7,9,11,13,15,-1,17,-1,19,-1,21,23,25,27,29,31,33,35,37,39,41,43,45,47,49,51,53,55,57,59,61,63,65,67,69,71,-1,73,75,77,79,81,-1,-1,-1,-1,-1,-1,-1,-1,-1,-1,-1,-1,-1,-1,-1,-1,-1,-1,-1,-1,-1,-1,-1,-1,-1,-1,-1,-1,-1,-1,-1,-1,-1,-1,-1,-1,-1,-1],"loss_changes":[6.646423E2,1.3695845E3,8.984297E2,1.8275402E3,9.183511E2,2.2084192E3,8.64695E2,1.3459073E3,0E0,8.815679E2,0E0,1.1568839E3,0E0,1.0177975E3,8.660592E2,1.4882161E3,1.3432861E3,1.9351245E2,8.6677484E2,4.8774524E2,1.0485581E3,5.6957446E2,1.2384155E2,5.7029004E2,1.5325615E3,9.7866064E2,1.258623E3,8.4076733E2,1.9096625E2,2.585974E2,2.9656213E2,9.953861E2,3.8645947E2,3.582614E1,5.689022E2,7.804785E2,6.311617E2,2.8307007E1,2.654195E2,0E0,4.036905E1,8.640441E2,5.4476227E2,8.406465E2,7.9966223E2,0E0,0E0,0E0,0E0,0E0,0E0,0E0,0E0,0E0,0E0,0E0,0E0,0E0,0E0,0E0,0E0,0E0,0E0,0E0,0E0,0E0,0E0,0E0,0E0,0E0,0E0,0E0,0E0,0E0,0E0,0E0,0E0,0E0,0E0,0E0,0E0,0E0,0E0],"parents":[2147483647,0,0,1,1,2,2,3,3,4,4,5,5,6,6,7,7,9,9,11,11,13,13,14,14,15,15,16,16,17,17,18,18,19,19,20,20,21,21,22,22,23,23,24,24,25,25,26,26,27,27,28,28,29,29,30,30,31,31,32,32,33,33,34,34,35,35,36,36,37,37,38,38,40,40,41,41,42,42,43,43,44,44],"right_children":[2,4,6,8,10,12,14,16,-1,18,-1,20,-1,22,24,26,28,30,32,34,36,38,40,42,44,46,48,50,52,54,56,58,60,62,64,66,68,70,72,-1,74,76,78,80,82,-1,-1,-1,-1,-1,-1,-1,-1,-1,-1,-1,-1,-1,-1,-1,-1,-1,-1,-1,-1,-1,-1,-1,-1,-1,-1,-1,-1,-1,-1,-1,-1,-1,-1,-1,-1,-1,-1],"split_conditions":[5.677667E0,5.2189164E0,5.981834E0,3.568005E2,3.0449274E1,3.335294E2,6.100167E0,5.069334E0,5.1042147E0,3.8749973E1,3.757361E0,5.7939167E0,-5.4491367E0,2.3325583E2,8.071199E1,4.907882E1,1.4332341E1,1.0144082E1,1.9828548E2,1.530741E1,1.2E0,9.290511E0,1.5990646E1,7.5942073E0,9.285318E1,1.5986348E1,3.4607706E2,7.754637E0,3.418601E2,8.759178E0,1.0390226E1,1.02945305E2,1.1588701E1,1E-1,4.335825E1,1.0543265E0,3.7999997E0,5.506941E0,1.5696165E1,-4.837291E0,1E-1,1.6725584E1,8.647496E0,2E-1,1.2979984E1,-6.8728095E-1,8.8045627E-1,-1.1162361E0,2.0767262E0,7.386713E-1,6.400116E0,-3.1387426E-2,-3.5063393E0,-2.1519217E0,-5.4898376E0,9.9261326E-1,-2.7664688E0,-8.0851036E-1,4.5083637E0,-7.04029E-1,-2.5274124E0,1.2072945E0,3.68493E0,-3.202305E0,7.003328E-1,-2.1522596E0,4.8565173E0,-1.7172402E0,2.8522844E0,7.683838E-1,3.7664042E0,-2.8139017E0,1.6057693E0,4.789639E-3,-2.191409E0,8.6125255E-1,-2.883301E0,-1.0862738E0,-1.6372012E-1,2.109022E0,-2.941393E-1,4.303169E-1,1.0003113E-2],"split_indices":[0,0,0,3,2,3,0,0,0,3,0,0,0,3,3,3,2,2,3,2,1,2,2,2,3,3,3,2,3,2,2,3,2,1,3,3,1,2,2,0,1,0,2,1,2,0,0,0,0,0,0,0,0,0,0,0,0,0,0,0,0,0,0,0,0,0,0,0,0,0,0,0,0,0,0,0,0,0,0,0,0,0,0],"split_type":[0,0,0,0,0,0,0,0,0,0,0,0,0,0,0,0,0,0,0,0,0,0,0,0,0,0,0,0,0,0,0,0,0,0,0,0,0,0,0,0,0,0,0,0,0,0,0,0,0,0,0,0,0,0,0,0,0,0,0,0,0,0,0,0,0,0,0,0,0,0,0,0,0,0,0,0,0,0,0,0,0,0,0],"sum_hessian":[3.957E3,4.33E2,3.524E3,3.56E2,7.7E1,4.6E1,3.478E3,3.51E2,5E0,7.5E1,2E0,4.3E1,3E0,1.6E1,3.462E3,3.35E2,1.6E1,2E1,5.5E1,1.6E1,2.7E1,7E0,9E0,1.194E3,2.268E3,1.59E2,1.76E2,1E1,6E0,1.2E1,8E0,1.2E1,4.3E1,4E0,1.2E1,1.8E1,9E0,3E0,4E0,6E0,3E0,8.2E1,1.112E3,7E1,2.198E3,5.3E1,1.06E2,1.65E2,1.1E1,4E0,6E0,5E0,1E0,6E0,6E0,2E0,6E0,8E0,4E0,2.2E1,2.1E1,3E0,1E0,5E0,7E0,1E0,1.7E1,5E0,4E0,1E0,2E0,3E0,1E0,1E0,2E0,7.7E1,5E0,6E1,1.052E3,5.3E1,1.7E1,5.39E2,1.659E3],"tree_param":{"num_deleted":"0","num_feature":"4","num_nodes":"83","size_leaf_vector":"1"}},{"base_weights":[2.9966729E-2,5.8321834E0,4.9368828E-3,1.2490209E1,1.0650597E0,-3.425499E-1,4.2762178E-1,5.728502E0,-2.6811893E0,5.0906167E0,-3.1380074E0,-2.0825773E-1,-3.9313338E0,1.04988426E-1,2.2623558E0,-6.866484E-2,-1.1378703E0,-5.0390625E-1,3.2559326E0,-5.272062E0,-7.52965E-1,-1.8147016E-2,-2.3938532E0,-5.803907E0,7.989019E-1,2.0837279E-2,3.8809586E0,8.181474E0,1.6951343E0,5.305424E-1,-1.0981574E0,-2.0823784E-1,-2.16419E0,7.1257785E-2,-3.486912E-1,-3.1465359E0,1.00106426E-1,-3.3025315E0,2.2539438E1,3.3850877E0,-6.6457343E0,3.6595309E0,-1.6830844E0,3.5643177E0,-6.733558E-2,4.8443747E0,-2.210399E0,1.12002125E1,-2.2383213E0,-1.935677E0,2.503591E0,-1.8955969E0,6.1835162E-2,1.7145067E-1,-2.5960025E-1,-2.4750443E0,-6.0635835E-1,1.0174649E1,-4.2535022E-2,-2.5043344E0,5.034152E-1,1.5769134E0,-1.8463407E0,-1.3063129E0,6.477457E-1,2.9821968E0,6.6456294E-1,-2.1228676E-1,1.447875E-1,6.5756714E-1,4.659323E0,2.1932049E0,6.8957696E0,7.928258E-1,-2.400094E0,-2.0690565E0,-3.4293255E-1,1.7520412E0,5.6413054E-1],"categories":[],"categories_nodes":[],"categories_segments":[],"categories_sizes":[],"default_left":[0,0,0,0,0,0,0,0,0,0,0,0,0,0,0,0,0,0,0,0,0,0,0,0,0,0,0,0,0,0,0,0,0,0,0,0,0,0,0,0,0,0,0,0,0,0,0,0,0,0,0,0,0,0,0,0,0,0,0,0,0,0,0,0,0,0,0,0,0,0,0,0,0,0,0,0,0,0,0],"id":9,"left_children":[1,3,5,7,9,11,13,-1,15,17,19,21,23,25,27,-1,-1,29,-1,31,33,35,37,39,41,43,45,47,49,-1,-1,-1,-1,-1,-1,51,53,55,57,-1,59,61,63,65,67,69,-1,71,73,75,77,-1,-1,-1,-1,-1,-1,-1,-1,-1,-1,-1,-1,-1,-1,-1,-1,-1,-1,-1,-1,-1,-1,-1,-1,-1,-1,-1,-1],"loss_changes":[5.7478595E2,5.2627094E2,5.791372E2,7.5262537E2,2.0209096E2,1.0421113E3,1.0528352E3,0E0,7.3106422E0,1.988993E2,2.656918E1,8.6711584E2,6.955382E2,4.80996E2,8.792134E2,0E0,0E0,3.51657E1,0E0,2.1662338E1,1.8978636E0,7.1097504E2,3.8580469E3,8.8053455E2,1.6946027E2,4.6327435E2,3.9332843E2,7.4852637E2,7.210725E2,0E0,0E0,0E0,0E0,0E0,0E0,7.4575366E2,8.4334814E2,1.0103342E3,1.552946E3,0E0,7.790513E2,2.047362E2,1.4283032E2,2.876646E2,5.098773E2,8.446932E2,0E0,6.5709155E2,1.8989108E2,1.6905948E2,4.0485583E2,0E0,0E0,0E0,0E0,0E0,0E0,0E0,0E0,0E0,0E0,0E0,0E0,0E0,0E0,0E0,0E0,0E0,0E0,0E0,0E0,0E0,0E0,0E0,0E0,0E0,0E0,0E0,0E0],"parents":[2147483647,0,0,1,1,2,2,3,3,4,4,5,5,6,6,8,8,9,9,10,10,11,11,12,12,13,13,14,14,17,17,19,19,20,20,21,21,22,22,23,23,24,24,25,25,26,26,27,27,28,28,35,35,36,36,37,37,38,38,40,40,41,41,42,42,43,43,44,44,45,45,47,47,48,48,49,49,50,50],"right_children":[2,4,6,8,10,12,14,-1,16,18,20,22,24,26,28,-1,-1,30,-1,32,34,36,38,40,42,44,46,48,50,-1,-1,-1,-1,-1,-1,52,54,56,58,-1,60,62,64,66,68,70,-1,72,74,76,78,-1,-1,-1,-1,-1,-1,-1,-1,-1,-1,-1,-1,-1,-1,-1,-1,-1,-1,-1,-1,-1,-1,-1,-1,-1,-1,-1,-1],"split_conditions":[4.5433316E-1,1.872296E1,1.5618918E1,1.44E1,1.0883676E1,1.5093917E1,4E-1,5.728502E0,1.6055355E1,7.8625183E0,1E-1,2.7609911E1,4E-1,3.1269331E1,5E-1,-6.866484E-2,-1.1378703E0,7.754637E0,3.2559326E0,1.2096214E1,1.8000002E0,8.549051E0,1.39985E1,7.2805495E0,2.1000001E0,8.549051E0,2.706194E2,2.4380428E2,9E-1,5.305424E-1,-1.0981574E0,-2.0823784E-1,-2.16419E0,7.1257785E-2,-3.486912E-1,7.2672496E0,1.0504748E1,2.8820242E1,3.0449274E1,3.3850877E0,2.4458813E1,2.5112251E2,2.093099E2,1.6844332E1,1.8427574E2,2.3479868E2,-2.210399E0,2.3517268E2,1.8217249E1,4.335825E1,1.2475961E1,-1.8955969E0,6.1835162E-2,1.7145067E-1,-2.5960025E-1,-2.4750443E0,-6.0635835E-1,1.0174649E1,-4.2535022E-2,-2.5043344E0,5.034152E-1,1.5769134E0,-1.8463407E0,-1.3063129E0,6.477457E-1,2.9821968E0,6.6456294E-1,-2.1228676E-1,1.447875E-1,6.5756714E-1,4.659323E0,2.1932049E0,6.8957696E0,7.928258E-1,-2.400094E0,-2.0690565E0,-3.4293255E-1,1.7520412E0,5.6413054E-1],"split_indices":[0,3,0,2,2,0,1,0,2,2,1,2,1,0,1,0,0,2,0,2,1,3,0,2,1,3,3,3,1,0,0,0,0,0,0,0,0,2,2,0,2,3,3,0,3,3,0,3,0,3,2,0,0,0,0,0,0,0,0,0,0,0,0,0,0,0,0,0,0,0,0,0,0,0,0,0,0,0,0],"split_type":[0,0,0,0,0,0,0,0,0,0,0,0,0,0,0,0,0,0,0,0,0,0,0,0,0,0,0,0,0,0,0,0,0,0,0,0,0,0,0,0,0,0,0,0,0,0,0,0,0,0,0,0,0,0,0,0,0,0,0,0,0,0,0,0,0,0,0,0,0,0,0,0,0,0,0,0,0,0,0],"sum_hessian":[3.957E3,1.6E1,3.941E3,6E0,1E1,2.163E3,1.778E3,4E0,2E0,5E0,5E0,2.086E3,7.7E1,1.513E3,2.65E2,1E0,1E0,3E0,2E0,2E0,3E0,1.92E3,1.66E2,5.5E1,2.2E1,1.481E3,3.2E1,2.2E1,2.43E2,2E0,1E0,1E0,1E0,1E0,2E0,6.9E1,1.851E3,1.61E2,5E0,2E0,5.3E1,1E1,1.2E1,3.5E1,1.446E3,3E1,2E0,1.7E1,5E0,4.4E1,1.99E2,3.5E1,3.4E1,1.244E3,6.07E2,3.2E1,1.29E2,3E0,2E0,4.4E1,9E0,9E0,1E0,7E0,5E0,5E0,3E1,6.68E2,7.78E2,2.5E1,5E0,1.4E1,3E0,3E0,2E0,5E0,3.9E1,3E1,1.69E2],"tree_param":{"num_deleted":"0","num_feature":"4","num_nodes":"79","size_leaf_vector":"1"}},{"base_weights":[2.7095433E-2,-8.403399E-1,1.3388687E-1,-3.8289443E-1,-4.5988183E0,1.0473561E0,-2.0977696E-2,-1.2461725E-1,-7.8236117E0,-5.840178E0,2.1828325E0,-8.926941E0,1.325655E0,-2.4943602E0,8.5080534E-2,-3.9067417E-1,5.51686E0,-1.0144415E1,-2.0814445E0,-3.5567677E0,-9.042995E0,8.112591E0,-1.7325221E0,-1.0350843E1,1.4375691E0,1.6721027E0,-6.246218E0,2.624783E-1,-5.3458896E0,3.9425964E0,1.9967757E-2,6.596976E0,-6.0916984E-1,1.8900452E0,6.543595E0,-1.15381365E1,1.5080424E-1,-2.789528E-1,-7.617695E-1,-9.348554E0,1.6616753E0,-5.412979E-1,-3.065658E0,1.2946372E0,3.495169E0,9.1077524E-1,-1.1719399E1,2.171488E0,-2.3639512E0,7.619059E-1,-6.785532E0,4.5667014E0,-4.4667497E0,-9.765629E0,-1.5488727E0,1.4831488E1,1.721774E0,-6.7627907E0,9.709224E-2,2.905861E0,-3.6921674E-1,1.5350587E0,-2.5889498E-1,4.246489E0,-7.067294E-1,-3.8545678E0,-1.5213743E0,-1.8877369E0,-4.925809E0,-2.378568E0,4.7310247E0,3.7293148E-1,-6.165156E-1,-4.139234E0,-2.658333E-1,6.19586E-1,7.0801325E0,5.9827185E-1,-1.3432144E0,5.021324E-1,-2.187656E0,-5.0610904E-2,4.7845626E0,-3.2905924E0,-5.184974E-1,-3.3534188E0,1.7192042E0,4.3234754E0,-8.99029E-1,6.0272584E0,-1.8932648E-1,-4.782326E-1,4.679716E0,1.8061336E0,-2.3447065E0,5.9349465E-1,-4.2017872E-4],"categories":[],"categories_nodes":[],"categories_segments":[],"categories_sizes":[],"default_left":[0,0,0,0,0,0,0,0,0,0,0,0,0,0,0,0,0,0,0,0,0,0,0,0,0,0,0,0,0,0,0,0,0,0,0,0,0,0,0,0,0,0,0,0,0,0,0,0,0,0,0,0,0,0,0,0,0,0,0,0,0,0,0,0,0,0,0,0,0,0,0,0,0,0,0,0,0,0,0,0,0,0,0,0,0,0,0,0,0,0,0,0,0,0,0,0,0],"id":10,"left_children":[1,3,5,7,9,11,13,15,17,19,21,23,25,27,29,31,33,35,37,39,41,43,-1,45,-1,47,49,51,53,55,57,59,61,63,-1,65,-1,-1,-1,67,69,71,-1,-1,-1,-1,73,75,77,-1,79,81,83,85,87,89,91,93,95,-1,-1,-1,-1,-1,-1,-1,-1,-1,-1,-1,-1,-1,-1,-1,-1,-1,-1,-1,-1,-1,-1,-1,-1,-1,-1,-1,-1,-1,-1,-1,-1,-1,-1,-1,-1,-1,-1],"loss_changes":[3.667605E2,7.444148E2,4.9868265E2,7.4467084E2,4.0841614E2,1.4302856E3,7.9111475E2,5.6651416E2,1.521286E2,2.6037E2,4.243585E2,3.230802E2,1.3168269E3,9.7619275E2,7.2631525E2,5.5365625E2,9.63464E2,1.3935187E2,2.7485657E-1,7.7113684E2,1.5441809E2,1.6893219E1,0E0,2.737461E2,0E0,9.665488E2,1.2147711E2,1.32316E3,1.0085653E3,1.1352135E3,1.488924E3,2.779179E2,5.130861E2,8.1446344E2,0E0,2.6365967E0,0E0,0E0,0E0,1.5599084E2,2.0192749E3,1.0658086E1,0E0,0E0,0E0,0E0,2.5791895E2,9.184669E2,4.9709772E2,0E0,1.02210266E2,1.8352096E3,5.329958E2,6.7690845E2,8.28894E2,6.632667E2,1.911499E3,4.7775574E2,5.2140045E2,0E0,0E0,0E0,0E0,0E0,0E0,0E0,0E0,0E0,0E0,0E0,0E0,0E0,0E0,0E0,0E0,0E0,0E0,0E0,0E0,0E0,0E0,0E0,0E0,0E0,0E0,0E0,0E0,0E0,0E0,0E0,0E0,0E0,0E0,0E0,0E0,0E0,0E0],"parents":[2147483647,0,0,1,1,2,2,3,3,4,4,5,5,6,6,7,7,8,8,9,9,10,10,11,11,12,12,13,13,14,14,15,15,16,16,17,17,18,18,19,19,20,20,21,21,23,23,25,25,26,26,27,27,28,28,29,29,30,30,31,31,32,32,33,33,35,35,39,39,40,40,41,41,46,46,47,47,48,48,50,50,51,51,52,52,53,53,54,54,55,55,56,56,57,57,58,58],"right_children":[2,4,6,8,10,12,14,16,18,20,22,24,26,28,30,32,34,36,38,40,42,44,-1,46,-1,48,50,52,54,56,58,60,62,64,-1,66,-1,-1,-1,68,70,72,-1,-1,-1,-1,74,76,78,-1,80,82,84,86,88,90,92,94,96,-1,-1,-1,-1,-1,-1,-1,-1,-1,-1,-1,-1,-1,-1,-1,-1,-1,-1,-1,-1,-1,-1,-1,-1,-1,-1,-1,-1,-1,-1,-1,-1,-1,-1,-1,-1,-1,-1],"split_conditions":[5.677667E0,5.4235E0,8.25225E0,8.500001E0,1.8000002E0,6.28713E0,8.771E0,4E0,2.1218632E1,1.097262E1,5.299999E0,1E-1,1.2499999E1,1.7654686E1,8.958917E0,6.638072E0,2.749482E2,4.981833E0,4.5433316E-1,8.699793E0,3.2461502E1,4.2E0,-1.7325221E0,1.1569948E1,1.4375691E0,2.7609911E1,1.097262E1,2.1542392E2,7E-1,2.2303686E1,9.102666E0,8.704378E1,4.5433316E-1,4.7435474E1,6.543595E0,1.3200002E1,1.5080424E-1,-2.789528E-1,-7.617695E-1,8.209263E0,1.02945305E2,5.4985003E0,-3.065658E0,1.2946372E0,3.495169E0,9.1077524E-1,7.860583E0,2.7238943E1,6.575584E0,7.619059E-1,7.072706E0,7.569969E1,2.5021342E2,2.4850431E1,1.9107151E1,1.7709658E1,1.9107151E1,2.2303686E1,9.770999E0,2.905861E0,-3.6921674E-1,1.5350587E0,-2.5889498E-1,4.246489E0,-7.067294E-1,-3.8545678E0,-1.5213743E0,-1.8877369E0,-4.925809E0,-2.378568E0,4.7310247E0,3.7293148E-1,-6.165156E-1,-4.139234E0,-2.658333E-1,6.19586E-1,7.0801325E0,5.9827185E-1,-1.3432144E0,5.021324E-1,-2.187656E0,-5.0610904E-2,4.7845626E0,-3.2905924E0,-5.184974E-1,-3.3534188E0,1.7192042E0,4.3234754E0,-8.99029E-1,6.0272584E0,-1.8932648E-1,-4.782326E-1,4.679716E0,1.8061336E0,-2.3447065E0,5.9349465E-1,-4.2017872E-4],"split_indices":[0,0,0,1,1,2,0,1,2,2,1,1,1,2,0,2,3,0,0,2,3,1,0,3,0,2,2,3,1,3,0,3,0,3,0,1,0,0,0,2,3,0,0,0,0,0,0,2,0,0,3,3,3,2,2,2,2,3,0,0,0,0,0,0,0,0,0,0,0,0,0,0,0,0,0,0,0,0,0,0,0,0,0,0,0,0,0,0,0,0,0,0,0,0,0,0,0],"split_type":[0,0,0,0,0,0,0,0,0,0,0,0,0,0,0,0,0,0,0,0,0,0,0,0,0,0,0,0,0,0,0,0,0,0,0,0,0,0,0,0,0,0,0,0,0,0,0,0,0,0,0,0,0,0,0,0,0,0,0,0,0,0,0,0,0,0,0,0,0,0,0,0,0,0,0,0,0,0,0,0,0,0,0,0,0,0,0,0,0,0,0,0,0,0,0,0,0],"sum_hessian":[3.957E3,4.33E2,3.524E3,3.87E2,4.6E1,5.1E2,3.014E3,3.75E2,1.2E1,3.9E1,7E0,1.3E1,4.97E2,1.23E2,2.891E3,3.59E2,1.6E1,8E0,4E0,2.4E1,1.5E1,4E0,3E0,1.2E1,1E0,4.76E2,2.1E1,6.3E1,6E1,4.7E1,2.844E3,1E1,3.49E2,1.4E1,2E0,7E0,1E0,2E0,2E0,1.1E1,1.3E1,2E0,1.3E1,3E0,1E0,1E0,1.1E1,4.24E2,5.2E1,1E0,2E1,3.3E1,3E1,2.7E1,3.3E1,7E0,4E1,3.1E1,2.813E3,7E0,3E0,1.4E1,3.35E2,3E0,1.1E1,5E0,2E0,9E0,2E0,8E0,5E0,1E0,1E0,9E0,2E0,4.23E2,1E0,1.7E1,3.5E1,1E0,1.9E1,2.4E1,9E0,8E0,2.2E1,2.5E1,2E0,2E0,3.1E1,5E0,2E0,3.3E1,7E0,2E0,2.9E1,1.39E2,2.674E3],"tree_param":{"num_deleted":"0","num_feature":"4","num_nodes":"97","size_leaf_vector":"1"}},{"base_weights":[2.3943856E-2,-5.3792056E-2,1.1771381E0,-1.6600495E-2,-2.9512153E0,2.8551967E0,3.5596675E-1,-6.0235634E-2,3.3418014E0,-1.2266921E1,-1.5501333E0,2.4292054E0,1.05547285E1,-4.1011697E-1,2.2956803E0,-9.882248E-2,2.1908078E0,7.2257236E-2,6.750358E0,-7.6140124E-1,-4.1115313E0,5.1406544E-1,-1.0387236E1,2.8282874E0,-5.7606554E0,-5.7799476E-1,4.607221E0,2.2069347E-1,-2.637809E0,9.5115185E0,1.2354312E0,-6.8372115E-2,-6.8335953E0,1.2677306E0,5.8843184E0,2.2979956E0,-4.9446864E0,1.229104E1,2.9759252E0,-3.3532336E0,2.6775794E0,-2.431237E0,-5.320628E0,2.3131337E0,8.452892E0,-2.0604677E0,-3.6569196E-1,-7.69437E-1,3.5861068E0,-4.0406175E0,1.9315482E0,1.3738686E0,7.5299654E0,3.954534E-1,6.3493857E0,-2.8957529E-2,2.4664016E0,6.9394994E-1,-2.4916506E0,1.3403782E0,-1.2952516E0,1.443047E0,-1.5586965E0,-2.1141086E0,2.7246782E-1,5.723734E0,1.7151457E0,-1.2920797E0,2.4929135E0,2.0041406E0,-1.7354575E0,3.1258032E-1,3.0559232E0,3.6364862E-1,-1.5792671E0,-7.6576844E-2,1.0190887E0,6.188705E0,-8.377267E-1,-8.592999E-4,-2.1567376E0,3.0479462E0,4.682541E-1,-1.5585628E0,1.7319783E0,-7.995901E-2,1.1903195E0,1.0410318E0,-4.026511E-1,-2.4778901E-1,3.0430653E0],"categories":[],"categories_nodes":[],"categories_segments":[],"categories_sizes":[],"default_left":[0,0,0,0,0,0,0,0,0,0,0,0,0,0,0,0,0,0,0,0,0,0,0,0,0,0,0,0,0,0,0,0,0,0,0,0,0,0,0,0,0,0,0,0,0,0,0,0,0,0,0,0,0,0,0,0,0,0,0,0,0,0,0,0,0,0,0,0,0,0,0,0,0,0,0,0,0,0,0,0,0,0,0,0,0,0,0,0,0,0,0],"id":11,"left_children":[1,3,5,7,9,11,13,15,17,19,21,23,25,27,29,31,33,35,37,-1,-1,39,41,43,45,-1,-1,47,49,51,53,55,57,59,-1,61,63,65,67,69,71,73,-1,75,77,-1,-1,79,81,83,-1,85,-1,87,89,-1,-1,-1,-1,-1,-1,-1,-1,-1,-1,-1,-1,-1,-1,-1,-1,-1,-1,-1,-1,-1,-1,-1,-1,-1,-1,-1,-1,-1,-1,-1,-1,-1,-1,-1,-1],"loss_changes":[3.5487665E2,3.996317E2,3.4347705E2,5.3699316E2,5.944319E2,2.4331506E2,2.5207262E2,3.1439154E2,5.2330023E2,4.916815E1,7.7148425E2,2.7449847E2,2.6936435E2,1.7202283E2,3.554773E2,7.289891E2,9.5621655E2,2.9052298E2,4.444203E2,0E0,0E0,3.0182202E2,4.2457843E2,2.006601E2,1.17487335E1,0E0,0E0,3.226503E2,3.697879E2,7.26632E2,1.8220026E2,8.2742554E2,2.346228E2,1.0738477E3,0E0,3.638466E2,1.0483887E2,2.9253796E2,6.184674E2,3.558221E2,2.7186743E2,5.7989597E1,0E0,1.9850943E2,8.7915076E2,0E0,0E0,3.690662E2,2.7703854E2,3.0193787E2,0E0,2.2332365E1,0E0,2.0767586E2,1.7172498E2,0E0,0E0,0E0,0E0,0E0,0E0,0E0,0E0,0E0,0E0,0E0,0E0,0E0,0E0,0E0,0E0,0E0,0E0,0E0,0E0,0E0,0E0,0E0,0E0,0E0,0E0,0E0,0E0,0E0,0E0,0E0,0E0,0E0,0E0,0E0,0E0],"parents":[2147483647,0,0,1,1,2,2,3,3,4,4,5,5,6,6,7,7,8,8,9,9,10,10,11,11,12,12,13,13,14,14,15,15,16,16,17,17,18,18,21,21,22,22,23,23,24,24,27,27,28,28,29,29,30,30,31,31,32,32,33,33,35,35,36,36,37,37,38,38,39,39,40,40,41,41,43,43,44,44,47,47,48,48,49,49,51,51,53,53,54,54],"right_children":[2,4,6,8,10,12,14,16,18,20,22,24,26,28,30,32,34,36,38,-1,-1,40,42,44,46,-1,-1,48,50,52,54,56,58,60,-1,62,64,66,68,70,72,74,-1,76,78,-1,-1,80,82,84,-1,86,-1,88,90,-1,-1,-1,-1,-1,-1,-1,-1,-1,-1,-1,-1,-1,-1,-1,-1,-1,-1,-1,-1,-1,-1,-1,-1,-1,-1,-1,-1,-1,-1,-1,-1,-1,-1,-1,-1],"split_conditions":[2.8527672E1,2.8079329E1,1.221329E2,2.7690165E1,4.7435474E1,2E-1,2.1413193E1,3.532903E2,2.2254796E2,2.8219336E1,2.833245E2,1E-1,1.5463246E1,1.908E1,2.1980644E1,3.5155695E2,2.130093E1,2.7969332E1,2.4420401E2,-7.6140124E-1,-4.1115313E0,2.8219336E1,1.9319628E1,1.1798132E2,2.9660997E1,-5.7799476E-1,4.607221E0,1.8079027E1,3.1269331E1,2.1637466E1,3.1269331E1,3.498244E2,6.28713E0,1.1681987E1,5.8843184E0,1.5935884E2,2.3277834E1,1.4587776E1,1.5990646E1,1.14862E1,1E-1,2.8219336E1,-5.320628E0,2.9433914E1,1.503835E1,-2.0604677E0,-3.6569196E-1,1.7782686E1,1.8374111E1,3.016426E2,1.9315482E0,3.0733915E1,7.5299654E0,2.9308914E1,2.093099E2,-2.8957529E-2,2.4664016E0,6.9394994E-1,-2.4916506E0,1.3403782E0,-1.2952516E0,1.443047E0,-1.5586965E0,-2.1141086E0,2.7246782E-1,5.723734E0,1.7151457E0,-1.2920797E0,2.4929135E0,2.0041406E0,-1.7354575E0,3.1258032E-1,3.0559232E0,3.6364862E-1,-1.5792671E0,-7.6576844E-2,1.0190887E0,6.188705E0,-8.377267E-1,-8.592999E-4,-2.1567376E0,3.0479462E0,4.682541E-1,-1.5585628E0,1.7319783E0,-7.995901E-2,1.1903195E0,1.0410318E0,-4.026511E-1,-2.4778901E-1,3.0430653E0],"split_indices":[0,0,3,0,3,1,2,3,3,0,3,1,2,2,2,3,2,0,3,0,0,0,2,3,0,0,0,2,0,2,0,3,2,2,0,3,2,2,2,2,1,0,0,0,2,0,0,2,2,3,0,0,0,0,3,0,0,0,0,0,0,0,0,0,0,0,0,0,0,0,0,0,0,0,0,0,0,0,0,0,0,0,0,0,0,0,0,0,0,0,0],"split_type":[0,0,0,0,0,0,0,0,0,0,0,0,0,0,0,0,0,0,0,0,0,0,0,0,0,0,0,0,0,0,0,0,0,0,0,0,0,0,0,0,0,0,0,0,0,0,0,0,0,0,0,0,0,0,0,0,0,0,0,0,0,0,0,0,0,0,0,0,0,0,0,0,0,0,0,0,0,0,0,0,0,0,0,0,0,0,0,0,0,0,0],"sum_hessian":[3.957E3,3.708E3,2.49E2,3.662E3,4.6E1,8.1E1,1.68E2,3.616E3,4.6E1,5E0,4.1E1,7.8E1,3E0,1.21E2,4.7E1,3.556E3,6E1,2.4E1,2.2E1,1E0,4E0,3.4E1,7E0,7.5E1,3E0,1E0,2E0,9.5E1,2.6E1,5E0,4.2E1,3.541E3,1.5E1,5.8E1,2E0,1.7E1,7E0,8E0,1.4E1,1.2E1,2.2E1,4E0,3E0,7E1,5E0,2E0,1E0,7.4E1,2.1E1,2.3E1,3E0,4E0,1E0,3.7E1,5E0,3.53E3,1.1E1,2E0,1.3E1,3.7E1,2.1E1,1.3E1,4E0,5E0,2E0,3E0,5E0,6E0,8E0,2E0,1E1,1.9E1,3E0,2E0,2E0,2.1E1,4.9E1,2E0,3E0,6.7E1,7E0,4E0,1.7E1,2.1E1,2E0,3E0,1E0,1.3E1,2.4E1,2E0,3E0],"tree_param":{"num_deleted":"0","num_feature":"4","num_nodes":"91","size_leaf_vector":"1"}},{"base_weights":[2.4065694E-2,4.8516847E-2,-2.8856099E0,-9.225036E-2,5.8513236E-1,2.4325356E0,-4.9812703E0,-4.025089E-2,-2.3841655E0,9.674852E0,3.5629985E-1,-1.045632E0,5.060407E0,-5.7348413E0,1.8526294E0,6.295862E-1,-1.9790725E-1,9.588976E0,-3.6766706E0,-6.1666566E-1,1.8151245E1,-5.088432E-1,2.2512681E0,2.5822515E0,-6.2260494E0,-7.31305E0,-4.44088E-2,4.468543E0,4.046751E-1,-6.8792516E-1,2.942635E-1,-9.0355835E0,7.744888E0,-2.4525337E-1,-7.6912546E0,1.3936627E0,-2.5129104E0,2.511657E1,4.7695417E0,-1.1677705E0,1.6846697E0,1.0331744E1,1.5036975E0,2.2021425E0,-1.6319785E0,-2.2700276E0,-3.3058834E-1,-2.7852998E0,-4.80759E0,1.35764E0,-1.058198E0,2.1946795E0,-2.0233788E0,-4.2835265E-2,7.1522677E-1,-1.9896406E0,-1.7239451E-1,-3.9549628E-1,1.882676E-1,-3.4980865E0,-1.7422028E-1,4.489957E0,-3.3985513E-1,-4.3757796E0,-9.8843896E-1,-1.8278621E0,2.560927E-1,8.475645E0,9.4546455E-1,1.8914218E0,-2.0568696E-1,4.2843863E-2,-8.215452E-1,2.2408159E0,-1.7916794E-1,2.2042494E0,1.0502502E1,-2.120852E0,5.899788E-1,-1.100767E0,6.7196333E-1,-2.0820944E0,3.7972927E-2,6.0610965E-2,6.1820906E-1],"categories":[],"categories_nodes":[],"categories_segments":[],"categories_sizes":[],"default_left":[0,0,0,0,0,0,0,0,0,0,0,0,0,0,0,0,0,0,0,0,0,0,0,0,0,0,0,0,0,0,0,0,0,0,0,0,0,0,0,0,0,0,0,0,0,0,0,0,0,0,0,0,0,0,0,0,0,0,0,0,0,0,0,0,0,0,0,0,0,0,0,0,0,0,0,0,0,0,0,0,0,0,0,0,0],"id":12,"left_children":[1,3,5,7,9,11,13,15,17,19,21,23,-1,25,-1,27,29,31,33,35,37,39,41,43,45,47,49,51,53,55,57,59,-1,61,63,-1,65,67,69,71,73,75,77,-1,79,-1,-1,-1,81,83,-1,-1,-1,-1,-1,-1,-1,-1,-1,-1,-1,-1,-1,-1,-1,-1,-1,-1,-1,-1,-1,-1,-1,-1,-1,-1,-1,-1,-1,-1,-1,-1,-1,-1,-1],"loss_changes":[2.8173163E2,2.9661566E2,3.7990298E2,3.7066797E2,1.693852E3,5.197282E2,2.371919E2,3.2147784E2,1.1030544E3,1.7558922E3,1.3077623E3,1.8522278E2,0E0,2.062312E2,0E0,4.989776E2,5.9445154E2,2.3488516E3,8.659835E2,1.11458176E2,9.0549243E2,7.940276E2,1.494646E3,1.3229297E2,1.9141373E1,4.4266113E1,3.4088165E1,1.0709224E3,5.9526355E2,8.27765E2,6.619112E2,8.1994385E1,0E0,4.8952222E2,8.3099524E2,0E0,1.0161821E2,3.9307373E2,4.6196434E1,8.690994E2,1.6808762E3,1.2892383E3,9.266631E2,0E0,3.9770283E1,0E0,0E0,0E0,1.061107E2,3.6459389E0,0E0,0E0,0E0,0E0,0E0,0E0,0E0,0E0,0E0,0E0,0E0,0E0,0E0,0E0,0E0,0E0,0E0,0E0,0E0,0E0,0E0,0E0,0E0,0E0,0E0,0E0,0E0,0E0,0E0,0E0,0E0,0E0,0E0,0E0,0E0],"parents":[2147483647,0,0,1,1,2,2,3,3,4,4,5,5,6,6,7,7,8,8,9,9,10,10,11,11,13,13,15,15,16,16,17,17,18,18,19,19,20,20,21,21,22,22,23,23,24,24,25,25,26,26,27,27,28,28,29,29,30,30,31,31,33,33,34,34,36,36,37,37,38,38,39,39,40,40,41,41,42,42,44,44,48,48,49,49],"right_children":[2,4,6,8,10,12,14,16,18,20,22,24,-1,26,-1,28,30,32,34,36,38,40,42,44,46,48,50,52,54,56,58,60,-1,62,64,-1,66,68,70,72,74,76,78,-1,80,-1,-1,-1,82,84,-1,-1,-1,-1,-1,-1,-1,-1,-1,-1,-1,-1,-1,-1,-1,-1,-1,-1,-1,-1,-1,-1,-1,-1,-1,-1,-1,-1,-1,-1,-1,-1,-1,-1,-1],"split_conditions":[3.650052E1,9E-1,1.6E0,7E-1,2.080129E1,1.4000001E0,2.706194E2,9.826088E0,6.7276673E0,1.1569948E1,1.3688083E1,7.0000005E-1,5.060407E0,1.7200003E1,1.8526294E0,2.8689167E0,1.6946787E1,4.5589166E0,2.2916592E2,1.3089354E1,1.0329751E1,2.4455261E2,1.4304334E1,3.83176E1,9.677249E0,5.1E0,2.1542392E2,9.021574E0,9.1641035E0,7.072706E0,3.49394E1,4.1651664E0,7.744888E0,7.9026656E0,9.92975E0,1.3936627E0,1.8532135E1,2.0858265E1,4E0,1.964228E1,1.4E0,2.8820242E1,1.47109995E1,2.2021425E0,1.3860997E1,-2.2700276E0,-3.3058834E-1,-2.7852998E0,9.92975E0,1.8724673E2,-1.058198E0,2.1946795E0,-2.0233788E0,-4.2835265E-2,7.1522677E-1,-1.9896406E0,-1.7239451E-1,-3.9549628E-1,1.882676E-1,-3.4980865E0,-1.7422028E-1,4.489957E0,-3.3985513E-1,-4.3757796E0,-9.8843896E-1,-1.8278621E0,2.560927E-1,8.475645E0,9.4546455E-1,1.8914218E0,-2.0568696E-1,4.2843863E-2,-8.215452E-1,2.2408159E0,-1.7916794E-1,2.2042494E0,1.0502502E1,-2.120852E0,5.899788E-1,-1.100767E0,6.7196333E-1,-2.0820944E0,3.7972927E-2,6.0610965E-2,6.1820906E-1],"split_indices":[2,1,1,1,3,1,3,2,0,3,0,1,0,1,0,0,2,0,3,2,0,3,0,2,0,1,3,2,2,3,3,0,0,0,0,0,2,2,1,2,1,2,0,0,0,0,0,0,0,3,0,0,0,0,0,0,0,0,0,0,0,0,0,0,0,0,0,0,0,0,0,0,0,0,0,0,0,0,0,0,0,0,0,0,0],"split_type":[0,0,0,0,0,0,0,0,0,0,0,0,0,0,0,0,0,0,0,0,0,0,0,0,0,0,0,0,0,0,0,0,0,0,0,0,0,0,0,0,0,0,0,0,0,0,0,0,0,0,0,0,0,0,0,0,0,0,0,0,0,0,0,0,0,0,0,0,0,0,0,0,0,0,0,0,0,0,0,0,0,0,0,0,0],"sum_hessian":[3.957E3,3.925E3,3.2E1,3.11E3,8.15E2,9E0,2.3E1,3.042E3,6.8E1,1.9E1,7.96E2,8E0,1E0,2.2E1,1E0,5.79E2,2.463E3,6E0,6.2E1,9E0,1E1,5.47E2,2.49E2,5E0,3E0,1.7E1,5E0,3.1E1,5.48E2,1.234E3,1.229E3,3E0,3E0,3.4E1,2.8E1,2E0,7E0,6E0,4E0,4.21E2,1.26E2,2E1,2.29E2,2E0,3E0,2E0,1E0,8E0,9E0,4E0,1E0,2.5E1,6E0,4.3E2,1.18E2,2.2E1,1.212E3,2.1E2,1.019E3,2E0,1E0,1E0,3.3E1,1E1,1.8E1,3E0,4E0,5E0,1E0,3E0,1E0,2.3E2,1.91E2,3.5E1,9.1E1,1.9E1,1E0,1.1E1,2.18E2,2E0,1E0,6E0,3E0,2E0,2E0],"tree_param":{"num_deleted":"0","num_feature":"4","num_nodes":"85","size_leaf_vector":"1"}},{"base_weights":[2.3313403E-2,-6.585704E-1,1.3518281E-1,3.5937667E-1,-1.9324533E0,1.2662681E0,-1.0046121E-2,-2.6944006E-2,7.4838476E0,-5.520582E0,-1.2568843E0,-9.191212E0,1.5112578E0,-1.236129E0,9.93264E-2,-4.5934525E0,4.6729362E-1,6.190268E0,4.131349E0,-6.602976E0,5.6011076E0,4.3165255E0,-1.9320521E0,7.8492796E-1,-1.099422E1,2.9541807E0,-7.112991E-1,-8.244634E-1,-7.5482597E0,5.9573727E0,-4.011414E-3,6.289406E-1,-8.875956E0,1.9625598E0,-7.956176E-1,-3.2855349E0,1.2017595E1,1.3193889E0,-7.0429444E0,-1.6671399E0,1.1172898E1,5.3534764E-1,1.4940638E1,4.3719826E0,-2.3485286E0,-4.2623887E0,-9.0199536E-1,2.486627E0,1.7493874E1,6.1435256E-2,-6.381431E0,-1.8421661E0,1.8342476E0,-4.2757735E0,-1.3238077E1,1.2741291E1,-2.729159E-1,-6.95221E0,3.9640985E-2,1.8507276E0,-6.6120875E-1,2.906929E-1,-3.1054761E0,1.8197703E-1,3.297809E0,-2.1545887E0,3.6216563E-1,-2.7165966E0,1.4244249E0,5.0078645E0,6.5876774E-2,-3.0681977E0,-1.4810586E0,4.7534513E0,2.7435324E-1,4.410847E0,-1.3688114E0,8.3488455E0,4.6165296E-1,4.3316207E0,-1.4643693E0,-1.5626447E0,-1.6770032E-1,-6.245476E-1,2.1864969E-1,5.1261757E-2,1.4655113E0,1.3522465E0,5.6721067E0,2.0647328E-1,-2.315142E0,-2.5849633E0,-1.4253473E-1,-2.0079578E-1,-2.777428E0,3.4244616E0,-2.3412757E-1,-1.24492265E-1,-2.6477215E0,-4.738825E0,-4.509087E-1,1.3652251E0,6.378817E0,-1.2285542E0,6.5320005E0,4.7756596E0,-2.8129745E0,2.3195112E0,-1.832637E-3],"categories":[],"categories_nodes":[],"categories_segments":[],"categories_sizes":[],"default_left":[0,0,0,0,0,0,0,0,0,0,0,0,0,0,0,0,0,0,0,0,0,0,0,0,0,0,0,0,0,0,0,0,0,0,0,0,0,0,0,0,0,0,0,0,0,0,0,0,0,0,0,0,0,0,0,0,0,0,0,0,0,0,0,0,0,0,0,0,0,0,0,0,0,0,0,0,0,0,0,0,0,0,0,0,0,0,0,0,0,0,0,0,0,0,0,0,0,0,0,0,0,0,0,0,0,0,0,0,0],"id":13,"left_children":[1,3,5,7,9,11,13,15,17,19,21,23,25,27,29,31,33,-1,35,37,39,41,43,-1,45,47,49,51,53,55,57,59,61,63,65,67,69,-1,71,-1,73,75,77,79,81,-1,83,85,87,89,91,93,95,97,99,101,103,105,107,-1,-1,-1,-1,-1,-1,-1,-1,-1,-1,-1,-1,-1,-1,-1,-1,-1,-1,-1,-1,-1,-1,-1,-1,-1,-1,-1,-1,-1,-1,-1,-1,-1,-1,-1,-1,-1,-1,-1,-1,-1,-1,-1,-1,-1,-1,-1,-1,-1,-1],"loss_changes":[3.020129E2,7.242784E2,5.586825E2,8.5617645E2,5.942203E2,1.00537415E3,4.044336E2,6.702008E2,6.201387E2,5.064679E2,7.9856696E2,2.2036896E2,1.2175459E3,6.3560315E2,1.6762594E3,6.5416486E2,5.0764954E2,0E0,8.583635E2,2.0521704E2,3.107748E2,9.159496E2,5.0385846E2,0E0,2.4665497E2,1.5200593E3,6.576179E2,6.338251E2,2.226947E2,2.0322343E3,8.258733E2,2.3332797E2,2.4247034E2,1.4994166E3,1.8761274E3,4.1381354E2,3.824477E2,0E0,1.8423901E2,0E0,1.2928943E2,1.3671622E3,9.935769E2,1.1882766E3,9.03074E2,0E0,7.289599E0,1.2432902E3,4.323877E1,6.537768E2,2.3352917E2,1.4637224E3,1.6371711E3,1.8956903E2,1.2634955E2,1.5085264E3,2.2800974E3,1.0918801E3,9.52316E2,0E0,0E0,0E0,0E0,0E0,0E0,0E0,0E0,0E0,0E0,0E0,0E0,0E0,0E0,0E0,0E0,0E0,0E0,0E0,0E0,0E0,0E0,0E0,0E0,0E0,0E0,0E0,0E0,0E0,0E0,0E0,0E0,0E0,0E0,0E0,0E0,0E0,0E0,0E0,0E0,0E0,0E0,0E0,0E0,0E0,0E0,0E0,0E0,0E0,0E0],"parents":[2147483647,0,0,1,1,2,2,3,3,4,4,5,5,6,6,7,7,8,8,9,9,10,10,11,11,12,12,13,13,14,14,15,15,16,16,18,18,19,19,20,20,21,21,22,22,24,24,25,25,26,26,27,27,28,28,29,29,30,30,31,31,32,32,33,33,34,34,35,35,36,36,38,38,40,40,41,41,42,42,43,43,44,44,46,46,47,47,48,48,49,49,50,50,51,51,52,52,53,53,54,54,55,55,56,56,57,57,58,58],"right_children":[2,4,6,8,10,12,14,16,18,20,22,24,26,28,30,32,34,-1,36,38,40,42,44,-1,46,48,50,52,54,56,58,60,62,64,66,68,70,-1,72,-1,74,76,78,80,82,-1,84,86,88,90,92,94,96,98,100,102,104,106,108,-1,-1,-1,-1,-1,-1,-1,-1,-1,-1,-1,-1,-1,-1,-1,-1,-1,-1,-1,-1,-1,-1,-1,-1,-1,-1,-1,-1,-1,-1,-1,-1,-1,-1,-1,-1,-1,-1,-1,-1,-1,-1,-1,-1,-1,-1,-1,-1,-1,-1],"split_conditions":[6.438083E0,2.1821368E2,8.25225E0,2.1131348E2,8.209263E0,5.95906E0,9.31725E0,8.549051E0,1E-1,3.585312E2,9.605998E0,6.504333E0,1.749615E1,9.2647505E0,9.5234995E0,3.2735004E0,2.9304152E1,6.190268E0,5.271E0,2.257847E2,2.5901668E0,9.021574E0,1.6318332E0,7.8492796E-1,7.860583E0,1.7377226E1,1.02E1,2.4891618E2,2E-1,1E-1,9.610999E0,9.504273E0,6.830519E0,2.7602396E1,3.49394E1,1.9000002E0,2.1637466E1,1.3193889E0,3.193583E2,-1.6671399E0,4.981833E0,3.9964163E0,9.449572E0,1.3746156E1,1.6299694E1,-4.2623887E0,7.9026656E0,1.5394658E2,3.4054E1,2.8770978E2,2.8165257E1,2.3325583E2,2.580528E2,2.1420528E2,2.286496E1,7.569969E1,1.0099999E1,2.4482489E1,9.677249E0,1.8507276E0,-6.6120875E-1,2.906929E-1,-3.1054761E0,1.8197703E-1,3.297809E0,-2.1545887E0,3.6216563E-1,-2.7165966E0,1.4244249E0,5.0078645E0,6.5876774E-2,-3.0681977E0,-1.4810586E0,4.7534513E0,2.7435324E-1,4.410847E0,-1.3688114E0,8.3488455E0,4.6165296E-1,4.3316207E0,-1.4643693E0,-1.5626447E0,-1.6770032E-1,-6.245476E-1,2.1864969E-1,5.1261757E-2,1.4655113E0,1.3522465E0,5.6721067E0,2.0647328E-1,-2.315142E0,-2.5849633E0,-1.4253473E-1,-2.0079578E-1,-2.777428E0,3.4244616E0,-2.3412757E-1,-1.24492265E-1,-2.6477215E0,-4.738825E0,-4.509087E-1,1.3652251E0,6.378817E0,-1.2285542E0,6.5320005E0,4.7756596E0,-2.8129745E0,2.3195112E0,-1.832637E-3],"split_indices":[0,3,0,3,2,2,0,3,1,3,2,0,2,0,0,0,3,0,0,3,0,2,0,0,0,2,1,3,1,1,0,2,2,3,3,1,2,0,3,0,0,0,2,2,2,0,0,3,3,3,2,3,3,3,2,3,1,3,0,0,0,0,0,0,0,0,0,0,0,0,0,0,0,0,0,0,0,0,0,0,0,0,0,0,0,0,0,0,0,0,0,0,0,0,0,0,0,0,0,0,0,0,0,0,0,0,0,0,0],"split_type":[0,0,0,0,0,0,0,0,0,0,0,0,0,0,0,0,0,0,0,0,0,0,0,0,0,0,0,0,0,0,0,0,0,0,0,0,0,0,0,0,0,0,0,0,0,0,0,0,0,0,0,0,0,0,0,0,0,0,0,0,0,0,0,0,0,0,0,0,0,0,0,0,0,0,0,0,0,0,0,0,0,0,0,0,0,0,0,0,0,0,0,0,0,0,0,0,0,0,0,0,0,0,0,0,0,0,0,0,0],"sum_hessian":[3.957E3,5.57E2,3.4E3,3.1E2,2.47E2,3.86E2,3.014E3,2.95E2,1.5E1,3.8E1,2.09E2,8E0,3.78E2,2.46E2,2.768E3,2.8E1,2.67E2,2E0,1.3E1,3.5E1,3E0,2.2E1,1.87E2,1E0,7E0,2.29E2,1.49E2,2.32E2,1.4E1,4.7E1,2.721E3,1.3E1,1.5E1,1.22E2,1.45E2,7E0,6E0,1E0,3.4E1,1E0,2E0,1.7E1,5E0,1.1E1,1.76E2,5E0,2E0,2.23E2,6E0,1.32E2,1.7E1,1.68E2,6.4E1,1E1,4E0,2.2E1,2.5E1,1.6E1,2.705E3,4E0,9E0,2E0,1.3E1,1.07E2,1.5E1,3.4E1,1.11E2,4E0,3E0,4E0,2E0,1.2E1,2.2E1,1E0,1E0,4E0,1.3E1,2E0,3E0,5E0,6E0,6.7E1,1.09E2,1E0,1E0,1.14E2,1.09E2,1E0,5E0,1.23E2,9E0,1.2E1,5E0,1.46E2,2.2E1,1.3E1,5.1E1,6E0,4E0,3E0,1E0,1.2E1,1E1,2.2E1,3E0,1E0,1.5E1,1.5E1,2.69E3],"tree_param":{"num_deleted":"0","num_feature":"4","num_nodes":"109","size_leaf_vector":"1"}},{"base_weights":[2.4543148E-2,1.8446206E-1,-3.14469E-1,9.32096E-2,4.1157656E0,-4.1038966E0,-1.6536343E-1,-2.0880266E-1,6.7594236E-1,8.446976E0,1.8483011E-1,-6.0566015E0,-5.1291084E-1,6.776673E0,-2.572501E-1,-9.555766E-3,-3.6828036E0,2.3546395E0,3.5400346E-2,-6.889371E0,1.048153E1,-5.7732124E0,4.3462186E0,-9.127752E0,-3.6365194E0,-2.9127474E0,6.042647E0,1.2937208E1,-5.6470866E0,-5.8636513E0,-1.04476236E-1,-1.0598325E-1,4.839237E0,-1.2686747E1,-2.8125238E0,3.6158469E0,-4.405026E-1,-1.455349E0,1.3216028E0,-4.815622E0,1.5155538E0,1.5531208E1,2.183678E0,-9.388332E0,-2.7216642E0,9.369098E0,-1.6135712E0,-3.431752E0,-5.5123677E0,1.3094347E0,-4.834601E0,-7.7662816E0,4.4066066E-1,-2.0516481E0,1.5598694E1,3.214308E-1,-2.1615236E0,-2.7744048E0,-1.9012864E0,-3.3565664E-1,1.3871523E0,-5.2301474E-2,1.0492737E0,3.110819E0,1.5290597E-1,-1.9167076E0,-5.2161636E0,2.3805256E0,-1.1556385E0,1.7533891E0,5.051097E-1,-3.3629415E0,8.793169E-2,-3.1773872E0,-3.3186078E-1,5.1511353E-1,-5.357998E-1,-7.8189987E-1,1.4638991E0,5.158062E0,-1.4105611E0,-6.011234E-1,1.458822E0,-3.2586246E0,-3.0293828E-1,1.4206852E0,-1.6586499E0,1.6340394E0,3.8959498E0,-1.6475154E0,1.6729736E0,2.692051E-2,-2.9209135E0,-2.0028621E-1,-1.7039514E0,-3.6709952E0,6.819279E-1,2.2330627E0,-9.347589E-1,-3.3809853E-1,5.274698E0,-1.8957154E0,2.9366782E-2,-2.1092683E-1,2.9371503E-1,2.558967E0,-6.506941E-2],"categories":[],"categories_nodes":[],"categories_segments":[],"categories_sizes":[],"default_left":[0,0,0,0,0,0,0,0,0,0,0,0,0,0,0,0,0,0,0,0,0,0,0,0,0,0,0,0,0,0,0,0,0,0,0,0,0,0,0,0,0,0,0,0,0,0,0,0,0,0,0,0,0,0,0,0,0,0,0,0,0,0,0,0,0,0,0,0,0,0,0,0,0,0,0,0,0,0,0,0,0,0,0,0,0,0,0,0,0,0,0,0,0,0,0,0,0,0,0,0,0,0,0,0,0,0,0],"id":14,"left_children":[1,3,5,7,9,11,13,15,17,19,21,23,25,27,29,31,33,35,37,39,41,43,45,47,49,51,-1,53,55,57,59,61,63,65,67,69,71,73,75,-1,77,79,81,83,85,87,89,-1,91,-1,93,95,97,-1,99,-1,-1,-1,101,103,105,-1,-1,-1,-1,-1,-1,-1,-1,-1,-1,-1,-1,-1,-1,-1,-1,-1,-1,-1,-1,-1,-1,-1,-1,-1,-1,-1,-1,-1,-1,-1,-1,-1,-1,-1,-1,-1,-1,-1,-1,-1,-1,-1,-1,-1,-1],"loss_changes":[2.1463881E2,9.646299E2,7.1633777E2,4.6300122E2,1.0370071E3,3.33476E2,7.812335E2,1.1995194E3,9.655145E2,9.7708765E2,8.432846E2,1.9721228E2,9.5090704E2,1.2976497E3,1.033197E3,7.673062E2,7.008976E2,8.758557E2,1.2501544E3,3.3237503E2,1.0555232E3,1.2889212E2,6.1382385E2,4.5579834E1,2.0323997E2,2.8011224E2,0E0,6.8564685E2,7.0524185E1,4.1153967E2,4.0599197E2,3.96941E2,7.608942E2,1.2573047E2,1.00264056E3,7.2654346E2,6.195206E2,9.5159735E2,4.3317346E2,0E0,5.4317463E1,6.189866E2,1.331457E2,6.3118713E1,2.1458704E2,8.533905E1,3.0946954E2,0E0,1.6651706E2,0E0,5.6083466E1,3.41973E2,2.9715814E2,0E0,3.5159106E2,0E0,0E0,0E0,1.4192876E2,4.9293292E2,1.8121053E3,0E0,0E0,0E0,0E0,0E0,0E0,0E0,0E0,0E0,0E0,0E0,0E0,0E0,0E0,0E0,0E0,0E0,0E0,0E0,0E0,0E0,0E0,0E0,0E0,0E0,0E0,0E0,0E0,0E0,0E0,0E0,0E0,0E0,0E0,0E0,0E0,0E0,0E0,0E0,0E0,0E0,0E0,0E0,0E0,0E0,0E0],"parents":[2147483647,0,0,1,1,2,2,3,3,4,4,5,5,6,6,7,7,8,8,9,9,10,10,11,11,12,12,13,13,14,14,15,15,16,16,17,17,18,18,19,19,20,20,21,21,22,22,23,23,24,24,25,25,27,27,28,28,29,29,30,30,31,31,32,32,33,33,34,34,35,35,36,36,37,37,38,38,40,40,41,41,42,42,43,43,44,44,45,45,46,46,48,48,50,50,51,51,52,52,54,54,58,58,59,59,60,60],"right_children":[2,4,6,8,10,12,14,16,18,20,22,24,26,28,30,32,34,36,38,40,42,44,46,48,50,52,-1,54,56,58,60,62,64,66,68,70,72,74,76,-1,78,80,82,84,86,88,90,-1,92,-1,94,96,98,-1,100,-1,-1,-1,102,104,106,-1,-1,-1,-1,-1,-1,-1,-1,-1,-1,-1,-1,-1,-1,-1,-1,-1,-1,-1,-1,-1,-1,-1,-1,-1,-1,-1,-1,-1,-1,-1,-1,-1,-1,-1,-1,-1,-1,-1,-1,-1,-1,-1,-1,-1,-1],"split_conditions":[2.4209729E2,2.4030418E2,2.4380428E2,1.5394658E2,2.0774214E1,3E-1,2.4420401E2,1.221329E2,2.093099E2,8.647496E0,2.5476198E1,1.7477667E1,2.0044333E1,2.6339111E1,2.4493118E2,1.1461825E2,7.9605827E0,1.945333E1,1.270475E1,7.9605827E0,1.7281418E1,2.1637466E1,1.2E0,2.130093E1,1.4799459E1,1.5000002E0,6.042647E0,1.0165167E1,3E-1,1.6219332E1,1.1E0,3.0221418E1,1.2783802E1,1.4886324E2,8.654749E0,1.1875585E1,2.0082708E1,8.905908E0,2.3894116E2,-4.815622E0,9.2647505E0,8.899999E0,2.0925583E1,6E-1,2.1897945E1,1.5538083E1,3.7E0,-3.431752E0,2.418707E1,1.3094347E0,2.0171E1,2.9891924E1,1.6862455E1,-2.0516481E0,1.224E1,3.214308E-1,-2.1615236E0,-2.7744048E0,1.5990646E1,2.4208498E1,1.4000001E0,-5.2301474E-2,1.0492737E0,3.110819E0,1.5290597E-1,-1.9167076E0,-5.2161636E0,2.3805256E0,-1.1556385E0,1.7533891E0,5.051097E-1,-3.3629415E0,8.793169E-2,-3.1773872E0,-3.3186078E-1,5.1511353E-1,-5.357998E-1,-7.8189987E-1,1.4638991E0,5.158062E0,-1.4105611E0,-6.011234E-1,1.458822E0,-3.2586246E0,-3.0293828E-1,1.4206852E0,-1.6586499E0,1.6340394E0,3.8959498E0,-1.6475154E0,1.6729736E0,2.692051E-2,-2.9209135E0,-2.0028621E-1,-1.7039514E0,-3.6709952E0,6.819279E-1,2.2330627E0,-9.347589E-1,-3.3809853E-1,5.274698E0,-1.8957154E0,2.9366782E-2,-2.1092683E-1,2.9371503E-1,2.558967E0,-6.506941E-2],"split_indices":[3,3,3,3,2,1,3,3,3,2,2,0,0,2,3,3,0,2,0,0,0,2,1,2,2,1,0,0,1,0,1,0,2,3,0,0,2,2,3,0,0,1,0,1,2,0,1,0,2,0,0,2,2,0,2,0,0,0,2,0,1,0,0,0,0,0,0,0,0,0,0,0,0,0,0,0,0,0,0,0,0,0,0,0,0,0,0,0,0,0,0,0,0,0,0,0,0,0,0,0,0,0,0,0,0,0,0],"split_type":[0,0,0,0,0,0,0,0,0,0,0,0,0,0,0,0,0,0,0,0,0,0,0,0,0,0,0,0,0,0,0,0,0,0,0,0,0,0,0,0,0,0,0,0,0,0,0,0,0,0,0,0,0,0,0,0,0,0,0,0,0,0,0,0,0,0,0,0,0,0,0,0,0,0,0,0,0,0,0,0,0,0,0,0,0,0,0,0,0,0,0,0,0,0,0,0,0,0,0,0,0,0,0,0,0,0,0],"sum_hessian":[3.957E3,2.689E3,1.268E3,2.629E3,6E1,4.7E1,1.221E3,1.732E3,8.97E2,2.8E1,3.2E1,3E1,1.7E1,1.5E1,1.206E3,1.639E3,9.3E1,2.47E2,6.5E2,3E0,2.5E1,1.3E1,1.9E1,1.2E1,1.8E1,1.6E1,1E0,1E1,5E0,3.1E1,1.175E3,1.608E3,3.1E1,7E0,8.6E1,1.7E2,7.7E1,3.01E2,3.49E2,1E0,2E0,1.5E1,1E1,5E0,8E0,1E1,9E0,6E0,6E0,2E0,1.6E1,6E0,1E1,1E0,9E0,1E0,4E0,1.6E1,1.5E1,1.018E3,1.57E2,1.579E3,2.9E1,1.3E1,1.8E1,4E0,3E0,7E0,7.9E1,7.8E1,9.2E1,4E0,7.3E1,1E1,2.91E2,3.1E2,3.9E1,1E0,1E0,1.4E1,1E0,4E0,6E0,4E0,1E0,2E0,6E0,6E0,4E0,6E0,3E0,3E0,3E0,3E0,1.3E1,4E0,2E0,3E0,7E0,1E0,8E0,4E0,1.1E1,7.96E2,2.22E2,2.8E1,1.29E2],"tree_param":{"num_deleted":"0","num_feature":"4","num_nodes":"107","size_leaf_vector":"1"}},{"base_weights":[1.5272082E-2,9.0407944E-1,-6.422094E-2,1.127721E0,-5.023214E0,-2.506836E0,-9.937814E-3,-1.6532433E0,1.5051539E0,1.6229599E0,-8.5491705E0,-6.435112E0,1.9009123E0,5.333548E-1,-1.404534E-1,1.226879E0,-7.995748E0,-2.356931E-1,2.0293317E0,-4.758089E0,4.0720735E0,-9.979452E0,2.1942045E-1,4.9012643E-1,-1.0715649E1,3.3400457E0,-4.9495425E0,6.8512053E0,7.0722915E-2,-3.9082348E0,-3.371677E-2,3.2826946E0,-5.115836E0,-1.0275692E1,-2.7486892E0,2.8039303E0,-5.2112474E0,-2.2287047E0,2.7944472E0,-1.949178E0,6.891346E-2,-4.9686136E0,-4.5013103E0,-8.170819E0,1.7730331E1,-9.4243336E-1,-1.194944E1,1.09448E1,1.526395E0,-1.8700857E0,-2.0374844E0,2.675858E0,1.0418476E1,-6.042259E-1,3.2417588E0,3.9174564E0,-4.2931657E0,5.145095E0,-1.10915884E-1,2.0730464E0,-6.965141E-1,-2.6730332E-1,-3.1355798E0,-9.2132574E-1,-3.649614E0,7.334902E-1,-1.3975036E0,2.0662476E-1,6.65915E0,-2.210545E0,8.5442334E-1,5.830201E0,-1.2759607E0,1.915692E0,5.091387E-1,-1.9956497E0,2.6483917E-1,2.6971322E-1,-3.84544E0,2.1249576E0,7.8049216E0,-1.5647603E0,1.7816803E0,-2.7253425E0,-4.6190004E0,3.694908E0,6.130503E-1,-5.0729877E-1,2.1495178E0,-9.4713366E-1,-1.1661187E-1,-6.7928317E-3,6.2020235E0,4.6315937E0,1.379066E0,-3.7343967E-1,5.094632E-1,9.440678E0,5.751582E-1,-2.1607037E0,-3.1240076E-1,5.2819533E0,4.7718444E-1,-4.252821E-1,1.204371E-2],"categories":[],"categories_nodes":[],"categories_segments":[],"categories_sizes":[],"default_left":[0,0,0,0,0,0,0,0,0,0,0,0,0,0,0,0,0,0,0,0,0,0,0,0,0,0,0,0,0,0,0,0,0,0,0,0,0,0,0,0,0,0,0,0,0,0,0,0,0,0,0,0,0,0,0,0,0,0,0,0,0,0,0,0,0,0,0,0,0,0,0,0,0,0,0,0,0,0,0,0,0,0,0,0,0,0,0,0,0,0,0,0,0,0,0,0,0,0,0,0,0,0,0,0,0],"id":15,"left_children":[1,3,5,7,9,11,13,15,17,19,21,23,25,27,29,31,33,35,37,39,-1,41,-1,43,45,47,49,51,53,55,57,59,61,63,65,67,69,71,73,-1,-1,75,-1,77,79,81,83,85,87,89,-1,91,93,95,97,-1,99,101,103,-1,-1,-1,-1,-1,-1,-1,-1,-1,-1,-1,-1,-1,-1,-1,-1,-1,-1,-1,-1,-1,-1,-1,-1,-1,-1,-1,-1,-1,-1,-1,-1,-1,-1,-1,-1,-1,-1,-1,-1,-1,-1,-1,-1,-1,-1],"loss_changes":[2.7970654E2,4.3648117E2,4.818173E2,3.3207144E2,2.950844E2,1.3801057E3,2.5222432E2,7.0396295E2,2.5324457E2,4.458717E2,1.13489685E2,1.250289E3,3.9116302E2,2.0133516E3,1.1532639E3,3.6885892E2,1.1531134E2,9.976597E2,7.001583E2,3.6191048E1,0E0,1.0170233E2,0E0,2.6832517E3,3.022495E2,4.246497E2,2.7007156E1,6.721677E2,1.3781632E3,5.720022E2,1.1160117E3,4.429685E2,1.4849574E2,7.155469E1,6.097998E1,1.6665402E3,4.5563263E2,1.5299082E3,7.024259E2,0E0,0E0,5.512828E1,0E0,5.173299E2,3.4505872E2,1.48605E2,8.728174E1,4.8083496E1,5.0194434E2,6.399109E0,0E0,1.1174956E3,6.596643E2,7.852746E2,4.164593E3,0E0,7.3039246E2,1.788043E3,5.428816E2,0E0,0E0,0E0,0E0,0E0,0E0,0E0,0E0,0E0,0E0,0E0,0E0,0E0,0E0,0E0,0E0,0E0,0E0,0E0,0E0,0E0,0E0,0E0,0E0,0E0,0E0,0E0,0E0,0E0,0E0,0E0,0E0,0E0,0E0,0E0,0E0,0E0,0E0,0E0,0E0,0E0,0E0,0E0,0E0,0E0,0E0],"parents":[2147483647,0,0,1,1,2,2,3,3,4,4,5,5,6,6,7,7,8,8,9,9,10,10,11,11,12,12,13,13,14,14,15,15,16,16,17,17,18,18,19,19,21,21,23,23,24,24,25,25,26,26,27,27,28,28,29,29,30,30,31,31,32,32,33,33,34,34,35,35,36,36,37,37,38,38,41,41,43,43,44,44,45,45,46,46,47,47,48,48,49,49,51,51,52,52,53,53,54,54,56,56,57,57,58,58],"right_children":[2,4,6,8,10,12,14,16,18,20,22,24,26,28,30,32,34,36,38,40,-1,42,-1,44,46,48,50,52,54,56,58,60,62,64,66,68,70,72,74,-1,-1,76,-1,78,80,82,84,86,88,90,-1,92,94,96,98,-1,100,102,104,-1,-1,-1,-1,-1,-1,-1,-1,-1,-1,-1,-1,-1,-1,-1,-1,-1,-1,-1,-1,-1,-1,-1,-1,-1,-1,-1,-1,-1,-1,-1,-1,-1,-1,-1,-1,-1,-1,-1,-1,-1,-1,-1,-1,-1,-1],"split_conditions":[8.209263E0,3.5500085E2,8.647496E0,1.307729E1,4.981833E0,9.31725E0,3.8749973E1,7.4128532E0,5.61725E0,2.8689167E0,1.6725584E1,5.271E0,2.3119333E1,9.290511E0,9.290511E0,1.0459866E1,7.8625183E0,1.9828548E2,6.28713E0,2.5901668E0,4.0720735E0,7.2805495E0,2.1942045E-1,2.560511E2,1.499813E1,8.287822E0,8.287822E0,1.7850403E1,3.49394E1,2.3755834E0,9.605998E0,1.1343917E1,6.830519E0,7.4672885E0,3.4352348E0,7.8459526E1,3.418601E2,1.5986348E1,7.610583E0,-1.949178E0,6.891346E-2,3.585312E2,-4.5013103E0,2.9304152E1,8.435069E0,6.0089045E0,2.4165434E2,2.7341647E2,8.534353E0,2.3350166E1,-2.0374844E0,1E-1,9.2647505E0,2.1317251E1,4.5589166E0,3.9174564E0,1.2273501E1,7.4735E0,5.2940266E1,2.0730464E0,-6.965141E-1,-2.6730332E-1,-3.1355798E0,-9.2132574E-1,-3.649614E0,7.334902E-1,-1.3975036E0,2.0662476E-1,6.65915E0,-2.210545E0,8.5442334E-1,5.830201E0,-1.2759607E0,1.915692E0,5.091387E-1,-1.9956497E0,2.6483917E-1,2.6971322E-1,-3.84544E0,2.1249576E0,7.8049216E0,-1.5647603E0,1.7816803E0,-2.7253425E0,-4.6190004E0,3.694908E0,6.130503E-1,-5.0729877E-1,2.1495178E0,-9.4713366E-1,-1.1661187E-1,-6.7928317E-3,6.2020235E0,4.6315937E0,1.379066E0,-3.7343967E-1,5.094632E-1,9.440678E0,5.751582E-1,-2.1607037E0,-3.1240076E-1,5.2819533E0,4.7718444E-1,-4.252821E-1,1.204371E-2],"split_indices":[2,3,2,3,0,0,3,2,0,0,0,0,0,2,2,3,2,3,2,0,0,2,0,3,3,2,2,3,3,0,2,0,2,2,3,3,3,3,0,0,0,3,0,3,2,3,3,3,2,0,0,1,0,0,0,0,0,0,3,0,0,0,0,0,0,0,0,0,0,0,0,0,0,0,0,0,0,0,0,0,0,0,0,0,0,0,0,0,0,0,0,0,0,0,0,0,0,0,0,0,0,0,0,0,0],"split_type":[0,0,0,0,0,0,0,0,0,0,0,0,0,0,0,0,0,0,0,0,0,0,0,0,0,0,0,0,0,0,0,0,0,0,0,0,0,0,0,0,0,0,0,0,0,0,0,0,0,0,0,0,0,0,0,0,0,0,0,0,0,0,0,0,0,0,0,0,0,0,0,0,0,0,0,0,0,0,0,0,0,0,0,0,0,0,0,0,0,0,0,0,0,0,0,0,0,0,0,0,0,0,0,0,0],"sum_hessian":[3.957E3,3.24E2,3.633E3,3.13E2,1.1E1,7.8E1,3.555E3,3.7E1,2.76E2,4E0,7E0,4.1E1,3.7E1,6.88E2,2.867E3,2.6E1,1.1E1,6.4E1,2.12E2,3E0,1E0,6E0,1E0,1.6E1,2.5E1,3.1E1,6E0,4.6E1,6.42E2,7.8E1,2.789E3,2E1,6E0,7E0,4E0,4E1,2.4E1,3.2E1,1.8E2,2E0,1E0,4E0,2E0,1.1E1,5E0,3E0,2.2E1,5E0,2.6E1,3E0,3E0,2.2E1,2.4E1,5.3E2,1.12E2,1E0,7.7E1,4E1,2.749E3,1.2E1,8E0,4E0,2E0,2E0,5E0,1E0,3E0,3.7E1,3E0,1.9E1,5E0,2E0,3E1,4.1E1,1.39E2,3E0,1E0,4E0,7E0,3E0,2E0,2E0,1E0,1.4E1,8E0,4E0,1E0,1.7E1,9E0,1E0,2E0,2E1,2E0,1.2E1,1.2E1,4.15E2,1.15E2,4E0,1.08E2,4E1,3.7E1,8E0,3.2E1,2.84E2,2.465E3],"tree_param":{"num_deleted":"0","num_feature":"4","num_nodes":"105","size_leaf_vector":"1"}},{"base_weights":[1.8934898E-2,-1.9645713E-2,1.5879512E0,6.3466467E-3,-5.9019375E0,9.0642846E-1,1.0026176E1,1.060364E0,-5.356218E-2,-7.433334E0,1.1167077E0,5.526108E0,4.35082E-2,4.7940764E0,4.448495E0,3.9147946E-1,5.322466E0,2.5643107E-2,-1.2341442E0,3.595425E-1,-8.135497E0,2.1469283E0,4.0311975E0,2.3785284E0,-3.0711703E0,3.075483E0,-2.837452E0,9.6939874E-1,-3.6464884E0,1.703109E1,2.6613996E0,-2.4054619E-2,2.8520825E0,-3.7694182E0,-3.117426E-1,-3.459346E0,-2.898007E0,-1.969681E0,3.6747417E0,-2.419204E0,5.7930818E0,-6.3341784E0,2.4360871E0,-1.1015625E-1,-1.1666971E0,-1.6435131E-1,7.531944E-1,5.768705E0,1.2359087E0,-2.70879E0,1.4284399E0,5.5338796E-3,-1.3318231E0,3.1859405E0,5.3170335E-1,1.9228624E-1,-1.9367164E0,-8.5006136E-1,1.8788286E-1,-1.918456E0,1.8878289E-1,2.282072E0,5.222511E-1,7.082111E-1,-3.2851727E0,2.5326958E0,-1.3334284E0,-2.3229723E0,-7.229633E-1,-1.492744E0,1.5471716E0],"categories":[],"categories_nodes":[],"categories_segments":[],"categories_sizes":[],"default_left":[0,0,0,0,0,0,0,0,0,0,0,0,0,0,0,0,0,0,0,0,0,0,0,0,0,0,0,0,0,0,0,0,0,0,0,0,0,0,0,0,0,0,0,0,0,0,0,0,0,0,0,0,0,0,0,0,0,0,0,0,0,0,0,0,0,0,0,0,0,0,0],"id":16,"left_children":[1,3,5,7,9,11,13,15,17,19,-1,21,23,-1,25,27,29,31,33,-1,35,37,-1,39,41,-1,43,45,-1,47,49,51,53,55,57,59,-1,-1,61,63,65,67,69,-1,-1,-1,-1,-1,-1,-1,-1,-1,-1,-1,-1,-1,-1,-1,-1,-1,-1,-1,-1,-1,-1,-1,-1,-1,-1,-1,-1],"loss_changes":[2.3962323E2,5.908223E2,5.3724207E2,2.4303853E2,2.78226E2,3.5455048E2,1.6138153E2,5.880431E2,3.40589E2,1.00664246E2,0E0,3.4541898E2,5.6004047E2,0E0,2.4049442E2,1.3169324E3,8.270815E2,4.7962503E2,5.343507E2,0E0,6.638745E1,1.7054926E2,0E0,7.3482764E2,6.084481E2,0E0,6.364744E0,4.0592535E2,0E0,6.2673584E1,6.3222253E2,6.298572E2,4.7601697E2,7.2684125E2,4.0154257E2,6.403502E1,0E0,0E0,6.280194E1,8.006553E2,7.427083E2,9.746094E1,2.8785715E2,0E0,0E0,0E0,0E0,0E0,0E0,0E0,0E0,0E0,0E0,0E0,0E0,0E0,0E0,0E0,0E0,0E0,0E0,0E0,0E0,0E0,0E0,0E0,0E0,0E0,0E0,0E0,0E0],"parents":[2147483647,0,0,1,1,2,2,3,3,4,4,5,5,6,6,7,7,8,8,9,9,11,11,12,12,14,14,15,15,16,16,17,17,18,18,20,20,21,21,23,23,24,24,26,26,27,27,29,29,30,30,31,31,32,32,33,33,34,34,35,35,38,38,39,39,40,40,41,41,42,42],"right_children":[2,4,6,8,10,12,14,16,18,20,-1,22,24,-1,26,28,30,32,34,-1,36,38,-1,40,42,-1,44,46,-1,48,50,52,54,56,58,60,-1,-1,62,64,66,68,70,-1,-1,-1,-1,-1,-1,-1,-1,-1,-1,-1,-1,-1,-1,-1,-1,-1,-1,-1,-1,-1,-1,-1,-1,-1,-1,-1,-1],"split_conditions":[3.498244E2,3.4793683E2,2.130093E1,7.6367526E0,2.1897945E1,3.5155695E2,8.879749E0,3.2186444E2,3.062094E2,7.146416E0,1.1167077E0,1.4529915E1,1.1681987E1,4.7940764E0,3.5155695E2,3.062094E2,3.2519147E2,2.9775845E2,1.0703569E1,3.595425E-1,7.8625183E0,5.4985003E0,4.0311975E0,7.8625183E0,1.7598082E1,3.075483E0,1.7056833E1,3.9437283E1,-3.6464884E0,1E-1,6.28713E0,2.9503326E2,9.290511E0,6.870999E0,3.1606305E2,6.489992E0,-2.898007E0,-1.969681E0,6.638072E0,8.958917E0,1E-1,9.610999E0,3.532903E2,-1.1015625E-1,-1.1666971E0,-1.6435131E-1,7.531944E-1,5.768705E0,1.2359087E0,-2.70879E0,1.4284399E0,5.5338796E-3,-1.3318231E0,3.1859405E0,5.3170335E-1,1.9228624E-1,-1.9367164E0,-8.5006136E-1,1.8788286E-1,-1.918456E0,1.8878289E-1,2.282072E0,5.222511E-1,7.082111E-1,-3.2851727E0,2.5326958E0,-1.3334284E0,-2.3229723E0,-7.229633E-1,-1.492744E0,1.5471716E0],"split_indices":[3,3,2,2,2,3,0,3,3,0,0,2,2,0,3,3,3,3,2,0,2,0,0,2,0,0,0,3,0,1,2,3,2,0,3,2,0,0,2,0,1,0,3,0,0,0,0,0,0,0,0,0,0,0,0,0,0,0,0,0,0,0,0,0,0,0,0,0,0,0,0],"split_type":[0,0,0,0,0,0,0,0,0,0,0,0,0,0,0,0,0,0,0,0,0,0,0,0,0,0,0,0,0,0,0,0,0,0,0,0,0,0,0,0,0,0,0,0,0,0,0,0,0,0,0,0,0,0,0,0,0,0,0,0,0,0,0,0,0,0,0,0,0,0,0],"sum_hessian":[3.957E3,3.863E3,9.4E1,3.847E3,1.6E1,8.8E1,6E0,2.06E2,3.641E3,1.4E1,2E0,1.3E1,7.5E1,2E0,4E0,1.79E2,2.7E1,3.413E3,2.28E2,1E0,1.3E1,1E1,3E0,4.3E1,3.2E1,2E0,2E0,1.72E2,7E0,4E0,2.3E1,3.355E3,5.8E1,6E1,1.68E2,4E0,9E0,1E0,9E0,1.8E1,2.5E1,2E1,1.2E1,1E0,1E0,8.7E1,8.5E1,3E0,1E0,3E0,2E1,3.324E3,3.1E1,6E0,5.2E1,2.3E1,3.7E1,4.5E1,1.23E2,2E0,2E0,2E0,7E0,1.2E1,6E0,2E1,5E0,1.4E1,6E0,3E0,9E0],"tree_param":{"num_deleted":"0","num_feature":"4","num_nodes":"71","size_leaf_vector":"1"}},{"base_weights":[1.49185425E-2,1.0013144E-2,2.913837E0,2.8997498E-2,-2.181299E0,1.9831786E-2,6.0109024E0,-2.8900306E0,1.8316815E0,3.1893916E0,6.8367063E-3,8.081297E0,-6.5116084E-1,-4.4655356E0,2.3946757E0,8.482036E0,-8.3439845E-1,-2.5722985E0,3.8255192E-2,3.0814867E0,9.591622E-1,-1.5091729E0,-7.0783954E0,2.409174E0,-8.2238895E-1,4.090748E0,-8.804882E-1,-1.8750542E0,3.902459E-1,-1.5659132E0,2.0201507E-1,6.928341E-1,2.8917668E-3,1.1346143E-1,-1.7550972E0,-2.3987396E0,-4.0653574E-1,2.6324844E-1,-8.4443134E-1],"categories":[],"categories_nodes":[],"categories_segments":[],"categories_sizes":[],"default_left":[0,0,0,0,0,0,0,0,0,0,0,0,0,0,0,0,0,0,0,0,0,0,0,0,0,0,0,0,0,0,0,0,0,0,0,0,0,0,0],"id":17,"left_children":[1,3,-1,5,7,9,11,13,-1,15,17,19,-1,21,23,25,27,29,31,-1,-1,33,35,-1,37,-1,-1,-1,-1,-1,-1,-1,-1,-1,-1,-1,-1,-1,-1],"loss_changes":[1.881924E2,1.64677E2,0E0,2.1502751E2,2.173339E2,1.6139664E2,1.191736E2,2.771281E2,0E0,3.478212E2,3.1644937E2,2.0648224E1,0E0,1.8243152E2,1.516528E2,4.5190634E2,1.2376912E2,4.0736972E2,2.5071823E2,0E0,0E0,1.0872671E2,5.7421875E1,0E0,2.2790854E1,0E0,0E0,0E0,0E0,0E0,0E0,0E0,0E0,0E0,0E0,0E0,0E0,0E0,0E0],"parents":[2147483647,0,0,1,1,3,3,4,4,5,5,6,6,7,7,9,9,10,10,11,11,13,13,14,14,15,15,16,16,17,17,18,18,21,21,22,22,24,24],"right_children":[2,4,-1,6,8,10,12,14,-1,16,18,20,-1,22,24,26,28,30,32,-1,-1,34,36,-1,38,-1,-1,-1,-1,-1,-1,-1,-1,-1,-1,-1,-1,-1,-1],"split_conditions":[8.059999E1,2.0700003E1,2.913837E0,2.02E1,1.909225E1,4.5433316E-1,2.3165585E2,2.8165257E1,1.8316815E0,1.872296E1,2.0089169E0,8.440167E0,-6.5116084E-1,9.285318E1,3.1491255E1,1.44E1,2.9304152E1,4.6176792E1,2.8689167E0,3.0814867E0,9.591622E-1,2.0948164E1,2.96E1,2.409174E0,2.1542392E2,4.090748E0,-8.804882E-1,-1.8750542E0,3.902459E-1,-1.5659132E0,2.0201507E-1,6.928341E-1,2.8917668E-3,1.1346143E-1,-1.7550972E0,-2.3987396E0,-4.0653574E-1,2.6324844E-1,-8.4443134E-1],"split_indices":[1,1,0,1,0,0,3,2,0,3,0,0,0,3,2,2,3,3,0,0,0,2,1,0,3,0,0,0,0,0,0,0,0,0,0,0,0,0,0],"split_type":[0,0,0,0,0,0,0,0,0,0,0,0,0,0,0,0,0,0,0,0,0,0,0,0,0,0,0,0,0,0,0,0,0,0,0,0,0,0,0],"sum_hessian":[3.957E3,3.956E3,1E0,3.923E3,3.3E1,3.918E3,5E0,3.1E1,2E0,1.5E1,3.903E3,4E0,1E0,2.4E1,7E0,6E0,9E0,4.6E1,3.857E3,2E0,2E0,1.2E1,1.2E1,2E0,5E0,4E0,2E0,2E0,7E0,2.5E1,2.1E1,4.7E1,3.81E3,9E0,3E0,1E1,2E0,3E0,2E0],"tree_param":{"num_deleted":"0","num_feature":"4","num_nodes":"39","size_leaf_vector":"1"}},{"base_weights":[1.2103982E-2,-5.445644E-1,8.348861E-2,-3.4579942E-1,-4.3957286E0,4.6244345E0,4.3002035E-2,-5.4699403E-1,5.243638E0,-6.0835648E0,1.1190943E0,1.0165722E1,-3.8300965E0,-3.2893515E0,7.391628E-2,7.620223E0,-6.2495977E-1,8.083806E0,-2.0534596E0,-2.7331405E0,-8.155547E0,2.2712464E0,-2.3704205E-1,1.3386103E1,9.572131E-1,4.3905106E-1,-4.0636325E0,9.102542E-1,-8.109589E0,4.0672638E-2,2.531616E0,2.5298846E-1,4.1926513E0,-1.3985206E0,2.0200732E-1,4.2452645E0,4.1219816E0,1.4074929E0,-1.4737937E0,