{"learner":{"attributes":{"scikit_learn":"{\"_estimator_type\": \"regressor\"}"},"feature_names":["pm25_lag1","pm25_lag2","pm25_lag3","pm25_roll3","is_weekend","temperature_2m_mean","precipitation_sum","wind_speed_10m_max","wind_direction_10m_dominant"],"feature_types":["float","float","float","float","int","float","float","float","float"],"gradient_booster":{"model":{"gbtree_model_param":{"num_parallel_tree":"1","num_trees":"100"},"iteration_indptr":[0,1,2,3,4,5,6,7,8,9,10,11,12,13,14,15,16,17,18,19,20,21,22,23,24,25,26,27,28,29,30,31,32,33,34,35,36,37,38,39,40,41,42,43,44,45,46,47,48,49,50,51,52,53,54,55,56,57,58,59,60,61,62,63,64,65,66,67,68,69,70,71,72,73,74,75,76,77,78,79,80,81,82,83,84,85,86,87,88,89,90,91,92,93,94,95,96,97,98,99,100],"tree_info":[0,0,0,0,0,0,0,0,0,0,0,0,0,0,0,0,0,0,0,0,0,0,0,0,0,0,0,0,0,0,0,0,0,0,0,0,0,0,0,0,0,0,0,0,0,0,0,0,0,0,0,0,0,0,0,0,0,0,0,0,0,0,0,0,0,0,0,0,0,0,0,0,0,0,0,0,0,0,0,0,0,0,0,0,0,0,0,0,0,0,0,0,0,0,0,0,0,0,0,0],"trees":[{"base_weights":[5.513841E-7,-8.605911E0,1.6635563E1,-1.5540129E1,-3.1122286E0,1.1007573E1,3.1932043E1,-1.9202671E1,-1.2095493E1,7.8344893E-1,-7.0570755E0,1.828365E1,7.8254657E0,2.7845942E1,4.614071E1,-2.1690891E1,-1.675158E1,-7.2993064E0,-1.6038542E1,-2.4228394E0,7.258262E0,-1.1514826E1,-2.7481189E0,1.4085448E1,2.5802937E1,4.422121E0,1.4454032E1,3.579531E1,2.0701748E1,4.7314632E1,7.153626E-2,-7.1562376E0,-2.0011E1,-8.247246E0,-1.7749186E1,-3.424245E0,-9.973733E0,-1.4492561E1,-1.9863598E1,2.3127475E0,-5.256376E0,1.4204396E1,5.537693E0,-9.094251E0,-1.4887979E1,-4.1398326E-1,-1.31769905E1,1.9461805E1,1.0047526E1,3.0218386E1,1.9746063E1,6.9019427E0,-6.5994678E0,1.7429924E1,5.6796865E0,3.23263E1,1.4332045E1,1.7659925E1,2.7393383E1,4.425689E1,2.2989422E1,-5.2695084E0,-6.5377216E0,-1.6021186E0,-3.9933598E0,-4.7602096E0,-6.2960725E0,-1.6438879E0,1.3278334E0,-1.5586187E0,-3.3636193E0,-3.8818965E0,-5.3475904E0,-1.0284637E0,-6.0572214E0,1.6122812E0,-3.4732407E-1,-1.2162304E0,-3.7882144E0,5.6710124E0,2.6153336E0,7.97711E-1,2.6082907E0,-1.9910201E0,-3.5742142E0,-5.231153E0,-3.3515418E0,5.5052626E-1,-1.7169517E0,-2.1930132E0,-4.7472024E0,4.5922556E0,7.263864E0,3.4149265E0,-1.0479051E0,1.1649641E1,8.102894E0,2.3658435E0,6.193502E0,7.884258E-1,2.9467335E0,-2.6525064E0,4.9639365E-1,5.8743777E0,1.9137276E0,2.5847063E0,-1.7471038E0,1.3289597E1,8.611925E0,6.2236676E0,2.6837277E0,8.559411E0,4.7153625E-1,1.4958214E1,9.858887E0],"categories":[],"categories_nodes":[],"categories_segments":[],"categories_sizes":[],"default_left":[0,0,0,0,0,0,0,0,0,0,0,0,0,0,0,0,0,0,0,0,0,0,0,0,0,0,0,0,0,0,0,0,0,0,0,0,0,0,0,0,0,0,0,0,0,0,0,0,0,0,0,0,0,0,0,0,0,0,0,0,0,0,0,0,0,0,0,0,0,0,0,0,0,0,0,0,0,0,0,0,0,0,0,0,0,0,0,0,0,0,0,0,0,0,0,0,0,0,0,0,0,0,0,0,0,0,0,0,0,0,0,0,0,0,0],"id":0,"left_children":[1,3,5,7,9,11,13,15,17,19,21,23,25,27,29,31,33,35,37,39,41,43,45,47,49,51,53,55,57,59,-1,-1,61,63,65,67,69,71,73,75,77,79,81,83,85,87,89,91,93,95,97,99,101,103,105,107,-1,109,111,113,-1,-1,-1,-1,-1,-1,-1,-1,-1,-1,-1,-1,-1,-1,-1,-1,-1,-1,-1,-1,-1,-1,-1,-1,-1,-1,-1,-1,-1,-1,-1,-1,-1,-1,-1,-1,-1,-1,-1,-1,-1,-1,-1,-1,-1,-1,-1,-1,-1,-1,-1,-1,-1,-1,-1],"loss_changes":[5.7065244E5,1.0002561E5,1.1664272E5,1.4415031E4,2.2550168E4,2.2894422E4,1.9906375E4,3.0581094E3,1.1248805E4,1.53593125E4,1.3971176E4,9.16993E3,1.559223E4,1.55014375E4,4.2995625E3,5.220156E2,2.2885234E3,2.7951016E3,1.6576562E3,6.654293E3,2.8494102E3,2.7876602E3,9.049918E3,4.0594805E3,2.2648984E3,1.2618074E4,6.037207E3,4.0236719E3,2.6305156E3,3.6007031E3,0E0,0E0,3.1873828E2,3.99958E2,1.22675E3,1.8475623E3,8.944121E2,1.00109766E3,4.254336E2,1.9824719E3,2.6960186E3,1.0727158E3,1.7760664E3,1.3830957E3,1.2072344E3,3.6524287E3,9.403594E2,1.2675605E3,2.1013633E3,6.095117E2,3.489375E2,4.6673457E3,1.58777E3,4.0355508E3,2.1103828E3,3.3655625E3,0E0,2.7183984E3,1.3068438E3,3.0224531E3,0E0,0E0,0E0,0E0,0E0,0E0,0E0,0E0,0E0,0E0,0E0,0E0,0E0,0E0,0E0,0E0,0E0,0E0,0E0,0E0,0E0,0E0,0E0,0E0,0E0,0E0,0E0,0E0,0E0,0E0,0E0,0E0,0E0,0E0,0E0,0E0,0E0,0E0,0E0,0E0,0E0,0E0,0E0,0E0,0E0,0E0,0E0,0E0,0E0,0E0,0E0,0E0,0E0,0E0,0E0],"parents":[2147483647,0,0,1,1,2,2,3,3,4,4,5,5,6,6,7,7,8,8,9,9,10,10,11,11,12,12,13,13,14,14,15,15,16,16,17,17,18,18,19,19,20,20,21,21,22,22,23,23,24,24,25,25,26,26,27,27,28,28,29,29,32,32,33,33,34,34,35,35,36,36,37,37,38,38,39,39,40,40,41,41,42,42,43,43,44,44,45,45,46,46,47,47,48,48,49,49,50,50,51,51,52,52,53,53,54,54,55,55,57,57,58,58,59,59],"right_children":[2,4,6,8,10,12,14,16,18,20,22,24,26,28,30,32,34,36,38,40,42,44,46,48,50,52,54,56,58,60,-1,-1,62,64,66,68,70,72,74,76,78,80,82,84,86,88,90,92,94,96,98,100,102,104,106,108,-1,110,112,114,-1,-1,-1,-1,-1,-1,-1,-1,-1,-1,-1,-1,-1,-1,-1,-1,-1,-1,-1,-1,-1,-1,-1,-1,-1,-1,-1,-1,-1,-1,-1,-1,-1,-1,-1,-1,-1,-1,-1,-1,-1,-1,-1,-1,-1,-1,-1,-1,-1,-1,-1,-1,-1,-1,-1],"split_conditions":[4.4333332E1,3E1,6.1E1,2.4E1,3.7E1,4.5E1,7.8333336E1,2.0333334E1,2.6E1,3.7E1,3.8333332E1,4.9666668E1,5.4666668E1,6.4E1,1.57E2,1.7666666E1,1.6E1,2.6E1,3.7E1,2.7E1,2.7E1,4.4E1,5.3E1,4.7E1,4.1E1,6.2E1,6.5E1,6.9666664E1,7.2666664E1,1.17E2,7.153626E-2,-7.1562376E0,1.9E1,2.2E1,2.5E1,2.7666666E1,1.8E1,2.9E1,1.1E1,3.4E1,4.1E1,4.2E1,4E1,3.5E1,3.5666668E1,4.5E1,3.5E1,4.6666668E1,6.2E1,3E1,5.0333332E1,4.8333332E1,2.3708916E1,6.7E1,6.5E1,5.9E1,1.4332045E1,7.9E1,9.9E1,8.7E1,2.2989422E1,-5.2695084E0,-6.5377216E0,-1.6021186E0,-3.9933598E0,-4.7602096E0,-6.2960725E0,-1.6438879E0,1.3278334E0,-1.5586187E0,-3.3636193E0,-3.8818965E0,-5.3475904E0,-1.0284637E0,-6.0572214E0,1.6122812E0,-3.4732407E-1,-1.2162304E0,-3.7882144E0,5.6710124E0,2.6153336E0,7.97711E-1,2.6082907E0,-1.9910201E0,-3.5742142E0,-5.231153E0,-3.3515418E0,5.5052626E-1,-1.7169517E0,-2.1930132E0,-4.7472024E0,4.5922556E0,7.263864E0,3.4149265E0,-1.0479051E0,1.1649641E1,8.102894E0,2.3658435E0,6.193502E0,7.884258E-1,2.9467335E0,-2.6525064E0,4.9639365E-1,5.8743777E0,1.9137276E0,2.5847063E0,-1.7471038E0,1.3289597E1,8.611925E0,6.2236676E0,2.6837277E0,8.559411E0,4.7153625E-1,1.4958214E1,9.858887E0],"split_indices":[3,3,3,3,1,1,3,3,1,3,3,3,3,1,0,3,1,0,1,1,1,1,1,0,1,1,1,3,3,3,0,0,1,0,1,3,1,0,0,0,0,0,3,0,3,0,0,3,0,1,3,3,5,0,0,0,0,1,1,1,0,0,0,0,0,0,0,0,0,0,0,0,0,0,0,0,0,0,0,0,0,0,0,0,0,0,0,0,0,0,0,0,0,0,0,0,0,0,0,0,0,0,0,0,0,0,0,0,0,0,0,0,0,0,0],"split_type":[0,0,0,0,0,0,0,0,0,0,0,0,0,0,0,0,0,0,0,0,0,0,0,0,0,0,0,0,0,0,0,0,0,0,0,0,0,0,0,0,0,0,0,0,0,0,0,0,0,0,0,0,0,0,0,0,0,0,0,0,0,0,0,0,0,0,0,0,0,0,0,0,0,0,0,0,0,0,0,0,0,0,0,0,0,0,0,0,0,0,0,0,0,0,0,0,0,0,0,0,0,0,0,0,0,0,0,0,0,0,0,0,0,0,0],"sum_hessian":[3.984E3,2.626E3,1.358E3,1.16E3,1.466E3,9.94E2,3.64E2,5.6E2,6E2,7.38E2,7.28E2,3.01E2,6.93E2,2.85E2,7.9E1,2.74E2,2.86E2,2.72E2,3.28E2,4.94E2,2.44E2,3.57E2,3.71E2,1.95E2,1.06E2,4.59E2,2.34E2,1.33E2,1.52E2,7.7E1,2E0,1.14E2,1.6E2,3.1E1,2.55E2,1.12E2,1.6E2,2.37E2,9.1E1,1.85E2,3.09E2,4.7E1,1.97E2,2.1E2,1.47E2,3.04E2,6.7E1,8.2E1,1.13E2,5.9E1,4.7E1,3.75E2,8.4E1,1.74E2,6E1,1.06E2,2.7E1,1.07E2,4.5E1,7.2E1,5E0,7.2E1,8.8E1,2.1E1,1E1,1.65E2,9E1,8.9E1,2.3E1,3.4E1,1.26E2,1.65E2,7.2E1,2E0,8.9E1,9.8E1,8.7E1,2.67E2,4.2E1,2.4E1,2.3E1,1.04E2,9.3E1,1.14E2,9.6E1,8.5E1,6.2E1,2.14E2,9E1,2.2E1,4.5E1,4.6E1,3.6E1,1.03E2,1E1,1.3E1,4.6E1,4E0,4.3E1,1.53E2,2.22E2,6.6E1,1.8E1,1.45E2,2.9E1,4.8E1,1.2E1,2.2E1,8.4E1,7.8E1,2.9E1,4.3E1,2E0,4.6E1,2.6E1],"tree_param":{"num_deleted":"0","num_feature":"9","num_nodes":"115","size_leaf_vector":"1"}},{"base_weights":[2.0909091E-2,-6.757902E0,1.0640888E1,-1.2191001E1,-3.731333E0,6.950893E0,2.2632019E1,-1.5102073E1,-1.0678923E1,-1.8407961E0,-8.451443E0,1.2962802E1,5.2460747E0,1.9474028E1,3.2499237E1,-1.864595E1,-1.4372498E1,-8.098329E0,-1.33780575E1,-4.547938E0,2.7913659E0,-1.280616E1,-6.814218E0,8.194762E0,1.8451223E1,1.6338589E0,8.870365E0,2.7326931E1,1.5205144E1,2.9470467E1,5.2873714E1,-2.197216E0,-5.695917E0,-1.3134517E1,-5.0470657E0,-9.188422E0,-3.730288E0,-1.1979347E1,-1.5738353E1,-2.1020653E0,-8.196355E0,3.972469E0,-3.7114077E0,-2.4681785E0,-1.3230485E1,-5.232527E0,-1.1255828E1,1.1372684E1,3.256237E0,1.5733111E1,2.551931E1,3.6219819E0,-4.9109287E0,1.2583305E1,4.4533772E0,2.9177185E1,1.02088375E1,1.6148205E1,2.6676104E0,3.9636436E1,2.3625242E1,1.7765234E1,5.4997587E0,-3.4977813E0,-4.4417257E0,-1.921415E0,-3.3214154E0,-4.7233266E-1,-2.5238934E0,-4.335096E0,-3.2503116E0,-4.816731E0,-3.0124233E0,-1.2689002E-1,-1.7563134E0,-1.6725572E0,-3.1957593E0,2.4102798E0,5.6157756E-1,1.843466E0,-1.5088905E0,-9.2387426E-1,8.8324934E-2,-3.520769E0,-4.8677387E0,-1.195254E0,-3.8367023E0,-4.367499E0,-2.3990262E0,4.491032E0,2.753451E0,1.4459727E0,-2.5804214E0,4.9378204E0,2.8292771E-2,1.2500316E1,6.723591E0,1.5018384E0,-9.20083E-1,1.0722581E0,-2.2046332E0,3.0509675E0,4.9518094E0,1.7045118E0,-1.782214E0,1.0458326E1,7.0059743E0,-1.1072044E0,4.7647476E0,5.1696825E0,8.513084E-1,2.7737367E0,-1.5694187E0,1.25326185E1,2.5798936E0,7.720489E0,9.4846725E-1],"categories":[],"categories_nodes":[],"categories_segments":[],"categories_sizes":[],"default_left":[0,0,0,0,0,0,0,0,0,0,0,0,0,0,0,0,0,0,0,0,0,0,0,0,0,0,0,0,0,0,0,0,0,0,0,0,0,0,0,0,0,0,0,0,0,0,0,0,0,0,0,0,0,0,0,0,0,0,0,0,0,0,0,0,0,0,0,0,0,0,0,0,0,0,0,0,0,0,0,0,0,0,0,0,0,0,0,0,0,0,0,0,0,0,0,0,0,0,0,0,0,0,0,0,0,0,0,0,0,0,0,0,0,0,0,0,0],"id":1,"left_children":[1,3,5,7,9,11,13,15,17,19,21,23,25,27,29,31,33,35,37,39,41,43,45,47,49,51,53,55,57,59,61,-1,-1,63,-1,65,67,69,71,73,75,77,79,81,83,85,87,89,91,93,95,97,99,101,103,105,107,109,111,113,115,-1,-1,-1,-1,-1,-1,-1,-1,-1,-1,-1,-1,-1,-1,-1,-1,-1,-1,-1,-1,-1,-1,-1,-1,-1,-1,-1,-1,-1,-1,-1,-1,-1,-1,-1,-1,-1,-1,-1,-1,-1,-1,-1,-1,-1,-1,-1,-1,-1,-1,-1,-1,-1,-1,-1,-1],"loss_changes":[2.8695538E5,3.9961914E4,6.855861E4,3.6682656E3,1.3940861E4,1.2118309E4,1.0740719E4,4.9475E2,3.903711E3,1.4032324E4,3.0996855E3,6.705074E3,1.2134623E4,8.937453E3,3.8105234E3,4.209961E1,5.3458594E2,1.3799121E3,7.3585156E2,6.2828076E3,3.186768E3,4.981328E2,2.2383643E3,2.1915498E3,1.9231367E3,6.081305E3,7.537164E3,2.7743906E3,2.1206523E3,3.6985234E3,1.1055918E3,0E0,0E0,2.4650781E2,0E0,1.1713535E3,6.0255884E2,3.526953E2,2.1414062E1,2.6689373E3,1.7625742E3,2.9711543E3,8.62448E2,1.1041019E1,3.2887695E2,2.241292E3,7.9844336E2,5.4153613E2,1.098321E3,1.02069336E3,6.718613E2,3.329878E3,2.2809795E3,2.2083945E3,2.7532007E3,2.0658203E3,9.26089E2,2.4041172E3,7.758233E2,1.4331797E3,2.1636152E3,0E0,0E0,0E0,0E0,0E0,0E0,0E0,0E0,0E0,0E0,0E0,0E0,0E0,0E0,0E0,0E0,0E0,0E0,0E0,0E0,0E0,0E0,0E0,0E0,0E0,0E0,0E0,0E0,0E0,0E0,0E0,0E0,0E0,0E0,0E0,0E0,0E0,0E0,0E0,0E0,0E0,0E0,0E0,0E0,0E0,0E0,0E0,0E0,0E0,0E0,0E0,0E0,0E0,0E0,0E0,0E0],"parents":[2147483647,0,0,1,1,2,2,3,3,4,4,5,5,6,6,7,7,8,8,9,9,10,10,11,11,12,12,13,13,14,14,15,15,16,16,17,17,18,18,19,19,20,20,21,21,22,22,23,23,24,24,25,25,26,26,27,27,28,28,29,29,30,30,33,33,35,35,36,36,37,37,38,38,39,39,40,40,41,41,42,42,43,43,44,44,45,45,46,46,47,47,48,48,49,49,50,50,51,51,52,52,53,53,54,54,55,55,56,56,57,57,58,58,59,59,60,60],"right_children":[2,4,6,8,10,12,14,16,18,20,22,24,26,28,30,32,34,36,38,40,42,44,46,48,50,52,54,56,58,60,62,-1,-1,64,-1,66,68,70,72,74,76,78,80,82,84,86,88,90,92,94,96,98,100,102,104,106,108,110,112,114,116,-1,-1,-1,-1,-1,-1,-1,-1,-1,-1,-1,-1,-1,-1,-1,-1,-1,-1,-1,-1,-1,-1,-1,-1,-1,-1,-1,-1,-1,-1,-1,-1,-1,-1,-1,-1,-1,-1,-1,-1,-1,-1,-1,-1,-1,-1,-1,-1,-1,-1,-1,-1,-1,-1,-1,-1],"split_conditions":[4.2E1,2.7333334E1,6.1E1,2.0666666E1,4E1,4.1E1,7.7E1,1.5333333E1,2.4E1,3.5E1,3.4E1,4.6666668E1,5.0333332E1,6E1,9.6333336E1,7.8625183E0,2.1E1,2.5666666E1,3.1E1,3.1E1,4.6E1,1.4E1,4.1E1,4.8E1,5.3E1,5.5E1,5.7E1,8.5E1,9E1,7.3E1,1.26E2,-2.197216E0,-5.695917E0,1.9E1,-5.0470657E0,2.2E1,2.8E1,2.3E1,2.7E1,3.5E1,3E1,3.1E1,2.3E1,4.4E1,3E1,5.9E1,4E1,4.2E1,6.5E1,6.2E1,5E1,5.2E1,3.7E1,5.5666668E1,7.9E1,5.4E1,6.5333336E1,8.8E1,6.6E1,1.31E2,1.09E2,1.7765234E1,5.4997587E0,-3.4977813E0,-4.4417257E0,-1.921415E0,-3.3214154E0,-4.7233266E-1,-2.5238934E0,-4.335096E0,-3.2503116E0,-4.816731E0,-3.0124233E0,-1.2689002E-1,-1.7563134E0,-1.6725572E0,-3.1957593E0,2.4102798E0,5.6157756E-1,1.843466E0,-1.5088905E0,-9.2387426E-1,8.8324934E-2,-3.520769E0,-4.8677387E0,-1.195254E0,-3.8367023E0,-4.367499E0,-2.3990262E0,4.491032E0,2.753451E0,1.4459727E0,-2.5804214E0,4.9378204E0,2.8292771E-2,1.2500316E1,6.723591E0,1.5018384E0,-9.20083E-1,1.0722581E0,-2.2046332E0,3.0509675E0,4.9518094E0,1.7045118E0,-1.782214E0,1.0458326E1,7.0059743E0,-1.1072044E0,4.7647476E0,5.1696825E0,8.513084E-1,2.7737367E0,-1.5694187E0,1.25326185E1,2.5798936E0,7.720489E0,9.4846725E-1],"split_indices":[3,3,3,3,1,1,3,3,1,3,3,3,3,1,3,7,1,3,1,1,0,0,0,0,3,1,1,0,1,1,1,0,0,0,0,0,0,3,3,0,0,1,1,1,0,1,3,0,0,0,0,0,0,3,1,1,3,0,0,0,0,0,0,0,0,0,0,0,0,0,0,0,0,0,0,0,0,0,0,0,0,0,0,0,0,0,0,0,0,0,0,0,0,0,0,0,0,0,0,0,0,0,0,0,0,0,0,0,0,0,0,0,0,0,0,0,0],"split_type":[0,0,0,0,0,0,0,0,0,0,0,0,0,0,0,0,0,0,0,0,0,0,0,0,0,0,0,0,0,0,0,0,0,0,0,0,0,0,0,0,0,0,0,0,0,0,0,0,0,0,0,0,0,0,0,0,0,0,0,0,0,0,0,0,0,0,0,0,0,0,0,0,0,0,0,0,0,0,0,0,0,0,0,0,0,0,0,0,0,0,0,0,0,0,0,0,0,0,0,0,0,0,0,0,0,0,0,0,0,0,0,0,0,0,0,0,0],"sum_hessian":[3.984E3,2.432E3,1.552E3,8.69E2,1.563E3,1.188E3,3.64E2,2.94E2,5.75E2,1.117E3,4.46E2,2.61E2,9.27E2,2.78E2,8.6E1,4.6E1,2.48E2,2.96E2,2.79E2,7.05E2,4.12E2,1.2E2,3.26E2,1.41E2,1.2E2,4.65E2,4.62E2,9.6E1,1.82E2,7.7E1,9E0,2E0,4.4E1,1.69E2,7.9E1,2.36E2,6E1,1.79E2,1E2,4.23E2,2.82E2,3.49E2,6.3E1,5E0,1.15E2,2.42E2,8.4E1,8.5E1,5.6E1,8.9E1,3.1E1,3.57E2,1.08E2,2.5E2,2.12E2,8.6E1,1E1,1.69E2,1.3E1,2.6E1,5.1E1,7E0,2E0,9.4E1,7.5E1,9.7E1,1.39E2,4.2E1,1.8E1,5.3E1,1.26E2,9.3E1,7E0,2.93E2,1.3E2,1.38E2,1.44E2,1.18E2,2.31E2,7E0,5.6E1,4E0,1E0,8E1,3.5E1,2.09E2,3.3E1,4E1,4.4E1,3E1,5.5E1,5E1,6E0,8.5E1,4E0,3E0,2.8E1,2.96E2,6.1E1,2.4E1,8.4E1,1.57E2,9.3E1,1.9E2,2.2E1,4.1E1,4.5E1,3E0,7E0,1.56E2,1.3E1,7E0,6E0,2.4E1,2E0,4.6E1,5E0],"tree_param":{"num_deleted":"0","num_feature":"9","num_nodes":"117","size_leaf_vector":"1"}},{"base_weights":[2.5694506E-2,-4.0493984E0,9.103067E0,-7.356878E0,-5.561067E-1,6.628422E0,1.8448416E1,-9.565687E0,-5.771004E0,1.0343269E0,-5.4614806E0,9.763817E0,3.5241008E0,1.6567263E1,2.9960703E1,-1.1959306E1,-8.854938E0,-7.6605165E-1,-7.1369157E0,-6.425208E-1,4.1802416E0,-7.710907E0,-2.8382094E0,7.965007E0,1.6715073E1,7.4464805E-2,6.904168E0,2.268031E1,1.2214122E1,3.1816645E1,-1.324646E-1,-1.0778462E0,-1.2060384E1,-5.54486E0,-9.56207E0,2.7615356E0,-2.089788E0,-6.250584E0,-1.0115157E1,2.1296751E0,-2.869102E0,7.8507543E0,1.8328321E0,-5.900096E0,-1.0787637E1,-6.2359303E-1,-7.976043E0,1.6520834E1,7.1495366E0,1.39070425E1,1.5305885E1,2.016685E0,-6.832586E0,8.907586E0,3.0150494E-1,2.4951063E1,9.360373E0,7.5927367E0,1.5180881E1,3.259909E1,1.0167458E0,-7.566531E-1,-3.6344316E0,-5.759067E-1,-2.0707543E0,-2.6829655E0,-3.4726536E0,1.7558273E0,2.809276E-1,-1.2938858E0,1.0289681E-1,-1.3759763E0,-2.6097484E0,-2.5965228E0,-3.8323843E0,1.4177788E0,-1.338069E-1,6.810856E-2,-1.4677117E0,4.7079334E0,2.091703E0,2.5105696E0,1.8255828E-1,-1.351223E0,-3.5404534E0,-3.7921402E0,-2.3341227E0,2.5289446E-1,-2.5571003E0,-1.7160364E0,-3.5545168E0,5.7822256E0,3.7172635E0,2.4754019E0,3.675439E-1,4.870379E0,-3.9916518E-1,1.0752474E0,-1.3939872E0,-3.2435281E0,-6.3944536E-1,2.8883371E0,-2.017887E0,5.627959E-1,-3.4987917E0,6.07775E0,8.80703E0,3.250158E0,-4.345856E-2,3.445661E0,2.785651E-1,4.7845125E0,-2.950271E0,1.0152357E1,4.6332283E0],"categories":[],"categories_nodes":[],"categories_segments":[],"categories_sizes":[],"default_left":[0,0,0,0,0,0,0,0,0,0,0,0,0,0,0,0,0,0,0,0,0,0,0,0,0,0,0,0,0,0,0,0,0,0,0,0,0,0,0,0,0,0,0,0,0,0,0,0,0,0,0,0,0,0,0,0,0,0,0,0,0,0,0,0,0,0,0,0,0,0,0,0,0,0,0,0,0,0,0,0,0,0,0,0,0,0,0,0,0,0,0,0,0,0,0,0,0,0,0,0,0,0,0,0,0,0,0,0,0,0,0,0,0,0,0],"id":2,"left_children":[1,3,5,7,9,11,13,15,17,19,21,23,25,27,29,31,33,35,37,39,41,43,45,47,49,51,53,55,57,59,-1,-1,61,63,65,67,69,71,73,75,77,79,81,83,85,87,89,91,93,-1,95,97,99,101,103,105,107,109,111,113,-1,-1,-1,-1,-1,-1,-1,-1,-1,-1,-1,-1,-1,-1,-1,-1,-1,-1,-1,-1,-1,-1,-1,-1,-1,-1,-1,-1,-1,-1,-1,-1,-1,-1,-1,-1,-1,-1,-1,-1,-1,-1,-1,-1,-1,-1,-1,-1,-1,-1,-1,-1,-1,-1,-1],"loss_changes":[1.4744656E5,3.1780938E4,2.8438844E4,4.894383E3,1.0452087E4,9.48473E3,5.0909766E3,8.9614844E2,5.634496E3,5.3412085E3,1.9135957E3,5.9438047E3,5.7478657E3,5.683832E3,1.988916E3,6.8296875E1,1.0190039E3,8.36959E2,1.6473086E3,4.0861453E3,3.0185132E3,9.1691406E2,1.7359109E3,2.5889688E3,3.4257734E3,3.3004573E3,3.2910615E3,2.5491094E3,1.7082383E3,6.2353906E2,0E0,0E0,3.6882812E1,3.952527E2,3.6498047E2,2.709685E2,7.045796E2,2.0054609E3,4.6023926E2,1.9748221E3,2.3001113E3,8.3434863E2,1.7232803E3,8.777947E2,2.5825244E2,1.2584784E3,3.340681E2,1.3641406E2,2.3136855E3,0E0,1.5048457E3,2.0220088E3,9.871057E2,2.2153398E3,1.1332809E3,1.01759766E3,2.1165698E2,1.3902219E3,1.6927559E3,1.5921875E2,0E0,0E0,0E0,0E0,0E0,0E0,0E0,0E0,0E0,0E0,0E0,0E0,0E0,0E0,0E0,0E0,0E0,0E0,0E0,0E0,0E0,0E0,0E0,0E0,0E0,0E0,0E0,0E0,0E0,0E0,0E0,0E0,0E0,0E0,0E0,0E0,0E0,0E0,0E0,0E0,0E0,0E0,0E0,0E0,0E0,0E0,0E0,0E0,0E0,0E0,0E0,0E0,0E0,0E0,0E0],"parents":[2147483647,0,0,1,1,2,2,3,3,4,4,5,5,6,6,7,7,8,8,9,9,10,10,11,11,12,12,13,13,14,14,15,15,16,16,17,17,18,18,19,19,20,20,21,21,22,22,23,23,24,24,25,25,26,26,27,27,28,28,29,29,32,32,33,33,34,34,35,35,36,36,37,37,38,38,39,39,40,40,41,41,42,42,43,43,44,44,45,45,46,46,47,47,48,48,50,50,51,51,52,52,53,53,54,54,55,55,56,56,57,57,58,58,59,59],"right_children":[2,4,6,8,10,12,14,16,18,20,22,24,26,28,30,32,34,36,38,40,42,44,46,48,50,52,54,56,58,60,-1,-1,62,64,66,68,70,72,74,76,78,80,82,84,86,88,90,92,94,-1,96,98,100,102,104,106,108,110,112,114,-1,-1,-1,-1,-1,-1,-1,-1,-1,-1,-1,-1,-1,-1,-1,-1,-1,-1,-1,-1,-1,-1,-1,-1,-1,-1,-1,-1,-1,-1,-1,-1,-1,-1,-1,-1,-1,-1,-1,-1,-1,-1,-1,-1,-1,-1,-1,-1,-1,-1,-1,-1,-1,-1,-1],"split_conditions":[4.5666668E1,3.2333332E1,6.5E1,2.4333334E1,4.6E1,5.2E1,8.5E1,1.8E1,2.2E1,3.9666668E1,4.1333332E1,5.5333332E1,5.5666668E1,6.8E1,1.57E2,9E0,1.7E1,2.5E1,3.2E1,3.3E1,4.2E1,3.7E1,4.6E1,3.3E1,4.5E1,5.7E1,6.7E1,8.9E1,7.2333336E1,1.32E2,-1.324646E-1,-1.0778462E0,8E0,1.8E1,2.4E1,1.7E1,2.8E1,3.4E1,3.1E1,3.7E1,3.5E1,2.9E1,3.1E1,6.2E1,1.5402248E1,6.1E1,5.2E1,2.9E1,5.8E1,1.39070425E1,7.6E1,6.8E1,5.3666668E1,8.9E1,7.1E1,6.9333336E1,1E0,7.3E1,1.09E2,1.26E2,1.0167458E0,-7.566531E-1,-3.6344316E0,-5.759067E-1,-2.0707543E0,-2.6829655E0,-3.4726536E0,1.7558273E0,2.809276E-1,-1.2938858E0,1.0289681E-1,-1.3759763E0,-2.6097484E0,-2.5965228E0,-3.8323843E0,1.4177788E0,-1.338069E-1,6.810856E-2,-1.4677117E0,4.7079334E0,2.091703E0,2.5105696E0,1.8255828E-1,-1.351223E0,-3.5404534E0,-3.7921402E0,-2.3341227E0,2.5289446E-1,-2.5571003E0,-1.7160364E0,-3.5545168E0,5.7822256E0,3.7172635E0,2.4754019E0,3.675439E-1,4.870379E0,-3.9916518E-1,1.0752474E0,-1.3939872E0,-3.2435281E0,-6.3944536E-1,2.8883371E0,-2.017887E0,5.627959E-1,-3.4987917E0,6.07775E0,8.80703E0,3.250158E0,-4.345856E-2,3.445661E0,2.785651E-1,4.7845125E0,-2.950271E0,1.0152357E1,4.6332283E0],"split_indices":[3,3,3,3,1,1,3,3,1,3,3,3,3,1,0,0,1,0,0,1,0,0,0,1,0,0,0,0,3,2,0,0,1,0,0,1,3,1,1,0,0,1,1,1,5,1,1,1,0,0,0,1,3,1,1,3,4,0,0,1,0,0,0,0,0,0,0,0,0,0,0,0,0,0,0,0,0,0,0,0,0,0,0,0,0,0,0,0,0,0,0,0,0,0,0,0,0,0,0,0,0,0,0,0,0,0,0,0,0,0,0,0,0,0,0],"split_type":[0,0,0,0,0,0,0,0,0,0,0,0,0,0,0,0,0,0,0,0,0,0,0,0,0,0,0,0,0,0,0,0,0,0,0,0,0,0,0,0,0,0,0,0,0,0,0,0,0,0,0,0,0,0,0,0,0,0,0,0,0,0,0,0,0,0,0,0,0,0,0,0,0,0,0,0,0,0,0,0,0,0,0,0,0,0,0,0,0,0,0,0,0,0,0,0,0,0,0,0,0,0,0,0,0,0,0,0,0,0,0,0,0,0,0],"sum_hessian":[3.984E3,2.75E3,1.234E3,1.412E3,1.338E3,9.77E2,2.57E2,5.88E2,8.24E2,1.011E3,3.27E2,4.85E2,4.92E2,2.23E2,3.4E1,1.31E2,4.57E2,1.77E2,6.47E2,6.6E2,3.51E2,1.75E2,1.52E2,3.87E2,9.8E1,2.44E2,2.48E2,9.1E1,1.32E2,3.2E1,2E0,2E0,1.29E2,8.2E1,3.75E2,4.8E1,1.29E2,5.01E2,1.46E2,2.94E2,3.66E2,1.36E2,2.15E2,1.12E2,6.3E1,1.07E2,4.5E1,3.2E1,3.55E2,3E0,9.5E1,1.91E2,5.3E1,1.9E2,5.8E1,7.7E1,1.4E1,5.3E1,7.9E1,3.1E1,1E0,1E0,1.28E2,2.3E1,5.9E1,2.91E2,8.4E1,1.7E1,3.1E1,6.7E1,6.2E1,3E2,2.01E2,9.7E1,4.9E1,1.46E2,1.48E2,1.45E2,2.21E2,1.2E1,1.24E2,3.3E1,1.82E2,9.2E1,2E1,3.7E1,2.6E1,9.1E1,1.6E1,3E1,1.5E1,1.7E1,1.5E1,2.99E2,5.6E1,9E1,5E0,1.55E2,3.6E1,2.8E1,2.5E1,1.82E2,8E0,5.2E1,6E0,4E1,3.7E1,1.2E1,2E0,3.3E1,2E1,7.7E1,2E0,2.8E1,3E0],"tree_param":{"num_deleted":"0","num_feature":"9","num_nodes":"115","size_leaf_vector":"1"}},{"base_weights":[2.5694545E-2,-2.635736E0,7.0082974E0,-5.5837364E0,-4.612858E-1,4.9756565E0,1.2615826E1,-7.407375E0,-4.69057E0,9.2167777E-1,-2.860242E0,8.516005E0,3.0650413E0,1.1910858E1,3.1304802E1,-6.664144E0,-8.905462E0,-1.590537E0,-5.8292375E0,-7.690052E-1,3.572697E0,-5.103581E0,-1.1581811E0,1.180034E1,8.156676E0,1.2594861E0,5.618514E0,2.207108E1,1.0527599E1,1.0436866E1,3.4731615E0,-9.377213E0,-5.949085E0,-8.271065E0,-3.0671136E0,-2.4319819E-1,-4.0433674E0,-4.189723E0,-6.8648252E0,3.7318006E-1,-4.476048E0,4.3380485E0,-2.594507E0,-2.4449956E0,-6.4571595E0,1.9680145E-1,-5.992353E0,8.459375E0,-4.9003205E0,2.2310119E0,-7.5562143E0,8.096361E0,1.1562726E0,1.6790249E1,3.1106354E1,1.2560811E1,6.9382625E0,-1.7675655E0,-3.0062397E0,-1.4744735E0,-2.368534E0,-1.7944034E0,-2.7211018E0,-4.165955E-1,9.7906625E-1,-2.0797381E0,-6.6871333E-1,-9.8652095E-1,-2.1719348E0,-1.7270792E0,-2.444844E0,1.7605766E0,-1.3311279E-1,-9.249273E-1,-2.4516084E0,2.645663E0,1.0653416E0,2.7102869E0,-9.98524E-1,-1.7830196E-1,-2.3430588E0,-2.842545E0,-1.5135761E0,1.4005315E0,-1.5813276E-1,-1.234733E0,-3.213362E0,2.0581923E0,3.4542937E0,-2.6755433E0,-4.5280862E-1,2.8984115E0,4.5853359E-1,-1.2046748E0,-3.187375E0,2.741128E0,-3.556634E-1,7.058679E-1,-1.3702582E0,6.252623E0,2.8315997E0,1.00247755E1,1.2016096E0,3.0685146E0,4.7329516E0,1.6830365E-1,2.782377E0],"categories":[],"categories_nodes":[],"categories_segments":[],"categories_sizes":[],"default_left":[0,0,0,0,0,0,0,0,0,0,0,0,0,0,0,0,0,0,0,0,0,0,0,0,0,0,0,0,0,0,0,0,0,0,0,0,0,0,0,0,0,0,0,0,0,0,0,0,0,0,0,0,0,0,0,0,0,0,0,0,0,0,0,0,0,0,0,0,0,0,0,0,0,0,0,0,0,0,0,0,0,0,0,0,0,0,0,0,0,0,0,0,0,0,0,0,0,0,0,0,0,0,0,0,0,0,0],"id":3,"left_children":[1,3,5,7,9,11,13,15,17,19,21,23,25,27,29,31,33,35,37,39,41,43,45,-1,47,49,51,53,55,-1,-1,57,59,61,-1,63,65,67,69,71,73,75,77,79,81,83,85,87,89,91,93,95,97,99,101,103,105,-1,-1,-1,-1,-1,-1,-1,-1,-1,-1,-1,-1,-1,-1,-1,-1,-1,-1,-1,-1,-1,-1,-1,-1,-1,-1,-1,-1,-1,-1,-1,-1,-1,-1,-1,-1,-1,-1,-1,-1,-1,-1,-1,-1,-1,-1,-1,-1,-1,-1],"loss_changes":[7.407457E4,1.8497496E4,1.2475129E4,1.9605508E3,5.5166016E3,5.446172E3,3.4742617E3,3.8713477E2,2.9029023E3,4.7312925E3,2.3156157E3,2.8130898E3,2.4226235E3,3.7449922E3,2.8469043E2,4.7189648E2,2.4157227E1,7.3598553E2,9.950469E2,2.732684E3,1.9512075E3,9.270469E2,2.2741052E3,0E0,1.1520625E3,2.671909E3,2.4010103E3,1.0522695E3,1.7446172E3,0E0,0E0,6.432959E1,3.9992822E2,1.15947754E2,0E0,5.8697107E2,3.9864526E2,6.249756E2,4.768457E2,2.2202393E3,7.573528E2,1.2592017E3,4.2265448E2,8.8898047E2,6.8936816E2,8.829427E2,6.28917E2,1.2641133E3,8.1916626E1,1.4469235E3,2.941189E2,1.3632285E3,5.5183484E2,4.883872E2,5.546621E2,1.0311934E3,1.3804355E3,0E0,0E0,0E0,0E0,0E0,0E0,0E0,0E0,0E0,0E0,0E0,0E0,0E0,0E0,0E0,0E0,0E0,0E0,0E0,0E0,0E0,0E0,0E0,0E0,0E0,0E0,0E0,0E0,0E0,0E0,0E0,0E0,0E0,0E0,0E0,0E0,0E0,0E0,0E0,0E0,0E0,0E0,0E0,0E0,0E0,0E0,0E0,0E0,0E0,0E0],"parents":[2147483647,0,0,1,1,2,2,3,3,4,4,5,5,6,6,7,7,8,8,9,9,10,10,11,11,12,12,13,13,14,14,15,15,16,16,17,17,18,18,19,19,20,20,21,21,22,22,24,24,25,25,26,26,27,27,28,28,31,31,32,32,33,33,35,35,36,36,37,37,38,38,39,39,40,40,41,41,42,42,43,43,44,44,45,45,46,46,47,47,48,48,49,49,50,50,51,51,52,52,53,53,54,54,55,55,56,56],"right_children":[2,4,6,8,10,12,14,16,18,20,22,24,26,28,30,32,34,36,38,40,42,44,46,-1,48,50,52,54,56,-1,-1,58,60,62,-1,64,66,68,70,72,74,76,78,80,82,84,86,88,90,92,94,96,98,100,102,104,106,-1,-1,-1,-1,-1,-1,-1,-1,-1,-1,-1,-1,-1,-1,-1,-1,-1,-1,-1,-1,-1,-1,-1,-1,-1,-1,-1,-1,-1,-1,-1,-1,-1,-1,-1,-1,-1,-1,-1,-1,-1,-1,-1,-1,-1,-1,-1,-1,-1,-1],"split_conditions":[4.7333332E1,3.0666666E1,6.3333332E1,2.2E1,4.2E1,4.9E1,9.6333336E1,2.1E1,2.2E1,3.8E1,4.0333332E1,3.3E1,5.6666668E1,5.3E1,1.26E2,1.6E1,2E1,2.9E1,2.3E1,3.9E1,5.2E1,2.9E1,4.9E1,1.180034E1,7.5E1,6.2E1,6.3E1,6.9333336E1,7.6E1,1.0436866E1,3.4731615E0,1.2E1,2.1E1,2.3E1,-3.0671136E0,2.6666666E1,2.6666666E1,3.9E1,2.9E1,2.4E1,4.5E1,3.7E1,2.1E1,5.8E1,3.6E1,3.5E1,5.3E1,5.2666668E1,2.2E1,4.2E1,5.8E1,8E1,6.8E1,7.1E1,6.8E1,7.2666664E1,7.1666664E1,-1.7675655E0,-3.0062397E0,-1.4744735E0,-2.368534E0,-1.7944034E0,-2.7211018E0,-4.165955E-1,9.7906625E-1,-2.0797381E0,-6.6871333E-1,-9.8652095E-1,-2.1719348E0,-1.7270792E0,-2.444844E0,1.7605766E0,-1.3311279E-1,-9.249273E-1,-2.4516084E0,2.645663E0,1.0653416E0,2.7102869E0,-9.98524E-1,-1.7830196E-1,-2.3430588E0,-2.842545E0,-1.5135761E0,1.4005315E0,-1.5813276E-1,-1.234733E0,-3.213362E0,2.0581923E0,3.4542937E0,-2.6755433E0,-4.5280862E-1,2.8984115E0,4.5853359E-1,-1.2046748E0,-3.187375E0,2.741128E0,-3.556634E-1,7.058679E-1,-1.3702582E0,6.252623E0,2.8315997E0,1.00247755E1,1.2016096E0,3.0685146E0,4.7329516E0,1.6830365E-1,2.782377E0],"split_indices":[3,3,3,3,1,1,3,1,1,3,3,0,3,1,1,3,0,0,0,0,0,0,0,0,0,0,0,3,1,0,0,0,0,1,0,3,3,1,1,1,0,0,1,1,3,0,1,3,2,0,1,1,1,0,2,3,3,0,0,0,0,0,0,0,0,0,0,0,0,0,0,0,0,0,0,0,0,0,0,0,0,0,0,0,0,0,0,0,0,0,0,0,0,0,0,0,0,0,0,0,0,0,0,0,0,0,0],"split_type":[0,0,0,0,0,0,0,0,0,0,0,0,0,0,0,0,0,0,0,0,0,0,0,0,0,0,0,0,0,0,0,0,0,0,0,0,0,0,0,0,0,0,0,0,0,0,0,0,0,0,0,0,0,0,0,0,0,0,0,0,0,0,0,0,0,0,0,0,0,0,0,0,0,0,0,0,0,0,0,0,0,0,0,0,0,0,0,0,0,0,0,0,0,0,0,0,0,0,0,0,0,0,0,0,0,0,0],"sum_hessian":[3.984E3,2.885E3,1.099E3,1.224E3,1.661E3,8.08E2,2.91E2,4E2,8.24E2,1.054E3,6.07E2,2.82E2,5.26E2,2.82E2,9E0,2.71E2,1.29E2,2.22E2,6.02E2,6.44E2,4.1E2,2.61E2,3.46E2,2E0,2.8E2,3.09E2,2.17E2,3.2E1,2.5E2,7E0,2E0,5.4E1,2.17E2,9.2E1,3.7E1,1.44E2,7.8E1,2.35E2,3.67E2,4.93E2,1.51E2,3.65E2,4.5E1,8.9E1,1.72E2,2.71E2,7.5E1,2.74E2,6E0,2.79E2,3E1,1.39E2,7.8E1,2.2E1,1E1,1.58E2,9.2E1,1E1,4.4E1,1.44E2,7.3E1,2.6E1,6.6E1,1.09E2,3.5E1,2.9E1,4.9E1,1.83E2,5.2E1,2E2,1.67E2,6.3E1,4.3E2,1.11E2,4E1,5.3E1,3.12E2,2E0,4.3E1,6.7E1,2.2E1,5.3E1,1.19E2,3.7E1,2.34E2,5.5E1,2E1,1.82E2,9.2E1,2E0,4E0,2.3E1,2.56E2,1.5E1,1.5E1,1.25E2,1.4E1,6.5E1,1.3E1,1.3E1,9E0,9E0,1E0,9.4E1,6.4E1,2.5E1,6.7E1],"tree_param":{"num_deleted":"0","num_feature":"9","num_nodes":"107","size_leaf_vector":"1"}},{"base_weights":[2.4941823E-2,-2.3580725E0,4.0817037E0,-4.3216543E0,-9.962665E-1,2.4415922E0,7.764771E0,-3.8090267E0,-5.844716E0,7.5068414E-1,-2.548585E0,3.3727458E0,-2.2449708E0,7.0717616E0,1.732358E1,-6.010193E0,-3.013162E0,-6.481709E0,-3.7802985E0,-9.317684E-1,2.319519E0,-4.1878033E0,-1.4665117E0,7.5345283E0,2.558955E0,-6.8679565E-1,-6.4303384E0,1.2460668E1,5.8245125E0,9.397718E0,2.2085394E1,-4.634707E0,-6.6941433E0,-2.2841766E0,-4.8463416E0,-6.1354456E0,-8.925713E0,-1.8610888E0,-5.5813737E0,1.8680409E0,-3.3418689E0,8.515654E0,1.5665292E0,-2.0641353E0,-5.653919E0,1.8710831E-1,-3.3202875E0,6.0788894E0,6.80796E0,1.3128316E0,4.338904E0,-4.6822615E0,2.62376E0,-2.656594E0,-3.8384728E0,2.311172E1,1.076108E1,6.4825144E0,-2.5486052E0,1.2695124E1,-1.1952248E0,2.8954802E1,1.3694387E1,-1.9637134E0,-8.696595E-1,-1.8140779E0,-2.5259614E0,-9.21762E-1,-3.3998843E-2,-1.8021686E0,-9.7541124E-1,-2.1057673E0,-1.50278E0,-7.186489E-1,-2.7367811E0,2.7459705E-1,-8.025292E-1,-1.1869843E0,-2.0876534E0,1.4843234E0,1.01885974E-1,-6.4400655E-1,-1.8405408E0,3.252034E0,1.3490207E0,1.4792817E0,2.3965941E-1,-2.9864675E-1,-1.9409653E0,-1.423016E0,-2.4404826E0,5.1298684E-1,-9.1467094E-1,-7.713087E-1,-2.2295108E0,2.513656E0,1.2836128E0,1.226253E0,-2.801595E-1,1.7968881E0,3.6591086E-1,9.847893E-1,-1.8732201E0,1.021159E0,-3.271166E0,-7.167028E-1,-3.1465619E0,7.2944036E0,1.8427632E0,3.4125504E0,-2.0235863E0,1.3472692E0,2.8515444E0,3.240863E-1,-2.278591E0,1.0687134E0,4.359904E0,2.7653503E-1,-6.624466E-1,9.97229E0,2.7906451E0,4.4723168E-1,4.465411E0],"categories":[],"categories_nodes":[],"categories_segments":[],"categories_sizes":[],"default_left":[0,0,0,0,0,0,0,0,0,0,0,0,0,0,0,0,0,0,0,0,0,0,0,0,0,0,0,0,0,0,0,0,0,0,0,0,0,0,0,0,0,0,0,0,0,0,0,0,0,0,0,0,0,0,0,0,0,0,0,0,0,0,0,0,0,0,0,0,0,0,0,0,0,0,0,0,0,0,0,0,0,0,0,0,0,0,0,0,0,0,0,0,0,0,0,0,0,0,0,0,0,0,0,0,0,0,0,0,0,0,0,0,0,0,0,0,0,0,0,0,0,0,0],"id":4,"left_children":[1,3,5,7,9,11,13,15,17,19,21,23,25,27,29,31,33,35,37,39,41,43,45,47,49,51,53,55,57,59,61,63,65,67,69,71,73,75,77,79,81,83,85,87,89,91,93,-1,95,97,99,101,103,-1,105,107,109,111,113,115,117,119,121,-1,-1,-1,-1,-1,-1,-1,-1,-1,-1,-1,-1,-1,-1,-1,-1,-1,-1,-1,-1,-1,-1,-1,-1,-1,-1,-1,-1,-1,-1,-1,-1,-1,-1,-1,-1,-1,-1,-1,-1,-1,-1,-1,-1,-1,-1,-1,-1,-1,-1,-1,-1,-1,-1,-1,-1,-1,-1,-1,-1],"loss_changes":[3.8533902E4,6.7101514E3,8.890988E3,7.803613E2,4.0262595E3,4.467489E3,2.8849453E3,1.3343047E3,3.1345703E2,1.8471652E3,1.3880288E3,2.8696777E3,1.1042446E3,2.7839785E3,9.246914E2,1.6089062E2,7.493198E2,1.1025879E2,2.0738092E2,2.2870066E3,1.6756171E3,9.5975586E2,1.4567056E3,1.1475332E3,1.5802002E3,1.6656866E3,2.5512878E2,1.1813828E3,1.9283262E3,4.6925342E2,6.410244E2,2.1654614E2,9.875293E1,6.996211E2,2.7857275E2,1.3801953E2,6.4331055E0,7.4769295E1,4.4084473E1,7.3733167E2,5.9442896E2,3.1558545E2,8.328678E2,6.009152E2,3.7707812E2,1.2470575E3,6.70928E2,0E0,4.9258252E2,2.634506E3,1.5064814E3,7.295548E2,7.6526984E2,0E0,2.0627951E2,5.477832E1,8.292612E2,1.8957295E3,4.8436722E2,1.1607776E2,1.061297E1,4.4889893E2,1.230719E2,0E0,0E0,0E0,0E0,0E0,0E0,0E0,0E0,0E0,0E0,0E0,0E0,0E0,0E0,0E0,0E0,0E0,0E0,0E0,0E0,0E0,0E0,0E0,0E0,0E0,0E0,0E0,0E0,0E0,0E0,0E0,0E0,0E0,0E0,0E0,0E0,0E0,0E0,0E0,0E0,0E0,0E0,0E0,0E0,0E0,0E0,0E0,0E0,0E0,0E0,0E0,0E0,0E0,0E0,0E0,0E0,0E0,0E0,0E0,0E0],"parents":[2147483647,0,0,1,1,2,2,3,3,4,4,5,5,6,6,7,7,8,8,9,9,10,10,11,11,12,12,13,13,14,14,15,15,16,16,17,17,18,18,19,19,20,20,21,21,22,22,23,23,24,24,25,25,26,26,27,27,28,28,29,29,30,30,31,31,32,32,33,33,34,34,35,35,36,36,37,37,38,38,39,39,40,40,41,41,42,42,43,43,44,44,45,45,46,46,48,48,49,49,50,50,51,51,52,52,54,54,55,55,56,56,57,57,58,58,59,59,60,60,61,61,62,62],"right_children":[2,4,6,8,10,12,14,16,18,20,22,24,26,28,30,32,34,36,38,40,42,44,46,48,50,52,54,56,58,60,62,64,66,68,70,72,74,76,78,80,82,84,86,88,90,92,94,-1,96,98,100,102,104,-1,106,108,110,112,114,116,118,120,122,-1,-1,-1,-1,-1,-1,-1,-1,-1,-1,-1,-1,-1,-1,-1,-1,-1,-1,-1,-1,-1,-1,-1,-1,-1,-1,-1,-1,-1,-1,-1,-1,-1,-1,-1,-1,-1,-1,-1,-1,-1,-1,-1,-1,-1,-1,-1,-1,-1,-1,-1,-1,-1,-1,-1,-1,-1,-1,-1,-1],"split_conditions":[4.3E1,2.8666666E1,5.8666668E1,2.8E1,3.5E1,6E1,8.6666664E1,1.9333334E1,2.7666666E1,3.3333332E1,3.5666668E1,3.8E1,5.6E1,5.5E1,1.0799999E1,1.5E1,2.7E1,4E1,2.4E1,3.1E1,2.2E1,2.8E1,3.9E1,3.8E1,5E1,5.1333332E1,1.1406834E1,5.5E1,9.1E1,9.6E1,1.2264047E2,1.5E1,1.9E1,2.5E1,2.6666666E1,2.5333334E1,3E1,1.8E1,3.3E1,2.6E1,3.8E1,4.2E1,3.4E1,5.2E1,3.7E1,4.9E1,4.9E1,6.0788894E0,5.3E1,4.6E1,5.9E1,3.5E1,9.3E1,-2.656594E0,6.9E1,2.7747565E2,1.34E2,6.9E1,7.2E1,1.1569948E1,1E2,1.17E2,7E1,-1.9637134E0,-8.696595E-1,-1.8140779E0,-2.5259614E0,-9.21762E-1,-3.3998843E-2,-1.8021686E0,-9.7541124E-1,-2.1057673E0,-1.50278E0,-7.186489E-1,-2.7367811E0,2.7459705E-1,-8.025292E-1,-1.1869843E0,-2.0876534E0,1.4843234E0,1.01885974E-1,-6.4400655E-1,-1.8405408E0,3.252034E0,1.3490207E0,1.4792817E0,2.3965941E-1,-2.9864675E-1,-1.9409653E0,-1.423016E0,-2.4404826E0,5.1298684E-1,-9.1467094E-1,-7.713087E-1,-2.2295108E0,2.513656E0,1.2836128E0,1.226253E0,-2.801595E-1,1.7968881E0,3.6591086E-1,9.847893E-1,-1.8732201E0,1.021159E0,-3.271166E0,-7.167028E-1,-3.1465619E0,7.2944036E0,1.8427632E0,3.4125504E0,-2.0235863E0,1.3472692E0,2.8515444E0,3.240863E-1,-2.278591E0,1.0687134E0,4.359904E0,2.7653503E-1,-6.624466E-1,9.97229E0,2.7906451E0,4.4723168E-1,4.465411E0],"split_indices":[3,3,3,1,1,1,3,3,3,3,3,1,0,1,7,1,0,1,0,0,1,0,0,0,3,3,5,0,1,0,8,3,0,3,3,3,2,0,1,0,0,0,0,1,0,1,0,0,0,0,0,0,1,0,1,8,0,3,0,8,0,1,1,0,0,0,0,0,0,0,0,0,0,0,0,0,0,0,0,0,0,0,0,0,0,0,0,0,0,0,0,0,0,0,0,0,0,0,0,0,0,0,0,0,0,0,0,0,0,0,0,0,0,0,0,0,0,0,0,0,0,0,0],"split_type":[0,0,0,0,0,0,0,0,0,0,0,0,0,0,0,0,0,0,0,0,0,0,0,0,0,0,0,0,0,0,0,0,0,0,0,0,0,0,0,0,0,0,0,0,0,0,0,0,0,0,0,0,0,0,0,0,0,0,0,0,0,0,0,0,0,0,0,0,0,0,0,0,0,0,0,0,0,0,0,0,0,0,0,0,0,0,0,0,0,0,0,0,0,0,0,0,0,0,0,0,0,0,0,0,0,0,0,0,0,0,0,0,0,0,0,0,0,0,0,0,0,0,0],"sum_hessian":[3.984E3,2.51E3,1.474E3,1.027E3,1.483E3,1.021E3,4.53E2,7.71E2,2.56E2,6.98E2,7.85E2,8.52E2,1.69E2,4.24E2,2.9E1,2.03E2,5.68E2,1.94E2,6.2E1,3.37E2,3.61E2,3.11E2,4.74E2,1.38E2,7.14E2,1.24E2,4.5E1,7.8E1,3.46E2,1.2E1,1.7E1,7E1,1.33E2,4.08E2,1.6E2,1.73E2,2.1E1,3.1E1,3.1E1,1.56E2,1.81E2,3.8E1,3.23E2,1.28E2,1.83E2,2.51E2,2.23E2,6E0,1.32E2,4.21E2,2.93E2,5.6E1,6.8E1,2.2E1,2.3E1,9E0,6.9E1,3.21E2,2.5E1,9E0,3E0,8E0,9E0,3.2E1,3.8E1,1E2,3.3E1,2.99E2,1.09E2,9.1E1,6.9E1,9.4E1,7.9E1,1E0,2E1,7E0,2.4E1,1.6E1,1.5E1,5.1E1,1.05E2,1.28E2,5.3E1,2.3E1,1.5E1,5.9E1,2.64E2,1.04E2,2.4E1,1.36E2,4.7E1,1.71E2,8E1,1.9E2,3.3E1,8E1,5.2E1,1.88E2,2.33E2,1.91E2,1.02E2,9E0,4.7E1,6.5E1,3E0,2E1,3E0,8E0,1E0,6.7E1,2E0,1.95E2,1.26E2,1.5E1,1E1,2E0,7E0,1E0,2E0,6E0,2E0,1E0,8E0],"tree_param":{"num_deleted":"0","num_feature":"9","num_nodes":"123","size_leaf_vector":"1"}},{"base_weights":[2.071102E-2,-1.5301312E0,3.2544172E0,-2.6300547E0,-1.7693321E-1,2.3448339E0,6.944194E0,-3.3676953E0,-1.8818823E0,6.316506E-1,-2.6399531E0,4.5741987E0,1.2089522E0,1.3535043E1,5.8341265E0,-2.7391095E0,-4.377055E0,-4.5096856E-1,-3.2510352E0,5.825888E0,2.9756114E-1,-2.186159E0,-6.9539557E0,1.5739756E1,4.0967746E0,1.8317986E0,-2.1586916E0,1.850598E1,9.920775E0,5.2313933E0,1.7968386E1,-3.641827E0,-1.3125448E0,-3.9352229E0,-6.53069E0,8.749884E-1,-2.6705804E0,-1.4608397E0,-4.6014585E0,7.3697586E0,3.175093E0,7.155754E-1,-3.0628858E0,-1.0670624E0,-4.4752336E0,9.516169E-1,-7.4464765E0,8.102943E0,3.4831789E0,3.25579E0,6.757739E0,-2.0626746E-1,3.0800502E0,7.275696E0,-2.7849858E0,2.0329966E1,2.6590567E0,7.708699E0,5.550289E0,7.719378E0,1.8006653E0,3.09402E0,7.0682077E0,-8.912402E-1,-1.4942392E0,2.6711908E-1,-6.5508753E-1,-1.4856796E0,-1.0117458E0,-2.0274563E0,-2.8239977E-1,1.7912952E0,1.6172594E-1,-1.2616742E0,-4.0981182E-1,-1.2844308E-1,-1.1627332E0,-1.1790519E0,-1.98903E0,2.4655328E0,8.7666094E-1,7.067374E-1,2.2736218E0,-1.4414889E-1,5.546393E-1,-1.8736502E0,-3.045286E-1,-9.8408794E-1,1.2541142E-1,-9.124647E-1,-1.8021531E0,-2.3723643E0,-1.1504173E0,1.7818413E0,5.7782555E-1,2.7443883E0,1.162554E0,4.1226712E-1,-1.4747504E0,1.1338333E0,-8.8927704E-1,8.931885E-2,3.002201E0,-2.4453475E0,-4.8475665E-1,3.7931058E0,7.3883753E0,3.0702157E0,7.9242426E-1,2.8743234E0,7.857193E-1,-9.7857237E-1,1.278281E0],"categories":[],"categories_nodes":[],"categories_segments":[],"categories_sizes":[],"default_left":[0,0,0,0,0,0,0,0,0,0,0,0,0,0,0,0,0,0,0,0,0,0,0,0,0,0,0,0,0,0,0,0,0,0,0,0,0,0,0,0,0,0,0,0,0,0,0,0,0,0,0,0,0,0,0,0,0,0,0,0,0,0,0,0,0,0,0,0,0,0,0,0,0,0,0,0,0,0,0,0,0,0,0,0,0,0,0,0,0,0,0,0,0,0,0,0,0,0,0,0,0,0,0,0,0,0,0,0,0,0,0,0,0],"id":5,"left_children":[1,3,5,7,9,11,13,15,17,19,21,23,25,27,29,31,33,35,37,39,41,43,45,47,49,51,53,55,57,59,61,63,65,67,69,71,73,75,77,79,81,83,85,87,89,-1,91,-1,-1,93,95,97,99,101,103,105,-1,107,-1,109,111,-1,-1,-1,-1,-1,-1,-1,-1,-1,-1,-1,-1,-1,-1,-1,-1,-1,-1,-1,-1,-1,-1,-1,-1,-1,-1,-1,-1,-1,-1,-1,-1,-1,-1,-1,-1,-1,-1,-1,-1,-1,-1,-1,-1,-1,-1,-1,-1,-1,-1,-1,-1],"loss_changes":[1.9989627E4,4.0093228E3,4.319874E3,8.1376074E2,2.4094614E3,2.6229917E3,1.7866875E3,4.6195996E2,1.4482971E3,1.5791613E3,5.701406E2,1.8012651E3,1.4491484E3,4.6319287E2,1.515019E3,5.914641E2,2.4549072E2,1.0706857E3,9.0710156E2,2.0168701E2,1.2060323E3,6.9200574E2,1.6326428E2,3.379021E2,7.3214746E2,1.4812546E3,6.584026E2,6.6032715E1,2.9392236E2,1.7871118E3,1.8509961E2,2.3947461E2,3.4927225E2,1.2008472E2,5.340161E1,3.8706122E2,2.66591E2,4.073396E2,2.66729E2,1.04319336E2,6.1520218E1,1.03507E3,6.128065E2,6.061553E2,1.772019E2,0E0,1.467041E1,0E0,0E0,9.0923364E2,5.157461E2,1.6591965E3,1.5372771E3,1.3044962E2,6.26752E2,5.200049E1,0E0,2.2890125E2,0E0,1.1333276E3,1.1348759E3,0E0,0E0,0E0,0E0,0E0,0E0,0E0,0E0,0E0,0E0,0E0,0E0,0E0,0E0,0E0,0E0,0E0,0E0,0E0,0E0,0E0,0E0,0E0,0E0,0E0,0E0,0E0,0E0,0E0,0E0,0E0,0E0,0E0,0E0,0E0,0E0,0E0,0E0,0E0,0E0,0E0,0E0,0E0,0E0,0E0,0E0,0E0,0E0,0E0,0E0,0E0,0E0],"parents":[2147483647,0,0,1,1,2,2,3,3,4,4,5,5,6,6,7,7,8,8,9,9,10,10,11,11,12,12,13,13,14,14,15,15,16,16,17,17,18,18,19,19,20,20,21,21,22,22,23,23,24,24,25,25,26,26,27,27,28,28,29,29,30,30,31,31,32,32,33,33,34,34,35,35,36,36,37,37,38,38,39,39,40,40,41,41,42,42,43,43,44,44,46,46,49,49,50,50,51,51,52,52,53,53,54,54,55,55,57,57,59,59,60,60],"right_children":[2,4,6,8,10,12,14,16,18,20,22,24,26,28,30,32,34,36,38,40,42,44,46,48,50,52,54,56,58,60,62,64,66,68,70,72,74,76,78,80,82,84,86,88,90,-1,92,-1,-1,94,96,98,100,102,104,106,-1,108,-1,110,112,-1,-1,-1,-1,-1,-1,-1,-1,-1,-1,-1,-1,-1,-1,-1,-1,-1,-1,-1,-1,-1,-1,-1,-1,-1,-1,-1,-1,-1,-1,-1,-1,-1,-1,-1,-1,-1,-1,-1,-1,-1,-1,-1,-1,-1,-1,-1,-1,-1,-1,-1,-1],"split_conditions":[4.5E1,3.3E1,6.5333336E1,2.6E1,4.6E1,4.7E1,5.7E1,2.3E1,2.9E1,2.3E1,6.5E1,3.8E1,6.8E1,7E1,9.6333336E1,2.1333334E1,2.5E1,3.2E1,2.6E1,4.2E1,4.8E1,4.2E1,1.5E1,2E1,5.3E1,5.1333332E1,3E1,1.2879752E1,8.2666664E1,7.8E1,1E0,2E1,2.1E1,2.2E1,3.3E1,2E1,2.9666666E1,4.3E1,3.5E1,1.1781835E1,4.0666668E1,3.7333332E1,4.0666668E1,3.8E1,5E1,9.516169E-1,2.4312662E1,8.102943E0,3.4831789E0,4.8E1,6.2E1,5.3E1,7.1E1,7.3E1,5.1E1,5.871416E0,2.6590567E0,8.1E1,5.550289E0,8.6E1,7.4333336E1,3.09402E0,7.0682077E0,-8.912402E-1,-1.4942392E0,2.6711908E-1,-6.5508753E-1,-1.4856796E0,-1.0117458E0,-2.0274563E0,-2.8239977E-1,1.7912952E0,1.6172594E-1,-1.2616742E0,-4.0981182E-1,-1.2844308E-1,-1.1627332E0,-1.1790519E0,-1.98903E0,2.4655328E0,8.7666094E-1,7.067374E-1,2.2736218E0,-1.4414889E-1,5.546393E-1,-1.8736502E0,-3.045286E-1,-9.8408794E-1,1.2541142E-1,-9.124647E-1,-1.8021531E0,-2.3723643E0,-1.1504173E0,1.7818413E0,5.7782555E-1,2.7443883E0,1.162554E0,4.1226712E-1,-1.4747504E0,1.1338333E0,-8.8927704E-1,8.931885E-2,3.002201E0,-2.4453475E0,-4.8475665E-1,3.7931058E0,7.3883753E0,3.0702157E0,7.9242426E-1,2.8743234E0,7.857193E-1,-9.7857237E-1,1.278281E0],"split_indices":[3,3,3,3,1,1,1,1,1,1,1,0,1,0,3,3,0,0,0,0,0,0,0,1,3,3,0,7,3,0,4,0,0,3,1,0,3,1,0,5,3,3,3,3,1,0,7,0,0,0,0,0,0,1,3,5,0,0,0,1,3,0,0,0,0,0,0,0,0,0,0,0,0,0,0,0,0,0,0,0,0,0,0,0,0,0,0,0,0,0,0,0,0,0,0,0,0,0,0,0,0,0,0,0,0,0,0,0,0,0,0,0,0],"split_type":[0,0,0,0,0,0,0,0,0,0,0,0,0,0,0,0,0,0,0,0,0,0,0,0,0,0,0,0,0,0,0,0,0,0,0,0,0,0,0,0,0,0,0,0,0,0,0,0,0,0,0,0,0,0,0,0,0,0,0,0,0,0,0,0,0,0,0,0,0,0,0,0,0,0,0,0,0,0,0,0,0,0,0,0,0,0,0,0,0,0,0,0,0,0,0,0,0,0,0,0,0,0,0,0,0,0,0,0,0,0,0,0,0],"sum_hessian":[3.984E3,2.693E3,1.291E3,1.485E3,1.208E3,1.037E3,2.54E2,7.46E2,7.39E2,9.1E2,2.98E2,3.49E2,6.88E2,3.5E1,2.19E2,4.62E2,2.84E2,3.62E2,3.77E2,5.4E1,8.56E2,2.71E2,2.7E1,1.3E1,3.36E2,5.81E2,1.07E2,1.3E1,2.2E1,2.1E2,9E0,2.82E2,1.8E2,2.38E2,4.6E1,2.27E2,1.35E2,1.63E2,2.14E2,3.3E1,2.1E1,7.62E2,9.4E1,1.83E2,8.8E1,1E0,2.6E1,2E0,1.1E1,2.57E2,7.9E1,2.21E2,3.6E2,6E0,1.01E2,1E1,3E0,1.9E1,3E0,1.21E2,8.9E1,5E0,4E0,1.9E2,9.2E1,5.1E1,1.29E2,8.2E1,1.56E2,4.4E1,2E0,1.3E1,2.14E2,6.1E1,7.4E1,1.15E2,4.8E1,1.63E2,5.1E1,2.7E1,6E0,1.9E1,2E0,3.71E2,3.91E2,3.6E1,5.8E1,7.3E1,1.1E2,4.7E1,4.1E1,2.2E1,4E0,8.4E1,1.73E2,4.2E1,3.7E1,1.66E2,5.5E1,3.23E2,3.7E1,2E0,4E0,1.7E1,8.4E1,5E0,5E0,1.2E1,7E0,8.8E1,3.3E1,2.9E1,6E1],"tree_param":{"num_deleted":"0","num_feature":"9","num_nodes":"113","size_leaf_vector":"1"}},{"base_weights":[2.4842706E-2,-9.0302205E-1,2.8593829E0,-1.981184E0,-3.891689E-2,2.4071434E0,7.4892626E0,-1.6527672E0,-3.2307894E0,1.0848964E0,-9.318837E-1,2.9274015E0,-1.6765096E0,1.1351021E1,4.404541E0,-2.6326587E0,-9.612017E-1,-4.3773417E0,-2.5685084E0,4.2373776E-1,2.9271865E0,-5.594563E-1,-3.8527708E0,2.2719238E1,2.7987568E0,-2.2675672E-1,-5.499901E0,1.2675617E1,-3.0769548E0,-9.8443556E-1,6.969484E0,-2.2639673E0,-3.922539E0,-6.3001126E-1,-4.7440443E0,5.705738E-1,-4.484142E0,-1.382193E0,-3.6874888E0,5.2054243E0,3.468254E-2,6.055762E0,2.0549312E0,-1.6643656E0,6.2143314E-1,-2.7981117E0,-6.6531506E0,7.56572E0,1.9079888E0,2.1871269E0,5.6071534E0,-4.929962E0,1.8185353E0,-7.180221E0,-4.0157223E-1,9.051393E0,1.7465427E1,1.1233447E0,-1.9796785E0,1.0491625E0,-4.8875594E0,7.6505814E0,-7.856141E-1,-9.972533E-1,-4.021566E-1,-8.047329E-1,-1.5320253E0,9.562512E-1,-2.9771525E-1,-9.940656E-1,-1.9685096E0,-3.8010007E-1,6.368583E-1,-1.1353666E0,-1.5671995E0,-2.4520475E-1,-1.5785388E0,-8.693432E-1,-1.6082315E0,2.2683284E0,1.1111776E0,1.7474216E-1,-7.0999324E-1,1.916759E0,-1.225853E-1,1.0987574E0,6.629743E-2,1.2588838E-1,-7.856661E-1,8.4872764E-1,-1.1362343E-2,-6.630006E-1,-2.3003466E0,-4.9097863E-1,-2.0928283E0,9.617621E-1,5.163204E-2,2.2653034E0,1.0408036E0,-1.1563332E0,-3.244581E0,7.9025537E-1,-7.385309E-1,-2.836398E0,-9.291359E-1,4.5078567E-1,-5.533832E-1,4.07492E0,1.809322E0,5.7862873E0,1.3064492E0,1.2121322E0,-2.8545943E-1,-1.23786926E-1,-2.1065617E0,1.5431858E0,3.2755284E0],"categories":[],"categories_nodes":[],"categories_segments":[],"categories_sizes":[],"default_left":[0,0,0,0,0,0,0,0,0,0,0,0,0,0,0,0,0,0,0,0,0,0,0,0,0,0,0,0,0,0,0,0,0,0,0,0,0,0,0,0,0,0,0,0,0,0,0,0,0,0,0,0,0,0,0,0,0,0,0,0,0,0,0,0,0,0,0,0,0,0,0,0,0,0,0,0,0,0,0,0,0,0,0,0,0,0,0,0,0,0,0,0,0,0,0,0,0,0,0,0,0,0,0,0,0,0,0,0,0,0,0,0,0,0,0,0,0],"id":6,"left_children":[1,3,5,7,9,11,13,15,17,19,21,23,25,27,29,31,33,35,37,39,41,43,45,47,49,51,53,55,57,59,61,63,65,67,69,71,73,75,77,79,81,83,85,87,89,91,93,-1,-1,95,97,99,101,103,105,107,109,-1,-1,111,113,115,-1,-1,-1,-1,-1,-1,-1,-1,-1,-1,-1,-1,-1,-1,-1,-1,-1,-1,-1,-1,-1,-1,-1,-1,-1,-1,-1,-1,-1,-1,-1,-1,-1,-1,-1,-1,-1,-1,-1,-1,-1,-1,-1,-1,-1,-1,-1,-1,-1,-1,-1,-1,-1,-1,-1],"loss_changes":[1.0483411E4,2.7976538E3,2.0401924E3,5.4294336E2,1.6748956E3,1.9106323E3,9.863872E2,7.157883E2,1.99094E2,8.9889575E2,1.0095156E3,1.9631211E3,5.64136E2,7.652295E2,6.97982E2,1.9941797E2,7.775314E2,5.540222E1,2.3119177E2,1.0137049E3,5.196947E2,1.078779E3,2.914956E2,4.4084717E1,1.3481548E3,7.304224E2,2.3698773E2,4.4949072E2,1.20809235E2,1.400634E2,2.4207141E2,3.313567E2,1.27281006E2,7.97214E2,1.08264404E2,1.1246992E1,3.0953613E1,1.8853984E2,1.0470886E2,1.1701282E2,6.656686E2,9.3139404E1,4.5321796E2,8.504944E2,5.823177E2,2.0644025E2,3.3944702E1,0E0,0E0,1.3378708E3,5.597417E2,1.0389752E2,1.9151978E2,1.6573975E2,2.4754314E1,2.191958E2,2.504668E2,0E0,0E0,7.566019E1,5.4408066E1,2.0595691E2,0E0,0E0,0E0,0E0,0E0,0E0,0E0,0E0,0E0,0E0,0E0,0E0,0E0,0E0,0E0,0E0,0E0,0E0,0E0,0E0,0E0,0E0,0E0,0E0,0E0,0E0,0E0,0E0,0E0,0E0,0E0,0E0,0E0,0E0,0E0,0E0,0E0,0E0,0E0,0E0,0E0,0E0,0E0,0E0,0E0,0E0,0E0,0E0,0E0,0E0,0E0,0E0,0E0,0E0,0E0],"parents":[2147483647,0,0,1,1,2,2,3,3,4,4,5,5,6,6,7,7,8,8,9,9,10,10,11,11,12,12,13,13,14,14,15,15,16,16,17,17,18,18,19,19,20,20,21,21,22,22,23,23,24,24,25,25,26,26,27,27,28,28,29,29,30,30,31,31,32,32,33,33,34,34,35,35,36,36,37,37,38,38,39,39,40,40,41,41,42,42,43,43,44,44,45,45,46,46,49,49,50,50,51,51,52,52,53,53,54,54,55,55,56,56,59,59,60,60,61,61],"right_children":[2,4,6,8,10,12,14,16,18,20,22,24,26,28,30,32,34,36,38,40,42,44,46,48,50,52,54,56,58,60,62,64,66,68,70,72,74,76,78,80,82,84,86,88,90,92,94,-1,-1,96,98,100,102,104,106,108,110,-1,-1,112,114,116,-1,-1,-1,-1,-1,-1,-1,-1,-1,-1,-1,-1,-1,-1,-1,-1,-1,-1,-1,-1,-1,-1,-1,-1,-1,-1,-1,-1,-1,-1,-1,-1,-1,-1,-1,-1,-1,-1,-1,-1,-1,-1,-1,-1,-1,-1,-1,-1,-1,-1,-1,-1,-1,-1,-1],"split_conditions":[4.8666668E1,3.1666666E1,7.7E1,3.2E1,3.8E1,7.4E1,8.5E1,2.2666666E1,2.7666666E1,4E1,5.1E1,2.3E1,7.3E1,1.23E2,8.3666664E1,2.2E1,3.6E1,2.79225E0,2.6E1,2.8E1,3E1,4.1333332E1,5.7E1,5.4E1,6.3E1,6.2E1,2.2255707E2,8.1666664E1,3E1,1.0761001E1,1.57E2,1.8666666E1,1.9E1,1.7E1,4E1,1.4E1,2.2E1,5E1,3.8E1,2.4E1,4.3E1,2.6141552E1,4.6E1,3.1E1,3.9E1,5.8E1,6.2145634E0,7.56572E0,1.9079888E0,5.9E1,6.6E1,8.4E1,9.2E1,1E-1,7.8E1,7.2E1,1.23E2,1.1233447E0,-1.9796785E0,9.826088E0,7.8E1,9.1E1,-7.856141E-1,-9.972533E-1,-4.021566E-1,-8.047329E-1,-1.5320253E0,9.562512E-1,-2.9771525E-1,-9.940656E-1,-1.9685096E0,-3.8010007E-1,6.368583E-1,-1.1353666E0,-1.5671995E0,-2.4520475E-1,-1.5785388E0,-8.693432E-1,-1.6082315E0,2.2683284E0,1.1111776E0,1.7474216E-1,-7.0999324E-1,1.916759E0,-1.225853E-1,1.0987574E0,6.629743E-2,1.2588838E-1,-7.856661E-1,8.4872764E-1,-1.1362343E-2,-6.630006E-1,-2.3003466E0,-4.9097863E-1,-2.0928283E0,9.617621E-1,5.163204E-2,2.2653034E0,1.0408036E0,-1.1563332E0,-3.244581E0,7.9025537E-1,-7.385309E-1,-2.836398E0,-9.291359E-1,4.5078567E-1,-5.533832E-1,4.07492E0,1.809322E0,5.7862873E0,1.3064492E0,1.2121322E0,-2.8545943E-1,-1.23786926E-1,-2.1065617E0,1.5431858E0,3.2755284E0],"split_indices":[3,3,3,1,1,0,0,3,3,3,0,1,1,1,3,0,0,5,0,0,1,3,0,0,3,3,8,3,0,5,0,3,1,1,0,0,0,1,1,0,0,7,0,0,0,1,7,0,0,0,1,0,0,6,0,1,2,0,0,7,1,3,0,0,0,0,0,0,0,0,0,0,0,0,0,0,0,0,0,0,0,0,0,0,0,0,0,0,0,0,0,0,0,0,0,0,0,0,0,0,0,0,0,0,0,0,0,0,0,0,0,0,0,0,0,0,0],"split_type":[0,0,0,0,0,0,0,0,0,0,0,0,0,0,0,0,0,0,0,0,0,0,0,0,0,0,0,0,0,0,0,0,0,0,0,0,0,0,0,0,0,0,0,0,0,0,0,0,0,0,0,0,0,0,0,0,0,0,0,0,0,0,0,0,0,0,0,0,0,0,0,0,0,0,0,0,0,0,0,0,0,0,0,0,0,0,0,0,0,0,0,0,0,0,0,0,0,0,0,0,0,0,0,0,0,0,0,0,0,0,0,0,0,0,0,0,0],"sum_hessian":[3.984E3,3.002E3,9.82E2,1.335E3,1.667E3,8.96E2,8.6E1,1.059E3,2.76E2,7.38E2,9.29E2,7.95E2,1.01E2,3.7E1,4.9E1,4.37E2,6.22E2,9.9E1,1.77E2,5.44E2,1.94E2,8.25E2,1.04E2,4E0,7.91E2,7.4E1,2.7E1,3.4E1,3E0,1.6E1,3.3E1,3.42E2,9.5E1,5.73E2,4.9E1,2E0,9.7E1,8.7E1,9E1,4E1,5.04E2,4.1E1,1.53E2,4.26E2,3.99E2,7.7E1,2.7E1,3E0,1E0,6.51E2,1.4E2,2.2E1,5.2E1,2E1,7E0,2.1E1,1.3E1,1E0,2E0,1.1E1,5E0,3.1E1,2E0,1.58E2,1.84E2,4.8E1,4.7E1,4.9E1,5.24E2,2.9E1,2E1,1E0,1E0,5.3E1,4.4E1,7.7E1,1E1,6.3E1,2.7E1,1.4E1,2.6E1,4.11E2,9.3E1,3.9E1,2E0,8.1E1,7.2E1,1.34E2,2.92E2,9.1E1,3.08E2,7E1,7E0,2E0,2.5E1,4.32E2,2.19E2,7.2E1,6.8E1,2E1,2E0,4.4E1,8E0,1.2E1,8E0,3E0,4E0,7E0,1.4E1,1.1E1,2E0,4E0,7E0,2E0,3E0,1.9E1,1.2E1],"tree_param":{"num_deleted":"0","num_feature":"9","num_nodes":"117","size_leaf_vector":"1"}},{"base_weights":[1.9415706E-2,-4.4566673E-1,3.0000565E0,-1.2358131E0,4.5190248E-1,8.062877E0,2.4990067E0,-1.1003654E0,-3.649961E0,1.1676103E0,-1.3586687E0,1.4945572E1,6.3126984E0,2.3858073E0,1.5684603E1,-1.6788555E0,-4.0081668E-1,4.8718995E-1,-4.239761E0,4.8754115E0,9.318251E-1,-1.0948179E0,-6.7971425E0,1.756264E1,2.1850739E0,4.6301775E0,1.1593584E1,4.730313E0,1.714961E0,5.78848E0,7.2804224E-1,-7.928155E-1,-2.2124298E0,1.7701223E0,-9.2244065E-1,-5.8750767E-1,1.4166905E0,-3.3337889E0,-5.6360965E0,4.154616E0,2.765728E0,3.4727377E-1,2.324956E0,-5.899867E-2,-2.2399113E0,-8.333435E-1,-7.3810506E0,1.5315E0,5.7099504E0,5.133303E0,-1.6450076E0,2.5767288E0,4.1405177E0,2.3243775E0,5.7579327E0,4.1336527E-1,3.8305695E0,-5.4877347E-1,8.1407495E-2,-4.8973128E-1,-8.9885825E-1,1.0363997E0,3.0409184E-1,1.0271686E-2,-5.3956187E-1,1.4530908E-1,8.08227E-1,-2.7533847E-1,-1.2006662E0,-2.6142406E-1,-1.7774086E0,2.0837908E0,1.0992435E0,8.43079E-1,-1.0076578E-2,1.4901136E0,4.9509057E-1,-5.9771234E-1,6.9633245E-1,-1.142795E0,-1.6186747E-1,-3.1527903E-2,-3.4347668E-1,-1.441132E0,-2.9132822E0,2.0294158E0,8.826436E-1,1.0657597E0,9.376831E-2,1.2597055E0,6.0820572E-2,2.1789007E0,1.0162243E0,4.4712865E-1,-7.0251834E-1,2.0006883E0,6.065693E-1],"categories":[],"categories_nodes":[],"categories_segments":[],"categories_sizes":[],"default_left":[0,0,0,0,0,0,0,0,0,0,0,0,0,0,0,0,0,0,0,0,0,0,0,0,0,0,0,0,0,0,0,0,0,0,0,0,0,0,0,0,0,0,0,0,0,0,0,0,0,0,0,0,0,0,0,0,0,0,0,0,0,0,0,0,0,0,0,0,0,0,0,0,0,0,0,0,0,0,0,0,0,0,0,0,0,0,0,0,0,0,0,0,0,0,0,0,0],"id":7,"left_children":[1,3,5,7,9,11,13,15,17,19,21,23,25,27,29,31,33,35,37,39,41,43,45,47,-1,49,51,53,55,-1,-1,57,59,61,63,-1,65,67,69,71,-1,73,75,77,79,81,83,-1,-1,85,-1,87,-1,89,91,93,95,-1,-1,-1,-1,-1,-1,-1,-1,-1,-1,-1,-1,-1,-1,-1,-1,-1,-1,-1,-1,-1,-1,-1,-1,-1,-1,-1,-1,-1,-1,-1,-1,-1,-1,-1,-1,-1,-1,-1,-1],"loss_changes":[5.525518E3,2.4459182E3,1.3446089E3,5.9568506E2,2.094368E3,4.8385864E2,6.9544824E2,7.0266455E2,2.3875452E2,1.00783264E3,6.4976337E2,5.2548462E1,3.0172754E2,7.594153E2,1.4463495E2,4.4784863E2,8.939749E2,3.232519E1,8.873889E1,1.7773071E2,8.868411E2,5.19384E2,6.69776E1,1.2751709E1,0E0,1.9097595E2,1.4363098E2,2.5363428E2,1.0475637E3,0E0,0E0,3.964522E2,2.646731E2,1.914704E2,5.3312244E2,0E0,1.060462E1,8.3532776E1,3.883966E1,5.8062744E1,0E0,7.214625E2,5.6576685E2,1.0676035E3,5.530016E2,5.603986E-1,6.744153E1,0E0,0E0,9.09126E1,0E0,5.517765E0,0E0,1.3437753E2,2.4298193E2,7.0676636E2,7.30905E2,0E0,0E0,0E0,0E0,0E0,0E0,0E0,0E0,0E0,0E0,0E0,0E0,0E0,0E0,0E0,0E0,0E0,0E0,0E0,0E0,0E0,0E0,0E0,0E0,0E0,0E0,0E0,0E0,0E0,0E0,0E0,0E0,0E0,0E0,0E0,0E0,0E0,0E0,0E0,0E0],"parents":[2147483647,0,0,1,1,2,2,3,3,4,4,5,5,6,6,7,7,8,8,9,9,10,10,11,11,12,12,13,13,14,14,15,15,16,16,17,17,18,18,19,19,20,20,21,21,22,22,23,23,25,25,26,26,27,27,28,28,31,31,32,32,33,33,34,34,36,36,37,37,38,38,39,39,41,41,42,42,43,43,44,44,45,45,46,46,49,49,51,51,53,53,54,54,55,55,56,56],"right_children":[2,4,6,8,10,12,14,16,18,20,22,24,26,28,30,32,34,36,38,40,42,44,46,48,-1,50,52,54,56,-1,-1,58,60,62,64,-1,66,68,70,72,-1,74,76,78,80,82,84,-1,-1,86,-1,88,-1,90,92,94,96,-1,-1,-1,-1,-1,-1,-1,-1,-1,-1,-1,-1,-1,-1,-1,-1,-1,-1,-1,-1,-1,-1,-1,-1,-1,-1,-1,-1,-1,-1,-1,-1,-1,-1,-1,-1,-1,-1,-1,-1],"split_conditions":[5.7E1,3.6E1,4.7E1,4E1,5.1E1,5.4E1,1.18666664E2,2.8E1,2.1E1,3.3E1,7.6E1,3.8E1,6.4333336E1,5.9E1,1.26E2,2E1,2.5E1,2.9666666E1,4.4E1,4.4333332E1,4.6666668E1,4.9E1,2.9662983E1,5.7333332E1,2.1850739E0,8.2E1,2.7E1,5.8666668E1,7.1666664E1,5.78848E0,7.2804224E-1,2.0333334E1,2.3E1,2.9E1,3E1,-5.8750767E-1,2.9E1,2.6E1,2.0191505E1,2.8E1,2.765728E0,3E1,4.7E1,4.6E1,5.3E1,4.2E1,6.3E1,1.5315E0,5.7099504E0,4.2E1,-1.6450076E0,8E1,4.1405177E0,6.2E1,6.8E1,7.2E1,7.7E1,-5.4877347E-1,8.1407495E-2,-4.8973128E-1,-8.9885825E-1,1.0363997E0,3.0409184E-1,1.0271686E-2,-5.3956187E-1,1.4530908E-1,8.08227E-1,-2.7533847E-1,-1.2006662E0,-2.6142406E-1,-1.7774086E0,2.0837908E0,1.0992435E0,8.43079E-1,-1.0076578E-2,1.4901136E0,4.9509057E-1,-5.9771234E-1,6.9633245E-1,-1.142795E0,-1.6186747E-1,-3.1527903E-2,-3.4347668E-1,-1.441132E0,-2.9132822E0,2.0294158E0,8.826436E-1,1.0657597E0,9.376831E-2,1.2597055E0,6.0820572E-2,2.1789007E0,1.0162243E0,4.4712865E-1,-7.0251834E-1,2.0006883E0,6.065693E-1],"split_indices":[3,3,1,0,1,0,3,3,1,0,1,1,3,0,0,1,1,3,0,3,3,0,8,3,0,0,2,3,3,0,0,3,0,0,0,0,2,1,8,0,0,1,0,3,3,0,2,0,0,1,0,0,0,1,1,0,0,0,0,0,0,0,0,0,0,0,0,0,0,0,0,0,0,0,0,0,0,0,0,0,0,0,0,0,0,0,0,0,0,0,0,0,0,0,0,0,0],"split_type":[0,0,0,0,0,0,0,0,0,0,0,0,0,0,0,0,0,0,0,0,0,0,0,0,0,0,0,0,0,0,0,0,0,0,0,0,0,0,0,0,0,0,0,0,0,0,0,0,0,0,0,0,0,0,0,0,0,0,0,0,0,0,0,0,0,0,0,0,0,0,0,0,0,0,0,0,0,0,0,0,0,0,0,0,0,0,0,0,0,0,0,0,0,0,0,0,0],"sum_hessian":[3.984E3,3.447E3,5.37E2,1.833E3,1.614E3,4.7E1,4.9E2,1.737E3,9.6E1,1.157E3,4.57E2,8E0,3.9E1,4.87E2,3E0,9.5E2,7.87E2,1.2E1,8.4E1,6.8E1,1.089E3,4.37E2,2E1,5E0,3E0,3.1E1,8E0,1.07E2,3.8E2,2E0,1E0,3.58E2,5.92E2,1.52E2,6.35E2,3E0,9E0,5.3E1,3.1E1,6E1,8E0,7.68E2,3.21E2,2.3E2,2.07E2,2E0,1.8E1,1E0,4E0,3E1,1E0,2E0,6E0,3.3E1,7.4E1,2.36E2,1.44E2,1.81E2,1.77E2,3.42E2,2.5E2,4.6E1,1.06E2,3.04E2,3.31E2,6E0,3E0,1.2E1,4.1E1,2E0,2.9E1,7E0,5.3E1,1.02E2,6.66E2,6.4E1,2.57E2,1.27E2,1.03E2,1.07E2,1E2,1E0,1E0,1E1,8E0,1.6E1,1.4E1,1E0,1E0,1.7E1,1.6E1,4.4E1,3E1,1.7E2,6.6E1,5.5E1,8.9E1],"tree_param":{"num_deleted":"0","num_feature":"9","num_nodes":"97","size_leaf_vector":"1"}},{"base_weights":[2.0621682E-2,-4.184008E-1,1.7287439E0,-9.4686973E-1,1.5914734E-1,3.4044545E0,1.0680918E0,-7.0609784E-1,-2.1174884E0,5.056885E-1,-2.2189856E0,5.9511147E0,2.4081028E0,2.24657E-1,2.6947975E0,-1.0865571E0,1.382514E-1,-1.9461347E-1,-2.5310621E0,1.0206517E0,-8.298413E-1,-1.2962103E0,-3.8585205E0,4.127897E0,5.0561595E0,2.121413E0,4.0681076E0,5.650027E0,-7.0810534E-2,3.6848226E0,1.4640473E-1,-9.812873E-1,-4.1688523E0,3.8208735E0,-1.8923597E-1,-1.693555E0,1.2005032E0,-2.2058804E0,-6.0604215E0,5.778753E-1,2.2962346E0,2.7601368E0,-1.2024364E0,-8.0643785E-1,-4.8341126E0,-2.412144E0,-3.1782558E0,3.7565246E0,6.9270444E0,4.095571E-1,2.847251E0,8.257393E0,1.5457573E0,8.034112E-1,-2.0256853E0,4.0564437E0,-7.457536E0,-2.0508375E0,4.3138447E0,-7.111475E-1,-2.4314015E-1,-4.7269174E-1,-1.3820839E0,1.916293E0,7.61598E-1,1.2341664E0,-1.1825647E-1,1.2462383E-1,-1.0140821E0,6.2471724E-1,-6.6995054E-1,-6.289678E-1,-1.3389077E0,-1.9610232E0,-4.0233633E-1,6.032129E-1,-3.4759544E-2,1.301937E0,4.615153E-1,3.0137816E-1,2.1145606E0,-1.0806454E0,-1.9972907E-1,-1.0003095E0,-7.443687E-2,-1.7815335E0,-8.1710094E-1,-6.5313554E-1,-1.3598428E0,1.5023707E0,8.0270416E-1,2.1396904E0,3.6170885E-1,1.2251848E0,-1.8334189E-1,9.183761E-1,-7.4191594E-1,4.5905572E-1,3.0989325E0,-6.7222023E-1,8.8431513E-1,-1.9705936E-2,6.6591966E-1,-4.12148E-1,-1.8709093E0,9.80569E-1,2.670591E0,8.024094E-1,-3.1977808E0,-2.1605538E-1,-2.7082868E0,2.4667466E0,4.730074E-1],"categories":[],"categories_nodes":[],"categories_segments":[],"categories_sizes":[],"default_left":[0,0,0,0,0,0,0,0,0,0,0,0,0,0,0,0,0,0,0,0,0,0,0,0,0,0,0,0,0,0,0,0,0,0,0,0,0,0,0,0,0,0,0,0,0,0,0,0,0,0,0,0,0,0,0,0,0,0,0,0,0,0,0,0,0,0,0,0,0,0,0,0,0,0,0,0,0,0,0,0,0,0,0,0,0,0,0,0,0,0,0,0,0,0,0,0,0,0,0,0,0,0,0,0,0,0,0,0,0,0,0,0,0],"id":8,"left_children":[1,3,5,7,9,11,13,15,17,19,21,23,25,27,29,31,33,35,37,39,41,43,45,-1,47,49,-1,51,53,55,57,59,61,63,65,67,69,71,73,75,77,79,81,83,85,-1,87,89,91,93,95,97,99,101,103,105,107,109,111,-1,-1,-1,-1,-1,-1,-1,-1,-1,-1,-1,-1,-1,-1,-1,-1,-1,-1,-1,-1,-1,-1,-1,-1,-1,-1,-1,-1,-1,-1,-1,-1,-1,-1,-1,-1,-1,-1,-1,-1,-1,-1,-1,-1,-1,-1,-1,-1,-1,-1,-1,-1,-1,-1],"loss_changes":[2.9890908E3,9.6799146E2,8.9861914E2,4.6525183E2,1.2504894E3,5.692639E2,8.0339856E2,4.418559E2,2.2376831E2,9.1142615E2,2.869926E2,3.7767993E2,5.0517157E2,6.207691E2,5.0405505E2,3.0350928E2,5.168963E2,1.08684235E2,2.528938E2,5.3861993E2,4.968964E2,2.126975E2,1.7073914E2,0E0,1.1743506E2,2.0260883E2,0E0,2.0126276E2,6.3053723E2,6.265172E2,5.307889E2,2.1592395E2,2.7959229E1,9.897409E1,3.4910397E2,9.033508E1,8.640936E1,4.3448364E1,3.3943665E1,7.0697766E2,3.7430627E2,2.5641544E2,4.2903558E2,1.5583578E2,1.8785065E1,0E0,7.285327E1,3.664453E1,1.8410522E1,1.9001784E2,1.3850482E2,1.5148962E2,5.438162E1,3.1403067E2,3.0433588E2,5.0538086E2,1.9071387E2,3.4627826E2,2.0100684E2,0E0,0E0,0E0,0E0,0E0,0E0,0E0,0E0,0E0,0E0,0E0,0E0,0E0,0E0,0E0,0E0,0E0,0E0,0E0,0E0,0E0,0E0,0E0,0E0,0E0,0E0,0E0,0E0,0E0,0E0,0E0,0E0,0E0,0E0,0E0,0E0,0E0,0E0,0E0,0E0,0E0,0E0,0E0,0E0,0E0,0E0,0E0,0E0,0E0,0E0,0E0,0E0,0E0,0E0],"parents":[2147483647,0,0,1,1,2,2,3,3,4,4,5,5,6,6,7,7,8,8,9,9,10,10,11,11,12,12,13,13,14,14,15,15,16,16,17,17,18,18,19,19,20,20,21,21,22,22,24,24,25,25,27,27,28,28,29,29,30,30,31,31,32,32,33,33,34,34,35,35,36,36,37,37,38,38,39,39,40,40,41,41,42,42,43,43,44,44,46,46,47,47,48,48,49,49,50,50,51,51,52,52,53,53,54,54,55,55,56,56,57,57,58,58],"right_children":[2,4,6,8,10,12,14,16,18,20,22,24,26,28,30,32,34,36,38,40,42,44,46,-1,48,50,-1,52,54,56,58,60,62,64,66,68,70,72,74,76,78,80,82,84,86,-1,88,90,92,94,96,98,100,102,104,106,108,110,112,-1,-1,-1,-1,-1,-1,-1,-1,-1,-1,-1,-1,-1,-1,-1,-1,-1,-1,-1,-1,-1,-1,-1,-1,-1,-1,-1,-1,-1,-1,-1,-1,-1,-1,-1,-1,-1,-1,-1,-1,-1,-1,-1,-1,-1,-1,-1,-1,-1,-1,-1,-1,-1,-1],"split_conditions":[5.1333332E1,3.4333332E1,5.3E1,3.6E1,5.2E1,5.5E1,6.7666664E1,2.8666666E1,1.9E1,4.8E1,5.7E1,3E1,8E1,4.4E1,8.7E1,3.4E1,2.4E1,2.7666666E1,4.9E1,4.3666668E1,2.7E1,5.6E1,4.2666668E1,4.127897E0,5.3666668E1,5.4333332E1,4.0681076E0,7.8E1,6.6E1,1.31E2,8.6666664E1,1.7333334E1,1.5E1,2E1,1.8E1,3.9E1,5.5E1,3.9E1,2.0925583E1,3.7E1,4.3E1,3.9666668E1,4E1,4.1333332E1,1.2879752E1,-2.412144E0,5E1,5.1E1,6.2E1,3.8E1,9.2E1,5.2666668E1,4.86475E0,5.9333332E1,8.4E1,8.1666664E1,3E1,1.08E2,5.1734996E0,-7.111475E-1,-2.4314015E-1,-4.7269174E-1,-1.3820839E0,1.916293E0,7.61598E-1,1.2341664E0,-1.1825647E-1,1.2462383E-1,-1.0140821E0,6.2471724E-1,-6.6995054E-1,-6.289678E-1,-1.3389077E0,-1.9610232E0,-4.0233633E-1,6.032129E-1,-3.4759544E-2,1.301937E0,4.615153E-1,3.0137816E-1,2.1145606E0,-1.0806454E0,-1.9972907E-1,-1.0003095E0,-7.443687E-2,-1.7815335E0,-8.1710094E-1,-6.5313554E-1,-1.3598428E0,1.5023707E0,8.0270416E-1,2.1396904E0,3.6170885E-1,1.2251848E0,-1.8334189E-1,9.183761E-1,-7.4191594E-1,4.5905572E-1,3.0989325E0,-6.7222023E-1,8.8431513E-1,-1.9705936E-2,6.6591966E-1,-4.12148E-1,-1.8709093E0,9.80569E-1,2.670591E0,8.024094E-1,-3.1977808E0,-2.1605538E-1,-2.7082868E0,2.4667466E0,4.730074E-1],"split_indices":[3,3,1,1,0,0,3,3,0,1,0,1,3,0,0,0,0,3,1,3,0,1,3,0,3,3,0,1,1,1,3,3,1,0,1,1,1,0,5,0,0,3,3,3,7,0,1,0,2,1,0,3,5,3,1,3,0,0,5,0,0,0,0,0,0,0,0,0,0,0,0,0,0,0,0,0,0,0,0,0,0,0,0,0,0,0,0,0,0,0,0,0,0,0,0,0,0,0,0,0,0,0,0,0,0,0,0,0,0,0,0,0,0],"split_type":[0,0,0,0,0,0,0,0,0,0,0,0,0,0,0,0,0,0,0,0,0,0,0,0,0,0,0,0,0,0,0,0,0,0,0,0,0,0,0,0,0,0,0,0,0,0,0,0,0,0,0,0,0,0,0,0,0,0,0,0,0,0,0,0,0,0,0,0,0,0,0,0,0,0,0,0,0,0,0,0,0,0,0,0,0,0,0,0,0,0,0,0,0,0,0,0,0,0,0,0,0,0,0,0,0,0,0,0,0,0,0,0,0],"sum_hessian":[3.984E3,3.17E3,8.14E2,1.655E3,1.515E3,2.29E2,5.85E2,1.374E3,2.81E2,1.323E3,1.92E2,6.3E1,1.66E2,3.86E2,1.99E2,9.47E2,4.27E2,5E1,2.31E2,9.55E2,3.68E2,1.24E2,6.8E1,5E0,5.8E1,1.63E2,3E0,1.9E1,3.67E2,1.43E2,5.6E1,9.17E2,3E1,3.4E1,3.93E2,2.4E1,2.6E1,2.13E2,1.8E1,7.1E2,2.45E2,3.4E1,3.34E2,1.1E2,1.4E1,8E0,6E1,3.6E1,2.2E1,4.9E1,1.14E2,1.1E1,8E0,2.54E2,1.13E2,1.39E2,4E0,3.7E1,1.9E1,9.9E1,8.18E2,5E0,2.5E1,1E1,2.4E1,1.7E1,3.76E2,1.1E1,1.3E1,2.1E1,5E0,2.05E2,8E0,1.6E1,2E0,2.31E2,4.79E2,6.5E1,1.8E2,2.5E1,9E0,6E1,2.74E2,1.9E1,9.1E1,8E0,6E0,3.6E1,2.4E1,1.5E1,2.1E1,2.1E1,1E0,1E1,3.9E1,1.1E2,4E0,3E0,8E0,2E0,6E0,1.58E2,9.6E1,9.9E1,1.4E1,1.21E2,1.8E1,1E0,3E0,3.2E1,5E0,7E0,1.2E1],"tree_param":{"num_deleted":"0","num_feature":"9","num_nodes":"113","size_leaf_vector":"1"}},{"base_weights":[1.6621578E-2,-5.2558184E-1,7.6546127E-1,-4.2045903E-1,-2.2585151E0,3.6377935E0,5.8260494E-1,-8.5984266E-1,-5.450636E-2,-6.9392E-1,-3.0873225E0,2.974567E0,7.1977735E0,4.2017832E-1,3.2579756E0,2.3330495E-1,-1.1296418E0,8.193641E-1,-6.114039E-1,-2.4736893E0,7.160458E-1,-3.6660917E0,-2.221761E0,3.3487742E0,-3.7573447E0,8.867164E0,-2.4355075E0,6.441642E-1,-1.5073661E0,6.4970846E0,2.114483E0,-2.5141196E0,5.5795246E-1,-4.8473638E-1,-1.4659911E0,2.596089E0,4.755853E-1,1.4688356E0,-7.970585E-1,-8.823166E-1,-3.0514174E0,1.8799549E0,-2.0163894E-1,-9.2410856E-1,-4.2197585E0,-1.8242855E0,-1.5134591E0,5.5394225E0,2.967581E0,-1.5669819E0,-3.1169054E-1,1.00741625E1,1.0898627E0,1.9099046E-1,-1.2869688E0,3.072672E-1,1.8807393E0,-2.464526E0,2.2876546E-1,7.9125776E0,-1.8120651E-1,1.5531619E0,1.0707333E1,-8.797376E-1,-1.76683E-1,7.885305E-1,1.4186788E-2,-3.3147937E-1,2.6516595E-1,-5.9589523E-1,-2.7274966E-1,5.59868E-1,1.3529698E0,-3.8137477E-2,4.170576E-1,7.239892E-1,-1.6222578E-1,-1.9766127E-1,-1.3450198E0,2.884369E-2,-4.9205992E-1,-2.3723803E-1,-1.0652022E0,8.7371546E-1,2.1793509E-1,1.933294E-1,-4.1445157E-1,-3.8296244E-1,-1.3317833E0,-4.4320962E-1,-7.8714025E-1,5.821892E-1,1.8370587E0,6.2964886E-1,1.1068958E0,3.2175815E0,6.3212705E-1,2.4825932E-1,-3.3265987E-1,1.505538E0,3.6722302E-1,-4.9706632E-1,-1.8930713E0,7.45903E-1,-2.4571784E-1,2.7802997E0,1.0295835E0,5.7303315E-1,-3.5446903E-1,7.774156E-1,-2.737229E-1,4.11705E0,2.4882431E-1],"categories":[],"categories_nodes":[],"categories_segments":[],"categories_sizes":[],"default_left":[0,0,0,0,0,0,0,0,0,0,0,0,0,0,0,0,0,0,0,0,0,0,0,0,0,0,0,0,0,0,0,0,0,0,0,0,0,0,0,0,0,0,0,0,0,0,0,0,0,0,0,0,0,0,0,0,0,0,0,0,0,0,0,0,0,0,0,0,0,0,0,0,0,0,0,0,0,0,0,0,0,0,0,0,0,0,0,0,0,0,0,0,0,0,0,0,0,0,0,0,0,0,0,0,0,0,0,0,0,0,0,0,0],"id":9,"left_children":[1,3,5,7,9,11,13,15,17,19,21,23,25,27,29,31,33,35,37,39,41,43,45,47,49,51,53,55,57,59,61,63,65,67,69,71,73,75,77,79,81,83,85,-1,87,89,-1,91,93,-1,-1,95,-1,-1,-1,97,99,101,103,105,107,109,111,-1,-1,-1,-1,-1,-1,-1,-1,-1,-1,-1,-1,-1,-1,-1,-1,-1,-1,-1,-1,-1,-1,-1,-1,-1,-1,-1,-1,-1,-1,-1,-1,-1,-1,-1,-1,-1,-1,-1,-1,-1,-1,-1,-1,-1,-1,-1,-1,-1,-1],"loss_changes":[1.6184056E3,4.20229E2,8.771057E2,3.5064404E2,1.6902844E2,2.1469702E2,6.830496E2,2.9253937E2,5.801086E2,1.1971372E2,3.4937378E1,2.2922772E2,2.6282153E2,6.425408E2,3.196126E2,1.7711583E2,1.7173566E2,2.821767E2,2.8232883E2,1.661467E1,2.921782E1,3.2165527E0,3.2314957E1,5.2036194E1,1.4497902E1,4.553308E1,1.9821934E1,5.5433124E2,2.581359E2,2.1885449E2,3.1135754E2,1.5185852E1,1.8702118E2,2.3355136E2,1.4943372E2,9.634485E1,2.1516142E2,1.1518373E2,3.378392E2,5.3486176E0,1.4121628E1,1.2175247E1,1.686228E1,0E0,9.193176E0,5.5541916E0,0E0,1.1239319E1,3.742169E1,0E0,0E0,2.9275085E1,0E0,0E0,0E0,7.730453E2,5.810778E2,3.0013904E2,1.3450706E2,8.3555176E1,1.2717234E1,1.6875227E2,1.0779138E2,0E0,0E0,0E0,0E0,0E0,0E0,0E0,0E0,0E0,0E0,0E0,0E0,0E0,0E0,0E0,0E0,0E0,0E0,0E0,0E0,0E0,0E0,0E0,0E0,0E0,0E0,0E0,0E0,0E0,0E0,0E0,0E0,0E0,0E0,0E0,0E0,0E0,0E0,0E0,0E0,0E0,0E0,0E0,0E0,0E0,0E0,0E0,0E0,0E0,0E0],"parents":[2147483647,0,0,1,1,2,2,3,3,4,4,5,5,6,6,7,7,8,8,9,9,10,10,11,11,12,12,13,13,14,14,15,15,16,16,17,17,18,18,19,19,20,20,21,21,22,22,23,23,24,24,25,25,26,26,27,27,28,28,29,29,30,30,31,31,32,32,33,33,34,34,35,35,36,36,37,37,38,38,39,39,40,40,41,41,42,42,44,44,45,45,47,47,48,48,51,51,55,55,56,56,57,57,58,58,59,59,60,60,61,61,62,62],"right_children":[2,4,6,8,10,12,14,16,18,20,22,24,26,28,30,32,34,36,38,40,42,44,46,48,50,52,54,56,58,60,62,64,66,68,70,72,74,76,78,80,82,84,86,-1,88,90,-1,92,94,-1,-1,96,-1,-1,-1,98,100,102,104,106,108,110,112,-1,-1,-1,-1,-1,-1,-1,-1,-1,-1,-1,-1,-1,-1,-1,-1,-1,-1,-1,-1,-1,-1,-1,-1,-1,-1,-1,-1,-1,-1,-1,-1,-1,-1,-1,-1,-1,-1,-1,-1,-1,-1,-1,-1,-1,-1,-1,-1,-1,-1],"split_conditions":[4.0666668E1,4.4E1,3.3E1,2.8333334E1,3.1E1,5.3E1,7.6E1,1.7E1,3.2E1,3.6333332E1,3.9E1,6.2E1,7.5E1,7.1E1,7.1E1,1.3666667E1,2E1,2.8E1,2.2E1,2E1,4.7E1,4.7E1,5.4E1,2.2E1,3.7E1,1.4300583E1,1.34E2,5.8E1,1.6035583E1,1.05E2,1.18666664E2,2.4380428E2,1.6E1,2.2666666E1,2.5333334E1,3.2E1,3.3666668E1,5.3E1,5.7E1,1.0514218E1,8.699793E0,2.2E1,1.9973697E2,-9.2410856E-1,2.7602396E1,5E1,-1.5134591E0,3.6690918E1,4.3666668E1,-1.5669819E0,-3.1169054E-1,1E0,1.0898627E0,1.9099046E-1,-1.2869688E0,5.4E1,5.8E1,8.9E1,5.1E1,2.3165585E2,2.79225E0,9.1E1,1.26E2,-8.797376E-1,-1.76683E-1,7.885305E-1,1.4186788E-2,-3.3147937E-1,2.6516595E-1,-5.9589523E-1,-2.7274966E-1,5.59868E-1,1.3529698E0,-3.8137477E-2,4.170576E-1,7.239892E-1,-1.6222578E-1,-1.9766127E-1,-1.3450198E0,2.884369E-2,-4.9205992E-1,-2.3723803E-1,-1.0652022E0,8.7371546E-1,2.1793509E-1,1.933294E-1,-4.1445157E-1,-3.8296244E-1,-1.3317833E0,-4.4320962E-1,-7.8714025E-1,5.821892E-1,1.8370587E0,6.2964886E-1,1.1068958E0,3.2175815E0,6.3212705E-1,2.4825932E-1,-3.3265987E-1,1.505538E0,3.6722302E-1,-4.9706632E-1,-1.8930713E0,7.45903E-1,-2.4571784E-1,2.7802997E0,1.0295835E0,5.7303315E-1,-3.5446903E-1,7.774156E-1,-2.737229E-1,4.11705E0,2.4882431E-1],"split_indices":[3,0,1,3,1,3,3,1,1,3,3,0,0,1,1,3,0,0,0,2,0,0,1,1,2,5,0,3,5,0,3,8,0,3,3,3,3,1,1,7,7,2,8,0,8,0,0,8,3,0,0,4,0,0,0,0,0,1,0,8,5,0,0,0,0,0,0,0,0,0,0,0,0,0,0,0,0,0,0,0,0,0,0,0,0,0,0,0,0,0,0,0,0,0,0,0,0,0,0,0,0,0,0,0,0,0,0,0,0,0,0,0,0],"split_type":[0,0,0,0,0,0,0,0,0,0,0,0,0,0,0,0,0,0,0,0,0,0,0,0,0,0,0,0,0,0,0,0,0,0,0,0,0,0,0,0,0,0,0,0,0,0,0,0,0,0,0,0,0,0,0,0,0,0,0,0,0,0,0,0,0,0,0,0,0,0,0,0,0,0,0,0,0,0,0,0,0,0,0,0,0,0,0,0,0,0,0,0,0,0,0,0,0,0,0,0,0,0,0,0,0,0,0,0,0,0,0,0,0],"sum_hessian":[3.984E3,2.311E3,1.673E3,2.18E3,1.31E2,9.9E1,1.574E3,9.9E2,1.19E3,4.6E1,8.5E1,8.5E1,1.4E1,1.485E3,8.9E1,1.96E2,7.94E2,4.63E2,7.27E2,2E1,2.6E1,4.9E1,3.6E1,8.1E1,4E0,1.2E1,2E0,1.331E3,1.54E2,2.2E1,6.7E1,2E1,1.76E2,2.73E2,5.21E2,7.4E1,3.89E2,5.9E1,6.68E2,6E0,1.4E1,1.1E1,1.5E1,2.7E1,2.2E1,3.3E1,3E0,1E1,7.1E1,2E0,2E0,9E0,3E0,1E0,1E0,1.047E3,2.84E2,9.9E1,5.5E1,1.8E1,4E0,6.4E1,3E0,1.6E1,4E0,3.4E1,1.42E2,1.88E2,8.5E1,2.68E2,2.53E2,5.5E1,1.9E1,2.35E2,1.54E2,4E1,1.9E1,6.45E2,2.3E1,3E0,3E0,3E0,1.1E1,5E0,6E0,9E0,6E0,2E0,2E1,2.5E1,8E0,2E0,8E0,3.4E1,3.7E1,8E0,1E0,7.66E2,2.81E2,4.8E1,2.36E2,8.3E1,1.6E1,1.7E1,3.8E1,1.3E1,5E0,1E0,3E0,4.5E1,1.9E1,2E0,1E0],"tree_param":{"num_deleted":"0","num_feature":"9","num_nodes":"113","size_leaf_vector":"1"}},{"base_weights":[1.3833704E-2,-2.837381E-1,9.2288184E-1,-2.0038672E-1,-2.3380263E0,2.6980908E0,5.4306185E-1,-4.6552584E-1,2.7235678E-1,1.1307434E0,-2.6375604E0,3.135873E0,2.4997532E0,6.8583764E-2,1.7634435E0,-2.205701E-2,-9.397251E-1,1.4948933E0,-4.156147E-1,-1.1211951E0,2.814923E0,-1.8567672E0,-4.027001E0,2.9245293E0,-2.0615728E-1,8.7049294E-1,-1.2465672E0,4.152666E0,7.998674E-1,-6.823203E-1,5.2254504E-1,-6.1006767E-1,-1.830415E0,4.47163E0,1.2222953E0,5.5824244E-1,-7.921185E-1,1.2327338E0,1.4803663E-1,-8.0568177E-1,-3.4421597E0,-1.2941992E0,-4.4989576E0,2.1708417E0,5.1065516E0,-9.8007697E-1,1.661392E0,1.0288053E0,-4.836644E0,-8.4440875E-1,-3.6971433E0,6.0368214E0,4.4956407E-1,-4.558529E-1,2.6059122E0,-1.4564437E-1,-8.3277303E-1,4.6362063E-1,4.0679246E-2,-3.3923844E-1,1.1837722E-1,-4.5327592E-1,-7.197021E-1,1.7432508E0,9.959948E-1,2.7270606E-1,9.138518E-1,3.0156149E-2,5.8473724E-1,-1.946114E-1,-7.628609E-1,-9.462424E-1,5.2067224E-2,-1.2553396E0,-7.8717047E-1,1.4322181E-1,-8.226765E-1,-1.3916032E0,-4.806326E-1,1.0715584E0,4.0870407E-1,2.2699962E0,1.086911E0,8.55255E-2,-8.5176283E-1,-1.5292484E-1,4.9277988E-1,1.2785721E-2,-1.8185362E0,-7.3513514E-1,-4.9523823E-2,4.25774E-1,-1.1744995E0,8.6886746E-1,2.1903617E0,3.1864846E-1,-1.1965417E0,2.833974E-1,-9.6018636E-1,1.4135245E0,4.4150606E-1],"categories":[],"categories_nodes":[],"categories_segments":[],"categories_sizes":[],"default_left":[0,0,0,0,0,0,0,0,0,0,0,0,0,0,0,0,0,0,0,0,0,0,0,0,0,0,0,0,0,0,0,0,0,0,0,0,0,0,0,0,0,0,0,0,0,0,0,0,0,0,0,0,0,0,0,0,0,0,0,0,0,0,0,0,0,0,0,0,0,0,0,0,0,0,0,0,0,0,0,0,0,0,0,0,0,0,0,0,0,0,0,0,0,0,0,0,0,0,0,0,0],"id":10,"left_children":[1,3,5,7,9,11,13,15,17,19,21,-1,23,25,27,29,31,33,35,-1,37,39,41,43,45,47,49,51,53,55,57,59,61,63,65,67,69,-1,-1,71,73,75,77,79,81,83,-1,85,87,89,91,93,95,97,99,-1,-1,-1,-1,-1,-1,-1,-1,-1,-1,-1,-1,-1,-1,-1,-1,-1,-1,-1,-1,-1,-1,-1,-1,-1,-1,-1,-1,-1,-1,-1,-1,-1,-1,-1,-1,-1,-1,-1,-1,-1,-1,-1,-1,-1,-1],"loss_changes":[1.0782327E3,5.137285E2,6.6133215E2,3.6199142E2,1.2454712E2,2.3995654E2,4.6948407E2,3.8902054E2,8.736522E2,9.250714E1,1.0968829E2,0E0,1.9600195E2,6.1804456E2,5.192773E2,3.444753E2,2.6138196E2,2.9801752E2,2.442717E2,0E0,2.2007683E1,1.1553992E2,4.3188477E1,2.3066528E2,1.1211952E2,3.3385367E2,2.1566357E2,4.508053E2,3.7085345E2,1.770918E2,2.0758124E2,3.4258817E2,4.0155945E1,2.8519226E1,1.9378412E2,1.1821857E2,1.1886975E2,0E0,0E0,1.0173439E2,6.027527E0,1.926685E1,5.5202637E0,1.2086554E2,1.0762091E2,5.2555687E1,0E0,3.3608377E2,6.0036316E1,2.090735E2,4.0109863E1,1.4960364E2,6.6767166E1,3.7589905E2,1.5309485E2,0E0,0E0,0E0,0E0,0E0,0E0,0E0,0E0,0E0,0E0,0E0,0E0,0E0,0E0,0E0,0E0,0E0,0E0,0E0,0E0,0E0,0E0,0E0,0E0,0E0,0E0,0E0,0E0,0E0,0E0,0E0,0E0,0E0,0E0,0E0,0E0,0E0,0E0,0E0,0E0,0E0,0E0,0E0,0E0,0E0,0E0],"parents":[2147483647,0,0,1,1,2,2,3,3,4,4,5,5,6,6,7,7,8,8,9,9,10,10,12,12,13,13,14,14,15,15,16,16,17,17,18,18,20,20,21,21,22,22,23,23,24,24,25,25,26,26,27,27,28,28,29,29,30,30,31,31,32,32,33,33,34,34,35,35,36,36,39,39,40,40,41,41,42,42,43,43,44,44,45,45,47,47,48,48,49,49,50,50,51,51,52,52,53,53,54,54],"right_children":[2,4,6,8,10,12,14,16,18,20,22,-1,24,26,28,30,32,34,36,-1,38,40,42,44,46,48,50,52,54,56,58,60,62,64,66,68,70,-1,-1,72,74,76,78,80,82,84,-1,86,88,90,92,94,96,98,100,-1,-1,-1,-1,-1,-1,-1,-1,-1,-1,-1,-1,-1,-1,-1,-1,-1,-1,-1,-1,-1,-1,-1,-1,-1,-1,-1,-1,-1,-1,-1,-1,-1,-1,-1,-1,-1,-1,-1,-1,-1,-1,-1,-1,-1,-1],"split_conditions":[4.8666668E1,5.7E1,5.1E1,3.6333332E1,1.9E1,2.8E1,6.6666664E1,2.7E1,4E1,3.1E1,6.6E1,3.135873E0,7.8E1,5.8E1,7.1E1,2.3E1,3.4E1,3E1,3.6E1,-1.1211951E0,1.6E1,4.2E1,4.6E1,5.3333332E1,8.8E1,8E1,7E1,8E1,7.9333336E1,2.6E1,2E1,3.1333334E1,3.9E1,2.7E1,4.3666668E1,4.4E1,5.5E1,1.2327338E0,1.4803663E-1,3.7333332E1,4.6666668E1,2.8E1,8.3E1,4.8E1,4.7E1,9.3E1,1.661392E0,5.2333332E1,2.7339844E1,5.6E1,7.968939E0,6.8E1,9.9E1,7.4E1,8.5E1,-1.4564437E-1,-8.3277303E-1,4.6362063E-1,4.0679246E-2,-3.3923844E-1,1.1837722E-1,-4.5327592E-1,-7.197021E-1,1.7432508E0,9.959948E-1,2.7270606E-1,9.138518E-1,3.0156149E-2,5.8473724E-1,-1.946114E-1,-7.628609E-1,-9.462424E-1,5.2067224E-2,-1.2553396E0,-7.8717047E-1,1.4322181E-1,-8.226765E-1,-1.3916032E0,-4.806326E-1,1.0715584E0,4.0870407E-1,2.2699962E0,1.086911E0,8.55255E-2,-8.5176283E-1,-1.5292484E-1,4.9277988E-1,1.2785721E-2,-1.8185362E0,-7.3513514E-1,-4.9523823E-2,4.25774E-1,-1.1744995E0,8.6886746E-1,2.1903617E0,3.1864846E-1,-1.1965417E0,2.833974E-1,-9.6018636E-1,1.4135245E0,4.4150606E-1],"split_indices":[3,1,0,3,0,0,3,1,0,3,1,0,1,1,0,3,0,0,1,0,0,0,2,3,2,0,0,1,3,0,1,3,0,0,3,3,0,0,0,3,3,0,2,1,0,1,0,3,8,3,7,3,1,1,0,0,0,0,0,0,0,0,0,0,0,0,0,0,0,0,0,0,0,0,0,0,0,0,0,0,0,0,0,0,0,0,0,0,0,0,0,0,0,0,0,0,0,0,0,0,0],"split_type":[0,0,0,0,0,0,0,0,0,0,0,0,0,0,0,0,0,0,0,0,0,0,0,0,0,0,0,0,0,0,0,0,0,0,0,0,0,0,0,0,0,0,0,0,0,0,0,0,0,0,0,0,0,0,0,0,0,0,0,0,0,0,0,0,0,0,0,0,0,0,0,0,0,0,0,0,0,0,0,0,0,0,0,0,0,0,0,0,0,0,0,0,0,0,0,0,0,0,0,0,0],"sum_hessian":[3.984E3,3.002E3,9.82E2,2.886E3,1.16E2,1.72E2,8.1E2,1.849E3,1.037E3,9E0,1.07E2,3E0,1.69E2,5.84E2,2.26E2,9.56E2,8.93E2,3.73E2,6.64E2,2E0,7E0,7E1,3.7E1,1.46E2,2.3E1,3.63E2,2.21E2,6.4E1,1.62E2,4.32E2,5.24E2,6.53E2,2.4E2,3E1,3.43E2,1.85E2,4.79E2,4E0,3E0,4.3E1,2.7E1,6E0,3.1E1,1.1E2,3.6E1,2.1E1,2E0,3.54E2,9E0,1.91E2,3E1,4.2E1,2.2E1,9.6E1,6.6E1,3.96E2,3.6E1,1.43E2,3.81E2,4.3E2,2.23E2,1.56E2,8.4E1,1.2E1,1.8E1,2.94E2,4.9E1,1.4E2,4.5E1,4.44E2,3.5E1,1.2E1,3.1E1,1.2E1,1.5E1,3E0,3E0,2.9E1,2E0,3.9E1,7.1E1,1.2E1,2.4E1,1.3E1,8E0,1.01E2,2.53E2,2E0,7E0,5.6E1,1.35E2,1E0,2.9E1,1.3E1,2.9E1,2E1,2E0,6.4E1,3.2E1,2.2E1,4.4E1],"tree_param":{"num_deleted":"0","num_feature":"9","num_nodes":"101","size_leaf_vector":"1"}},{"base_weights":[1.1117778E-2,-1.6639209E-1,8.135847E-1,-1.3540669E-1,-4.3437796E0,2.347442E0,3.9013612E-1,-6.2193654E-2,-1.6331954E0,-1.5446165E0,-1.6216549E0,3.5049953E0,1.4821019E0,1.9621657E-2,1.6736538E0,-3.0066866E-1,4.58001E-1,-1.0149359E0,-2.5800586E0,-8.1334174E-1,-7.039191E-1,2.3562431E0,3.173224E0,6.718898E-1,3.1911108E0,6.801717E-1,-8.89628E-1,3.9047997E0,4.8503393E-1,-1.370813E-1,-1.1477755E0,1.9981068E0,2.1360564E-1,-1.7915117E0,7.6066273E-1,-2.2236958E0,-1.4728967E0,2.5159838E-2,-2.6347482E-1,4.0766473E0,2.7212625E0,2.242785E0,-5.7423767E-2,3.7580836E0,-1.2919903E0,7.926055E-1,-1.5367573E0,-2.78943E0,-4.3080354E-1,6.684224E0,1.9072279E0,-1.509567E-1,5.801729E0,7.570804E-1,-5.3864885E-2,-4.052577E-1,1.01945505E-1,1.2475153E0,4.736871E-1,2.4806425E-1,-1.0373896E-1,-1.2758648E0,-3.9599696E-1,4.0856495E-1,-2.963329E-1,-7.187708E-1,-1.4262743E-1,1.3209088E0,2.604805E-1,8.531417E-1,1.73172E-2,1.212407E0,4.6216723E-1,6.869025E-2,-1.214328E0,1.6316866E0,4.0314636E-1,6.932001E-1,-9.789296E-1,1.3401093E0,1.9143985E-1,-6.155054E-1,-1.5345235E0,2.8969672E-1,-3.457963E-1,2.1093543E0,1.1789361E-1,1.5647933E0,3.3150345E-1,1.7854898E-1,-1.5404594E0,2.6408327E0,4.92101E-1],"categories":[],"categories_nodes":[],"categories_segments":[],"categories_sizes":[],"default_left":[0,0,0,0,0,0,0,0,0,0,0,0,0,0,0,0,0,0,0,0,0,0,0,0,0,0,0,0,0,0,0,0,0,0,0,0,0,0,0,0,0,0,0,0,0,0,0,0,0,0,0,0,0,0,0,0,0,0,0,0,0,0,0,0,0,0,0,0,0,0,0,0,0,0,0,0,0,0,0,0,0,0,0,0,0,0,0,0,0,0,0,0,0],"id":11,"left_children":[1,3,5,7,9,11,13,15,17,19,-1,21,23,25,27,29,31,33,35,-1,37,-1,39,41,43,45,47,49,51,53,55,57,59,61,63,65,-1,-1,-1,67,69,71,73,75,77,79,-1,81,83,85,87,89,91,-1,-1,-1,-1,-1,-1,-1,-1,-1,-1,-1,-1,-1,-1,-1,-1,-1,-1,-1,-1,-1,-1,-1,-1,-1,-1,-1,-1,-1,-1,-1,-1,-1,-1,-1,-1,-1,-1,-1,-1],"loss_changes":[5.6778186E2,4.2189758E2,4.6803015E2,3.552989E2,6.2977997E1,1.510669E2,2.6961078E2,3.8358682E2,8.577789E1,5.9371185E0,0E0,7.0309875E1,1.2385997E2,2.6547186E2,3.3490802E2,2.9362378E2,3.6542877E2,1.2959921E2,3.806314E1,0E0,8.9766407E-1,0E0,1.4630066E1,7.230633E1,7.8567474E1,1.7107938E2,1.6092998E2,2.3154407E2,2.8491077E2,2.013577E2,1.0408127E2,1.13862915E2,2.884626E2,6.9824585E1,3.1829954E1,1.4817352E1,0E0,0E0,0E0,1.6072968E1,1.4523804E1,1.9034195E1,5.120989E1,9.820068E1,3.5944843E1,1.4018423E2,0E0,5.1271973E1,1.5332635E2,3.65271E1,6.590328E1,2.8566916E2,9.7957245E1,0E0,0E0,0E0,0E0,0E0,0E0,0E0,0E0,0E0,0E0,0E0,0E0,0E0,0E0,0E0,0E0,0E0,0E0,0E0,0E0,0E0,0E0,0E0,0E0,0E0,0E0,0E0,0E0,0E0,0E0,0E0,0E0,0E0,0E0,0E0,0E0,0E0,0E0,0E0,0E0],"parents":[2147483647,0,0,1,1,2,2,3,3,4,4,5,5,6,6,7,7,8,8,9,9,11,11,12,12,13,13,14,14,15,15,16,16,17,17,18,18,20,20,22,22,23,23,24,24,25,25,26,26,27,27,28,28,29,29,30,30,31,31,32,32,33,33,34,34,35,35,39,39,40,40,41,41,42,42,43,43,44,44,45,45,47,47,48,48,49,49,50,50,51,51,52,52],"right_children":[2,4,6,8,10,12,14,16,18,20,-1,22,24,26,28,30,32,34,36,-1,38,-1,40,42,44,46,48,50,52,54,56,58,60,62,64,66,-1,-1,-1,68,70,72,74,76,78,80,-1,82,84,86,88,90,92,-1,-1,-1,-1,-1,-1,-1,-1,-1,-1,-1,-1,-1,-1,-1,-1,-1,-1,-1,-1,-1,-1,-1,-1,-1,-1,-1,-1,-1,-1,-1,-1,-1,-1,-1,-1,-1,-1,-1,-1],"split_conditions":[5.3E1,6.5E1,5.6E1,5.8E1,3.0227757E1,5.8E1,7.3333336E1,3.9E1,4.5E1,4.4333332E1,-1.6216549E0,2.3E1,5.8666668E1,6.1E1,7.2E1,3.9E1,3.8E1,4.6E1,7.4E1,-8.1334174E-1,4.5E1,2.3562431E0,5.2E1,6.3E1,1.15E2,9.2E1,5.9333332E1,7.7E1,1.03E2,1.2E1,5.9E1,3.2E1,4.3E1,5.656416E0,2.442071E2,5.2666668E1,-1.4728967E0,2.5159838E-2,-2.6347482E-1,6.0666668E1,2.4023088E1,2.2910944E1,9.3E1,5.1E1,3E1,3.4E1,-1.5367573E0,7.3E1,6.5E1,2.80735E1,4.7E1,9.9E1,1.14862E1,7.570804E-1,-5.3864885E-2,-4.052577E-1,1.01945505E-1,1.2475153E0,4.736871E-1,2.4806425E-1,-1.0373896E-1,-1.2758648E0,-3.9599696E-1,4.0856495E-1,-2.963329E-1,-7.187708E-1,-1.4262743E-1,1.3209088E0,2.604805E-1,8.531417E-1,1.73172E-2,1.212407E0,4.6216723E-1,6.869025E-2,-1.214328E0,1.6316866E0,4.0314636E-1,6.932001E-1,-9.789296E-1,1.3401093E0,1.9143985E-1,-6.155054E-1,-1.5345235E0,2.8969672E-1,-3.457963E-1,2.1093543E0,1.1789361E-1,1.5647933E0,3.3150345E-1,1.7854898E-1,-1.5404594E0,2.6408327E0,4.92101E-1],"split_indices":[3,0,0,1,8,1,3,3,0,3,0,1,3,1,1,1,0,3,1,0,3,0,0,1,1,0,3,0,3,1,2,0,1,5,8,3,0,0,0,3,7,8,1,0,0,1,0,1,0,5,1,0,7,0,0,0,0,0,0,0,0,0,0,0,0,0,0,0,0,0,0,0,0,0,0,0,0,0,0,0,0,0,0,0,0,0,0,0,0,0,0,0,0],"split_type":[0,0,0,0,0,0,0,0,0,0,0,0,0,0,0,0,0,0,0,0,0,0,0,0,0,0,0,0,0,0,0,0,0,0,0,0,0,0,0,0,0,0,0,0,0,0,0,0,0,0,0,0,0,0,0,0,0,0,0,0,0,0,0,0,0,0,0,0,0,0,0,0,0,0,0,0,0,0,0,0,0,0,0,0,0,0,0,0,0,0,0,0,0],"sum_hessian":[3.984E3,3.263E3,7.21E2,3.24E3,2.3E1,1.55E2,5.66E2,3.09E3,1.5E2,7E0,1.6E1,6.5E1,9E1,4.4E2,1.26E2,2.119E3,9.71E2,9.2E1,5.8E1,2E0,5E0,3E0,6.2E1,6.2E1,2.8E1,2.55E2,1.85E2,4.3E1,8.3E1,1.777E3,3.42E2,1.32E2,8.39E2,6.4E1,2.8E1,5.2E1,6E0,1E0,4E0,1.8E1,4.4E1,1.9E1,4.3E1,2.5E1,3E0,2.51E2,4E0,3.5E1,1.5E2,1.7E1,2.6E1,7.5E1,8E0,2.7E1,1.75E3,3.01E2,4.1E1,2E1,1.12E2,4E2,4.39E2,9E0,5.5E1,2.1E1,7E0,4.7E1,5E0,1.6E1,2E0,4.2E1,2E0,4E0,1.5E1,4.1E1,2E0,1.4E1,1.1E1,1E0,2E0,9E0,2.42E2,2.8E1,7E0,5.1E1,9.9E1,1.6E1,1E0,4E0,2.2E1,6.6E1,9E0,4E0,4E0],"tree_param":{"num_deleted":"0","num_feature":"9","num_nodes":"93","size_leaf_vector":"1"}},{"base_weights":[9.405361E-3,-1.7832315E-1,5.190454E-1,-7.1232036E-2,-1.139332E0,2.7859523E0,3.6529917E-1,-4.0872568E-1,1.5878525E-1,-3.9748724E0,-9.9296325E-1,3.4254825E0,1.0798059E0,8.164656E-1,-8.9291185E-2,-1.6325937E-1,-1.2921226E0,1.0116379E0,-1.1671953E-1,-4.6458783E0,3.4107845E-2,8.9585614E-1,-1.3600261E0,2.567617E0,4.5410066E0,1.846298E0,-1.5889301E0,6.209335E-1,3.2031124E0,-6.753564E-1,8.2913387E-1,-1.1142244E0,1.0995476E-1,-6.981501E-1,-1.9279654E0,5.921333E-1,2.1533012E0,7.662022E-1,-3.0314532E-1,-4.869675E0,-3.276169E-1,1.2678853E-1,-1.11439995E-1,2.6051774E0,1.4354241E-1,-1.2172505E0,-3.5166981E0,1.0812064E0,3.0589843E0,1.6361752E0,4.9573784E0,1.0720913E0,9.727151E-1,3.3416158E-1,-1.1286267E0,8.9543796E-1,-1.0947703E0,1.3374321E0,4.361711E0,-5.2048457E-1,-3.4595575E0,3.655062E0,2.9640555E-1,1.0017303E-1,-4.286249E-1,3.257896E-1,-7.1000054E-2,-1.3295686E-1,-1.0451682E0,6.136925E-1,-6.0589296E-1,6.6310656E-1,9.632753E-2,1.4415174E0,5.438514E-1,-7.767712E-2,3.9568454E-1,-4.181433E-1,-3.5583E-2,-3.3780757E-1,-1.5394312E0,3.3896658E-1,9.2469126E-1,9.658949E-1,-1.5622498E-1,-9.8292583E-1,-3.2184014E-1,-1.1076899E0,-1.8508215E-1,4.231449E-1,9.5096976E-2,1.1098175E0,6.2468064E-1,9.9407576E-2,8.3259374E-1,6.7047733E-1,1.6143371E0,-2.849949E-1,4.3567592E-1,1.0954274E-1,3.8972735E-1,-8.219609E-1,-5.6812122E-2,9.232835E-1,-4.331017E-3,-2.2043304E-1,1.4646242E0,-5.081746E-1,-7.775499E-2,1.5800667E-1,-1.2199928E0,1.8271302E0,6.0332584E-1,4.219738E-2,1.9707059E0],"categories":[],"categories_nodes":[],"categories_segments":[],"categories_sizes":[],"default_left":[0,0,0,0,0,0,0,0,0,0,0,0,0,0,0,0,0,0,0,0,0,0,0,0,0,0,0,0,0,0,0,0,0,0,0,0,0,0,0,0,0,0,0,0,0,0,0,0,0,0,0,0,0,0,0,0,0,0,0,0,0,0,0,0,0,0,0,0,0,0,0,0,0,0,0,0,0,0,0,0,0,0,0,0,0,0,0,0,0,0,0,0,0,0,0,0,0,0,0,0,0,0,0,0,0,0,0,0,0,0,0,0,0,0,0],"id":12,"left_children":[1,3,5,7,9,11,13,15,17,19,21,23,25,27,29,31,33,35,37,39,41,43,45,47,49,51,53,55,57,59,61,63,65,67,69,71,73,75,77,79,-1,-1,-1,81,83,85,87,89,91,93,95,-1,97,-1,-1,99,101,103,105,107,109,111,113,-1,-1,-1,-1,-1,-1,-1,-1,-1,-1,-1,-1,-1,-1,-1,-1,-1,-1,-1,-1,-1,-1,-1,-1,-1,-1,-1,-1,-1,-1,-1,-1,-1,-1,-1,-1,-1,-1,-1,-1,-1,-1,-1,-1,-1,-1,-1,-1,-1,-1,-1,-1],"loss_changes":[3.8135333E2,2.9971176E2,3.7295328E2,2.0360912E2,1.17243225E2,7.049817E1,2.0639938E2,2.3029443E2,3.666634E2,3.7819138E1,1.9465341E2,3.5231934E1,4.3844944E1,2.3367749E2,2.7076498E2,2.1655017E2,8.5896484E1,1.8119846E2,1.9445955E2,4.226013E0,6.297144E-1,5.8779552E1,6.7772644E1,1.8603806E1,1.6078644E1,2.066745E1,3.355857E1,2.2139351E2,7.6306335E1,1.3057602E2,2.9398523E2,8.519536E1,2.194795E2,8.43968E1,4.456775E1,1.22099754E2,8.337741E1,1.17068214E2,1.960694E2,5.0012817E0,0E0,0E0,0E0,6.3719406E0,6.910997E1,6.2220886E1,4.850891E0,1.8176384E0,6.057785E0,5.025837E0,7.5852966E0,0E0,1.2443695E1,0E0,0E0,8.600406E1,9.629652E1,3.768434E1,6.45845E1,8.90937E1,4.0861664E1,1.1186612E2,1.6124883E2,0E0,0E0,0E0,0E0,0E0,0E0,0E0,0E0,0E0,0E0,0E0,0E0,0E0,0E0,0E0,0E0,0E0,0E0,0E0,0E0,0E0,0E0,0E0,0E0,0E0,0E0,0E0,0E0,0E0,0E0,0E0,0E0,0E0,0E0,0E0,0E0,0E0,0E0,0E0,0E0,0E0,0E0,0E0,0E0,0E0,0E0,0E0,0E0,0E0,0E0,0E0,0E0],"parents":[2147483647,0,0,1,1,2,2,3,3,4,4,5,5,6,6,7,7,8,8,9,9,10,10,11,11,12,12,13,13,14,14,15,15,16,16,17,17,18,18,19,19,20,20,21,21,22,22,23,23,24,24,25,25,26,26,27,27,28,28,29,29,30,30,31,31,32,32,33,33,34,34,35,35,36,36,37,37,38,38,39,39,43,43,44,44,45,45,46,46,47,47,48,48,49,49,50,50,52,52,55,55,56,56,57,57,58,58,59,59,60,60,61,61,62,62],"right_children":[2,4,6,8,10,12,14,16,18,20,22,24,26,28,30,32,34,36,38,40,42,44,46,48,50,52,54,56,58,60,62,64,66,68,70,72,74,76,78,80,-1,-1,-1,82,84,86,88,90,92,94,96,-1,98,-1,-1,100,102,104,106,108,110,112,114,-1,-1,-1,-1,-1,-1,-1,-1,-1,-1,-1,-1,-1,-1,-1,-1,-1,-1,-1,-1,-1,-1,-1,-1,-1,-1,-1,-1,-1,-1,-1,-1,-1,-1,-1,-1,-1,-1,-1,-1,-1,-1,-1,-1,-1,-1,-1,-1,-1,-1,-1,-1],"split_conditions":[4.7666668E1,4.9E1,4.4E1,2.9E1,3.1333334E1,6.9E1,5.7E1,2.7E1,3.2E1,6.4999995E0,2.8E1,4.9666668E1,1E0,6.5E1,6.7333336E1,1.9E1,2.4E1,3.3666668E1,2.8E1,5.9E1,1.6E1,1.0105681E1,6.9E1,9.423499E0,2.0191505E1,3E1,2.1098501E1,6.5E1,7.513083E0,7.5E1,6.7E1,1.3E1,1.9E1,3.7E1,1.8333334E1,2.3E1,2.4E1,3.3E1,3.4E1,4.1E1,-3.276169E-1,1.2678853E-1,-1.11439995E-1,3.8106026E1,1.6E1,3.5666668E1,1.4710586E1,4.3E1,5E1,3.9E1,2.7E1,1.0720913E0,3.2E1,3.3416158E-1,-1.1286267E0,5.1333332E1,5.7333332E1,5.1E1,3.6359764E1,5.3E1,8.427383E0,7.1E1,1.18666664E2,1.0017303E-1,-4.286249E-1,3.257896E-1,-7.1000054E-2,-1.3295686E-1,-1.0451682E0,6.136925E-1,-6.0589296E-1,6.6310656E-1,9.632753E-2,1.4415174E0,5.438514E-1,-7.767712E-2,3.9568454E-1,-4.181433E-1,-3.5583E-2,-3.3780757E-1,-1.5394312E0,3.3896658E-1,9.2469126E-1,9.658949E-1,-1.5622498E-1,-9.8292583E-1,-3.2184014E-1,-1.1076899E0,-1.8508215E-1,4.231449E-1,9.5096976E-2,1.1098175E0,6.2468064E-1,9.9407576E-2,8.3259374E-1,6.7047733E-1,1.6143371E0,-2.849949E-1,4.3567592E-1,1.0954274E-1,3.8972735E-1,-8.219609E-1,-5.6812122E-2,9.232835E-1,-4.331017E-3,-2.2043304E-1,1.4646242E0,-5.081746E-1,-7.775499E-2,1.5800667E-1,-1.2199928E0,1.8271302E0,6.0332584E-1,4.219738E-2,1.9707059E0],"split_indices":[3,1,0,3,3,1,1,0,0,6,0,3,4,3,3,3,1,3,1,2,0,7,1,5,8,0,5,0,5,0,0,0,0,0,3,0,0,3,3,2,0,0,0,8,0,3,5,0,1,2,2,0,0,0,0,3,3,1,8,3,7,1,3,0,0,0,0,0,0,0,0,0,0,0,0,0,0,0,0,0,0,0,0,0,0,0,0,0,0,0,0,0,0,0,0,0,0,0,0,0,0,0,0,0,0,0,0,0,0,0,0,0,0,0,0],"split_type":[0,0,0,0,0,0,0,0,0,0,0,0,0,0,0,0,0,0,0,0,0,0,0,0,0,0,0,0,0,0,0,0,0,0,0,0,0,0,0,0,0,0,0,0,0,0,0,0,0,0,0,0,0,0,0,0,0,0,0,0,0,0,0,0,0,0,0,0,0,0,0,0,0,0,0,0,0,0,0,0,0,0,0,0,0,0,0,0,0,0,0,0,0,0,0,0,0,0,0,0,0,0,0,0,0,0,0,0,0,0,0,0,0,0,0],"sum_hessian":[3.984E3,2.912E3,1.072E3,2.621E3,2.91E2,6.7E1,1.005E3,1.062E3,1.559E3,1.3E1,2.78E2,4.8E1,1.9E1,5.04E2,5.01E2,8.32E2,2.3E2,3.8E2,1.179E3,1.1E1,2E0,4.5E1,2.33E2,2.9E1,1.9E1,1.5E1,4E0,4.67E2,3.7E1,3.06E2,1.95E2,1.85E2,6.47E2,1.2E2,1.1E2,2.79E2,1.01E2,2.05E2,9.74E2,1E1,1E0,1E0,1E0,1.3E1,3.2E1,2.2E2,1.3E1,8E0,2.1E1,3E0,1.6E1,4E0,1.1E1,2E0,2E0,4.03E2,6.4E1,1.5E1,2.2E1,2.91E2,1.5E1,3E1,1.65E2,3.3E1,1.52E2,1.69E2,4.78E2,1.11E2,9E0,2E0,1.08E2,3.9E1,2.4E2,1E1,9.1E1,7.2E1,1.33E2,1.4E2,8.34E2,1E0,9E0,4E0,9E0,5E0,2.7E1,1.3E1,2.07E2,1.2E1,1E0,5E0,3E0,1.1E1,1E1,2E0,1E0,3E0,1.3E1,2E0,9E0,1.75E2,2.28E2,2.2E1,4.2E1,6E0,9E0,2E0,2E1,5.2E1,2.39E2,2E0,1.3E1,1.1E1,1.9E1,1.62E2,3E0],"tree_param":{"num_deleted":"0","num_feature":"9","num_nodes":"115","size_leaf_vector":"1"}},{"base_weights":[8.8744275E-3,-1.3186307E-1,3.6457127E-1,3.1060169E-2,-6.384936E-1,1.9524807E0,2.1357448E-1,-4.2426154E-1,2.4935664E-1,-1.8554915E0,-5.14243E-1,1.7904176E0,1.8066555E0,1.4372581E-1,2.5440574E0,-1.9514063E-1,-1.4386958E0,2.6243017E0,1.6688022E-1,8.869467E-1,-2.2078426E0,1.680923E-1,-8.7646943E-1,2.0411134E0,4.0450922E-1,2.1067083E-1,-7.2808256E0,1.445447E0,1.7841856E0,1.5778939E0,-3.1694162E-1,-8.567997E-1,-2.114559E0,3.9161613E0,2.0490146E0,1.4884231E0,5.9737045E-2,-1.7000484E-1,1.1755627E0,-2.3498628E0,3.3954164E-1,-4.4115025E-1,9.596259E-1,-1.2944019E0,-5.110663E-1,1.6320376E0,2.8139696E0,1.2928371E0,-2.3616018E0,2.8968343E-1,-2.531253E0,-7.875524E0,-3.784859E-1,4.0680304E0,3.4525087E-1,-3.347693E-2,1.2189728E0,-4.793384E-1,-4.0220007E-2,-6.259251E-1,2.8142516E-2,-6.8246585E-1,4.90954E-1,1.4249097E-1,1.2432997E0,4.3900213E-1,1.02763E0,2.561511E-1,7.804587E-1,3.449783E-2,-6.0472035E-1,3.761695E-1,1.0583239E-1,-1.8847004E-1,-7.763537E-1,3.5541314E-1,-2.4581422E-1,3.881259E-1,-3.8194972E-1,-1.7445615E-1,-4.9640507E-1,5.1716726E-2,-3.1578207E-1,6.238502E-1,2.8463235E-1,9.25299E-1,1.4649497E-1,-3.6145937E-2,6.04368E-1,-6.260949E-2,-9.029011E-1,2.1293573E-2,5.064555E-1,-1.334156E0,-3.0897972E-1,-1.1253786E0,-2.8799486E0,1.6018014E0,-5.339722E-1,-1.8669354E-2,1.0908669E0],"categories":[],"categories_nodes":[],"categories_segments":[],"categories_sizes":[],"default_left":[0,0,0,0,0,0,0,0,0,0,0,0,0,0,0,0,0,0,0,0,0,0,0,0,0,0,0,0,0,0,0,0,0,0,0,0,0,0,0,0,0,0,0,0,0,0,0,0,0,0,0,0,0,0,0,0,0,0,0,0,0,0,0,0,0,0,0,0,0,0,0,0,0,0,0,0,0,0,0,0,0,0,0,0,0,0,0,0,0,0,0,0,0,0,0,0,0,0,0,0,0],"id":13,"left_children":[1,3,5,7,9,11,13,15,17,19,21,-1,23,25,27,29,31,33,35,37,39,41,43,45,47,49,51,53,-1,55,57,59,61,63,65,67,69,-1,71,73,-1,75,77,79,81,83,85,87,89,91,93,95,-1,97,99,-1,-1,-1,-1,-1,-1,-1,-1,-1,-1,-1,-1,-1,-1,-1,-1,-1,-1,-1,-1,-1,-1,-1,-1,-1,-1,-1,-1,-1,-1,-1,-1,-1,-1,-1,-1,-1,-1,-1,-1,-1,-1,-1,-1,-1,-1],"loss_changes":[1.9953673E2,2.3575946E2,2.7052222E2,2.1499805E2,1.0413864E2,4.660382E1,1.6778726E2,1.626513E2,2.8593423E2,6.380153E1,1.5635236E2,0E0,3.0733765E1,5.0055872E2,1.0356818E2,1.2424367E2,4.892166E1,2.8392029E1,2.0012543E2,4.022498E0,2.9694519E1,1.0651525E2,6.24093E1,2.1332336E1,3.9911373E1,2.165132E2,2.228061E1,6.7844055E1,0E0,1.5581479E2,1.2557048E2,8.318649E1,3.9205444E1,9.024094E0,2.400821E1,7.265306E1,1.5035008E2,0E0,8.831024E-3,2.0908722E1,0E0,7.783948E1,7.32666E1,4.8350677E1,8.234782E1,1.5148193E1,1.5470505E1,1.2483061E1,4.9528027E0,2.9625757E2,7.595975E1,2.0880432E1,0E0,6.1545204E1,2.4364502E1,0E0,0E0,0E0,0E0,0E0,0E0,0E0,0E0,0E0,0E0,0E0,0E0,0E0,0E0,0E0,0E0,0E0,0E0,0E0,0E0,0E0,0E0,0E0,0E0,0E0,0E0,0E0,0E0,0E0,0E0,0E0,0E0,0E0,0E0,0E0,0E0,0E0,0E0,0E0,0E0,0E0,0E0,0E0,0E0,0E0,0E0],"parents":[2147483647,0,0,1,1,2,2,3,3,4,4,5,5,6,6,7,7,8,8,9,9,10,10,12,12,13,13,14,14,15,15,16,16,17,17,18,18,19,19,20,20,21,21,22,22,23,23,24,24,25,25,26,26,27,27,29,29,30,30,31,31,32,32,33,33,34,34,35,35,36,36,38,38,39,39,41,41,42,42,43,43,44,44,45,45,46,46,47,47,48,48,49,49,50,50,51,51,53,53,54,54],"right_children":[2,4,6,8,10,12,14,16,18,20,22,-1,24,26,28,30,32,34,36,38,40,42,44,46,48,50,52,54,-1,56,58,60,62,64,66,68,70,-1,72,74,-1,76,78,80,82,84,86,88,90,92,94,96,-1,98,100,-1,-1,-1,-1,-1,-1,-1,-1,-1,-1,-1,-1,-1,-1,-1,-1,-1,-1,-1,-1,-1,-1,-1,-1,-1,-1,-1,-1,-1,-1,-1,-1,-1,-1,-1,-1,-1,-1,-1,-1,-1,-1,-1,-1,-1,-1],"split_conditions":[4.7E1,4.1E1,4.5E1,2.5666666E1,3.1333334E1,2.7E1,8.6666664E1,2.7E1,2.1E1,1.4E1,3.6E1,1.7904176E0,7.8E1,1.01E2,4E-1,1.3E1,2E1,1.8E1,2E1,2.3666666E1,2.5206833E1,3.7666668E1,4.2666668E1,4.9666668E1,2.1913084E1,9.2E1,7.5E1,8.4E1,1.7841856E0,1.6333334E1,1.7E1,2.2E1,3.3E1,1.6318332E0,2.9333334E1,3.1E1,5.3E1,-1.7000484E-1,4.6E1,3E1,3.3954164E-1,2.2E1,6.8E1,4.4E1,4.4E1,4.3E1,2.6339111E1,2.7602396E1,3.1E1,6.8666664E1,7.4333336E1,7.1E1,-3.784859E-1,1.14E2,1.2833333E2,-3.347693E-2,1.2189728E0,-4.793384E-1,-4.0220007E-2,-6.259251E-1,2.8142516E-2,-6.8246585E-1,4.90954E-1,1.4249097E-1,1.2432997E0,4.3900213E-1,1.02763E0,2.561511E-1,7.804587E-1,3.449783E-2,-6.0472035E-1,3.761695E-1,1.0583239E-1,-1.8847004E-1,-7.763537E-1,3.5541314E-1,-2.4581422E-1,3.881259E-1,-3.8194972E-1,-1.7445615E-1,-4.9640507E-1,5.1716726E-2,-3.1578207E-1,6.238502E-1,2.8463235E-1,9.25299E-1,1.4649497E-1,-3.6145937E-2,6.04368E-1,-6.260949E-2,-9.029011E-1,2.1293573E-2,5.064555E-1,-1.334156E0,-3.0897972E-1,-1.1253786E0,-2.8799486E0,1.6018014E0,-5.339722E-1,-1.8669354E-2,1.0908669E0],"split_indices":[3,1,0,3,3,0,3,1,0,0,0,0,1,1,6,0,0,0,1,3,5,3,3,3,5,0,2,1,0,3,3,3,0,5,3,3,0,0,1,2,0,0,1,1,0,0,7,8,0,3,3,0,0,0,3,0,0,0,0,0,0,0,0,0,0,0,0,0,0,0,0,0,0,0,0,0,0,0,0,0,0,0,0,0,0,0,0,0,0,0,0,0,0,0,0,0,0,0,0,0,0],"split_type":[0,0,0,0,0,0,0,0,0,0,0,0,0,0,0,0,0,0,0,0,0,0,0,0,0,0,0,0,0,0,0,0,0,0,0,0,0,0,0,0,0,0,0,0,0,0,0,0,0,0,0,0,0,0,0,0,0,0,0,0,0,0,0,0,0,0,0,0,0,0,0,0,0,0,0,0,0,0,0,0,0,0,0,0,0,0,0,0,0,0,0,0,0,0,0,0,0,0,0,0,0],"sum_hessian":[3.984E3,2.855E3,1.129E3,2.161E3,6.94E2,9.7E1,1.032E3,7E2,1.461E3,6.3E1,6.31E2,2E0,9.5E1,1.003E3,2.9E1,5.72E2,1.28E2,4.8E1,1.413E3,7E0,5.6E1,2.19E2,4.12E2,8.1E1,1.4E1,9.95E2,8E0,2.3E1,6E0,3.6E1,5.36E2,7E1,5.8E1,1.3E1,3.5E1,1.05E2,1.308E3,1E0,6E0,5.4E1,2E0,1.24E2,9.5E1,1.91E2,2.21E2,5.5E1,2.6E1,1.1E1,3E0,9.68E2,2.7E1,7E0,1E0,6E0,1.7E1,2.2E1,1.4E1,6.6E1,4.7E2,3E1,4E1,5.6E1,2E0,1E0,1.2E1,2.6E1,9E0,6.8E1,3.7E1,1.275E3,3.3E1,5E0,1E0,7E0,4.7E1,2.3E1,1.01E2,8.3E1,1.2E1,6.5E1,1.26E2,9.8E1,1.23E2,3.2E1,2.3E1,2.3E1,3E0,4E0,7E0,1E0,2E0,8.38E2,1.3E2,1.1E1,1.6E1,3E0,4E0,5E0,1E0,1.6E1,1E0],"tree_param":{"num_deleted":"0","num_feature":"9","num_nodes":"101","size_leaf_vector":"1"}},{"base_weights":[7.181393E-3,1.1849079E0,-2.3127366E-2,-5.203774E-2,2.0453622E0,-2.028863E-1,2.2033969E-1,-9.281366E-1,7.866038E-1,2.3495443E0,-5.49924E-1,-8.308291E-2,-9.9395806E-1,1.170859E0,4.908882E-2,4.5017242E-1,-1.6494462E0,1.8541727E0,1.6479346E-1,1.820005E0,1.1084067E0,-1.7024314E0,4.6626893E-1,-6.633908E-1,4.5278564E-2,-1.4927251E0,-9.3580985E-1,2.13813E0,8.0176896E-1,8.296805E-3,1.9116476E0,6.493511E-1,-1.4161177E-1,-2.1373985E0,-8.5615146E-1,-1.2916476E-1,6.726206E-1,6.1000973E-1,-4.3116936E-1,9.3967015E-1,1.2781878E0,-1.4344569E-1,-5.66689E-1,1.272637E-1,-9.864869E-1,7.6629746E-1,-8.706686E-2,-2.7989215E-1,-1.2424788E0,2.7912416E0,1.4978377E0,2.7176473E-1,1.8402972E0,1.3161713E-1,-1.2784144E0,2.5672326E0,-1.1385651E0,-1.077633E-1,2.63194E-1,-2.3328811E-1,-8.3932084E-1,-3.0844864E-1,2.638693E-2,4.3756448E-2,4.469104E-1,9.953564E-2,-3.2589957E-1,7.438144E-1,1.6608657E-1,-4.3810788E-1,2.7922064E-1,-1.4430389E-1,-4.7851846E-1,4.3312782E-1,7.6399655E-3,-8.577028E-2,1.16685554E-1,-4.96438E-1,7.006242E-3,-3.110716E-1,-5.697671E-1,9.927979E-2,8.5733545E-1,9.061346E-2,5.300364E-1,1.0484537E0,4.0217232E-2,4.2976773E-1,1.0801463E0,4.4889348E-3,3.6359355E-1,-2.818803E-1,-1.1984499E0,5.8953375E-1,1.8983232E0,5.1237833E-1,-6.148348E-1],"categories":[],"categories_nodes":[],"categories_segments":[],"categories_sizes":[],"default_left":[0,0,0,0,0,0,0,0,0,0,0,0,0,0,0,0,0,0,0,0,0,0,0,0,0,0,0,0,0,0,0,0,0,0,0,0,0,0,0,0,0,0,0,0,0,0,0,0,0,0,0,0,0,0,0,0,0,0,0,0,0,0,0,0,0,0,0,0,0,0,0,0,0,0,0,0,0,0,0,0,0,0,0,0,0,0,0,0,0,0,0,0,0,0,0,0,0],"id":14,"left_children":[1,3,5,7,9,11,13,15,17,19,21,23,25,27,29,31,33,35,37,39,-1,41,-1,43,45,-1,47,49,51,53,55,57,-1,59,61,-1,-1,63,65,-1,67,-1,-1,69,71,73,75,77,79,81,83,85,87,89,91,93,95,-1,-1,-1,-1,-1,-1,-1,-1,-1,-1,-1,-1,-1,-1,-1,-1,-1,-1,-1,-1,-1,-1,-1,-1,-1,-1,-1,-1,-1,-1,-1,-1,-1,-1,-1,-1,-1,-1,-1,-1],"loss_changes":[1.4227368E2,1.0653998E2,1.7011696E2,3.1588858E1,4.7868973E1,2.1183002E2,2.6868774E2,2.1620474E1,1.4298601E1,3.1027893E1,1.9621342E1,1.4476251E2,6.3414673E1,8.825226E1,1.0635267E2,1.7759982E0,3.589325E0,8.055195E0,4.243003E0,2.4435944E1,0E0,2.3862171E-1,0E0,9.004654E1,1.51981E2,0E0,5.8186768E1,2.4673767E1,1.0077796E2,2.1771529E2,6.2913185E1,1.9245393E0,0E0,5.0076714E0,1.2272105E0,0E0,0E0,3.457538E0,3.8594446E0,0E0,2.4737682E1,0E0,0E0,1.3274707E2,7.613739E1,1.2392873E2,1.2750839E2,3.9230408E1,2.4762512E1,4.456909E0,1.1365868E1,5.4124023E1,3.9339294E1,1.5776952E2,1.06689575E2,4.4172256E1,1.905726E1,0E0,0E0,0E0,0E0,0E0,0E0,0E0,0E0,0E0,0E0,0E0,0E0,0E0,0E0,0E0,0E0,0E0,0E0,0E0,0E0,0E0,0E0,0E0,0E0,0E0,0E0,0E0,0E0,0E0,0E0,0E0,0E0,0E0,0E0,0E0,0E0,0E0,0E0,0E0,0E0],"parents":[2147483647,0,0,1,1,2,2,3,3,4,4,5,5,6,6,7,7,8,8,9,9,10,10,11,11,12,12,13,13,14,14,15,15,16,16,17,17,18,18,19,19,21,21,23,23,24,24,26,26,27,27,28,28,29,29,30,30,31,31,33,33,34,34,37,37,38,38,40,40,43,43,44,44,45,45,46,46,47,47,48,48,49,49,50,50,51,51,52,52,53,53,54,54,55,55,56,56],"right_children":[2,4,6,8,10,12,14,16,18,20,22,24,26,28,30,32,34,36,38,40,-1,42,-1,44,46,-1,48,50,52,54,56,58,-1,60,62,-1,-1,64,66,-1,68,-1,-1,70,72,74,76,78,80,82,84,86,88,90,92,94,96,-1,-1,-1,-1,-1,-1,-1,-1,-1,-1,-1,-1,-1,-1,-1,-1,-1,-1,-1,-1,-1,-1,-1,-1,-1,-1,-1,-1,-1,-1,-1,-1,-1,-1,-1,-1,-1,-1,-1,-1],"split_conditions":[1.4E1,1.7E1,4.1E1,2.1822627E2,3.6E1,4E1,3.9E1,1.6575644E1,1.2E1,2.6333334E1,2.9E1,2.2333334E1,2.8E1,4.4E1,8.6666664E1,1.9E0,6.8480835E0,1.2E1,2.7482065E2,1.8E1,1.1084067E0,1E1,4.6626893E-1,1.6E1,2.2E1,-1.4927251E0,3E1,3.4E1,4.8666668E1,7.6E1,1.26E2,8.427383E0,-1.4161177E-1,5.656416E0,1.8E1,-1.2916476E-1,6.726206E-1,1.4666667E1,1.4E1,9.3967015E-1,1.2E1,-1.4344569E-1,-5.66689E-1,1.6666666E1,2E1,3.2E1,3.4666668E1,3.2666668E1,4.7E1,1.7E1,3.9938152E1,2.2E1,5.8E1,6.7333336E1,1.01E2,1.18666664E2,4.5E1,-1.077633E-1,2.63194E-1,-2.3328811E-1,-8.3932084E-1,-3.0844864E-1,2.638693E-2,4.3756448E-2,4.469104E-1,9.953564E-2,-3.2589957E-1,7.438144E-1,1.6608657E-1,-4.3810788E-1,2.7922064E-1,-1.4430389E-1,-4.7851846E-1,4.3312782E-1,7.6399655E-3,-8.577028E-2,1.16685554E-1,-4.96438E-1,7.006242E-3,-3.110716E-1,-5.697671E-1,9.927979E-2,8.5733545E-1,9.061346E-2,5.300364E-1,1.0484537E0,4.0217232E-2,4.2976773E-1,1.0801463E0,4.4889348E-3,3.6359355E-1,-2.818803E-1,-1.1984499E0,5.8953375E-1,1.8983232E0,5.1237833E-1,-6.148348E-1],"split_indices":[1,3,3,8,0,0,1,7,1,3,2,3,3,0,3,6,5,3,8,0,0,1,0,0,0,0,1,1,3,1,0,7,0,5,0,0,0,3,0,0,1,0,0,3,1,1,3,3,0,2,8,1,3,3,1,3,2,0,0,0,0,0,0,0,0,0,0,0,0,0,0,0,0,0,0,0,0,0,0,0,0,0,0,0,0,0,0,0,0,0,0,0,0,0,0,0,0],"split_type":[0,0,0,0,0,0,0,0,0,0,0,0,0,0,0,0,0,0,0,0,0,0,0,0,0,0,0,0,0,0,0,0,0,0,0,0,0,0,0,0,0,0,0,0,0,0,0,0,0,0,0,0,0,0,0,0,0,0,0,0,0,0,0,0,0,0,0,0,0,0,0,0,0,0,0,0,0,0,0,0,0,0,0,0,0,0,0,0,0,0,0,0,0,0,0,0,0],"sum_hessian":[3.984E3,9.9E1,3.885E3,4.1E1,5.8E1,2.235E3,1.65E3,2E1,2.1E1,5.2E1,6E0,1.942E3,2.93E2,2.51E2,1.399E3,7E0,1.3E1,7E0,1.4E1,3.9E1,1.3E1,4E0,2E0,3.51E2,1.591E3,3E0,2.9E2,6.8E1,1.83E2,1.37E3,2.9E1,6E0,1E0,7E0,6E0,1E0,6E0,8E0,6E0,1E1,2.9E1,1E0,3E0,1.02E2,2.49E2,2.46E2,1.345E3,9.3E1,1.97E2,3.2E1,3.6E1,1.22E2,6.1E1,1.251E3,1.19E2,2.4E1,5E0,1E0,5E0,3E0,4E0,5E0,1E0,6E0,2E0,3E0,3E0,1E1,1.9E1,3.4E1,6.8E1,1.37E2,1.12E2,1.28E2,1.18E2,9.49E2,3.96E2,1.6E1,7.7E1,1.52E2,4.5E1,1E0,3.1E1,7E0,2.9E1,4E0,1.18E2,5.1E1,1E1,1.13E3,1.21E2,1.07E2,1.2E1,2.2E1,2E0,1E0,4E0],"tree_param":{"num_deleted":"0","num_feature":"9","num_nodes":"97","size_leaf_vector":"1"}},{"base_weights":[6.1451723E-3,5.1647395E-2,-4.578414E-1,1.1980071E-2,2.3342447E0,-1.0875058E0,3.4719503E-1,4.6842244E-2,-8.235769E-1,1.7481492E0,3.782842E0,-2.2213736E0,-7.534573E-1,4.3869337E-1,-4.495951E0,9.974971E-3,1.2247266E0,-1.4083679E0,-3.1819507E-1,2.2763095E0,8.00105E-1,4.790902E0,-6.910801E-1,-8.902275E-1,-3.075833E0,-3.440977E-2,-1.6834835E0,1.0487084E0,-3.997922E-1,-2.081108E0,5.7929996E-2,-1.22559465E-1,2.019376E-1,2.8386774E0,9.208172E-1,-2.0738225E0,-8.944936E-1,5.423724E-1,-1.57221E0,9.2271477E-1,3.3184354E0,1.817118E0,-4.188101E-1,5.931716E0,1.551094E0,5.17519E-1,-6.2144476E-1,-7.989559E-2,-1.6115366E0,-3.4028664E0,-1.3640722E0,-1.060973E0,5.6052005E-1,-1.5143977E0,-1.4526622E0,6.173988E-1,3.800771E0,-1.5707712E0,8.18786E-1,-6.8272016E-4,-2.1708134E-1,3.1564826E-1,1.1528434E-2,8.438873E-2,8.97125E-1,8.471744E-1,1.9325192E-1,-5.628456E-2,-7.14112E-1,4.9397644E-2,-5.430538E-1,2.656047E-1,-4.631917E-1,-2.9452956E-1,-9.6624714E-1,8.5127E-2,5.182099E-1,-3.0764008E-2,1.0660013E0,6.757772E-1,1.8022843E-1,4.5549966E-2,-3.5102177E-1,4.118586E-1,1.8857147E0,9.9493794E-2,5.319134E-1,2.3763914E-1,-1.7003477E-1,-5.707625E-1,1.5112638E-1,-1.5540619E-1,-1.0546718E0,-5.4892033E-1,1.4463587E-1,-3.062954E-2,-6.220189E-1,3.1659052E-1,-4.9132686E-2,5.3276997E-2,-5.354008E-1,4.9088363E-2,6.788109E-1,2.5413027E-1,1.5515157E0,-1.8721431E-1,-9.1562706E-1,5.4630333E-1,-3.2605752E-1],"categories":[],"categories_nodes":[],"categories_segments":[],"categories_sizes":[],"default_left":[0,0,0,0,0,0,0,0,0,0,0,0,0,0,0,0,0,0,0,0,0,0,0,0,0,0,0,0,0,0,0,0,0,0,0,0,0,0,0,0,0,0,0,0,0,0,0,0,0,0,0,0,0,0,0,0,0,0,0,0,0,0,0,0,0,0,0,0,0,0,0,0,0,0,0,0,0,0,0,0,0,0,0,0,0,0,0,0,0,0,0,0,0,0,0,0,0,0,0,0,0,0,0,0,0,0,0,0,0],"id":15,"left_children":[1,3,5,7,9,11,13,15,17,19,21,23,25,27,29,31,33,35,37,39,41,43,45,47,49,51,53,55,57,-1,-1,59,61,63,65,67,69,71,73,75,77,79,81,83,85,-1,-1,87,89,91,93,95,97,99,-1,101,103,105,107,-1,-1,-1,-1,-1,-1,-1,-1,-1,-1,-1,-1,-1,-1,-1,-1,-1,-1,-1,-1,-1,-1,-1,-1,-1,-1,-1,-1,-1,-1,-1,-1,-1,-1,-1,-1,-1,-1,-1,-1,-1,-1,-1,-1,-1,-1,-1,-1,-1,-1],"loss_changes":[8.415663E1,3.2864868E2,1.8083498E2,1.0400117E2,4.6026062E1,7.4079636E1,7.154531E1,1.4880656E2,4.1814476E1,2.1211807E1,7.998059E1,4.8445297E1,1.0426441E2,7.970003E1,3.567853E1,8.459282E1,4.8397568E1,2.071434E1,8.502755E1,3.7845886E1,2.3074774E1,4.254361E1,1.6914436E1,1.097674E1,1.0472916E1,5.494995E1,2.8985443E1,1.0448261E2,9.5463486E1,0E0,0E0,1.4220445E2,1.8874812E2,5.367676E0,4.5037697E1,1.5743507E1,3.812224E1,3.499862E1,2.7987198E1,6.7077856E0,1.3221909E1,3.9436302E0,4.035982E0,7.5088806E0,7.652626E-1,0E0,0E0,4.6947465E0,7.1140175E0,5.3319244E0,6.0403624E0,3.1824272E1,2.0599817E1,3.049849E1,0E0,5.8610466E1,4.4210968E1,4.577693E1,6.500536E1,0E0,0E0,0E0,0E0,0E0,0E0,0E0,0E0,0E0,0E0,0E0,0E0,0E0,0E0,0E0,0E0,0E0,0E0,0E0,0E0,0E0,0E0,0E0,0E0,0E0,0E0,0E0,0E0,0E0,0E0,0E0,0E0,0E0,0E0,0E0,0E0,0E0,0E0,0E0,0E0,0E0,0E0,0E0,0E0,0E0,0E0,0E0,0E0,0E0,0E0],"parents":[2147483647,0,0,1,1,2,2,3,3,4,4,5,5,6,6,7,7,8,8,9,9,10,10,11,11,12,12,13,13,14,14,15,15,16,16,17,17,18,18,19,19,20,20,21,21,22,22,23,23,24,24,25,25,26,26,27,27,28,28,31,31,32,32,33,33,34,34,35,35,36,36,37,37,38,38,39,39,40,40,41,41,42,42,43,43,44,44,47,47,48,48,49,49,50,50,51,51,52,52,53,53,55,55,56,56,57,57,58,58],"right_children":[2,4,6,8,10,12,14,16,18,20,22,24,26,28,30,32,34,36,38,40,42,44,46,48,50,52,54,56,58,-1,-1,60,62,64,66,68,70,72,74,76,78,80,82,84,86,-1,-1,88,90,92,94,96,98,100,-1,102,104,106,108,-1,-1,-1,-1,-1,-1,-1,-1,-1,-1,-1,-1,-1,-1,-1,-1,-1,-1,-1,-1,-1,-1,-1,-1,-1,-1,-1,-1,-1,-1,-1,-1,-1,-1,-1,-1,-1,-1,-1,-1,-1,-1,-1,-1,-1,-1,-1,-1,-1,-1],"split_conditions":[6.5E1,6.3E1,7E1,6.5E1,6.9333336E1,5.7333332E1,1.32E2,5.7333332E1,5.3333332E1,6.9E1,1.15E2,6.8E1,6.2E1,8.5E1,7.6E1,3.7333332E1,4.7E1,6.799926E1,5.5E1,5.2E1,6.1E1,6.4E1,3E1,1.53771E1,1.9E0,1.3891522E1,9.2E1,8.2E1,8.3666664E1,-2.081108E0,5.7929996E-2,3.6E1,3.8E1,1.7E1,5.2E1,4.2E1,2.3518831E2,9.3E1,7.5E1,6.2E1,5.871416E0,2.6120953E2,8.3E1,4E1,4.4E1,5.17519E-1,-6.2144476E-1,6.8480835E0,6.5E1,1.1E1,6.5E1,9.595874E0,7.2E1,6.1E1,-1.4526622E0,2.732734E2,4.543916E0,7.4E1,9.1E1,-6.8272016E-4,-2.1708134E-1,3.1564826E-1,1.1528434E-2,8.438873E-2,8.97125E-1,8.471744E-1,1.9325192E-1,-5.628456E-2,-7.14112E-1,4.9397644E-2,-5.430538E-1,2.656047E-1,-4.631917E-1,-2.9452956E-1,-9.6624714E-1,8.5127E-2,5.182099E-1,-3.0764008E-2,1.0660013E0,6.757772E-1,1.8022843E-1,4.5549966E-2,-3.5102177E-1,4.118586E-1,1.8857147E0,9.9493794E-2,5.319134E-1,2.3763914E-1,-1.7003477E-1,-5.707625E-1,1.5112638E-1,-1.5540619E-1,-1.0546718E0,-5.4892033E-1,1.4463587E-1,-3.062954E-2,-6.220189E-1,3.1659052E-1,-4.9132686E-2,5.3276997E-2,-5.354008E-1,4.9088363E-2,6.788109E-1,2.5413027E-1,1.5515157E0,-1.8721431E-1,-9.1562706E-1,5.4630333E-1,-3.2605752E-1],"split_indices":[0,3,3,1,3,3,1,3,3,1,1,0,1,0,0,3,1,8,0,2,0,0,0,7,6,7,1,3,3,0,0,0,0,2,0,2,8,1,1,0,5,8,1,0,1,0,0,5,1,2,1,7,0,3,0,8,5,1,1,0,0,0,0,0,0,0,0,0,0,0,0,0,0,0,0,0,0,0,0,0,0,0,0,0,0,0,0,0,0,0,0,0,0,0,0,0,0,0,0,0,0,0,0,0,0,0,0,0,0],"split_type":[0,0,0,0,0,0,0,0,0,0,0,0,0,0,0,0,0,0,0,0,0,0,0,0,0,0,0,0,0,0,0,0,0,0,0,0,0,0,0,0,0,0,0,0,0,0,0,0,0,0,0,0,0,0,0,0,0,0,0,0,0,0,0,0,0,0,0,0,0,0,0,0,0,0,0,0,0,0,0,0,0,0,0,0,0,0,0,0,0,0,0,0,0,0,0,0,0,0,0,0,0,0,0,0,0,0,0,0,0],"sum_hessian":[3.984E3,3.629E3,3.55E2,3.568E3,6.1E1,1.99E2,1.56E2,3.426E3,1.42E2,4.5E1,1.6E1,4.4E1,1.55E2,1.54E2,2E0,3.323E3,1.03E2,6.5E1,7.7E1,2.8E1,1.7E1,1.3E1,3E0,1.8E1,2.6E1,8.8E1,6.7E1,8.9E1,6.5E1,1E0,1E0,1.966E3,1.357E3,1.5E1,8.8E1,2.7E1,3.8E1,4.6E1,3.1E1,1.3E1,1.5E1,9E0,8E0,9E0,4E0,1E0,2E0,9E0,9E0,2.1E1,5E0,3.2E1,5.6E1,6.5E1,2E0,7.8E1,1.1E1,3.3E1,3.2E1,1.639E3,3.27E2,2.18E2,1.139E3,1E0,1.4E1,1E1,7.8E1,4E0,2.3E1,1.8E1,2E1,4E1,6E0,2.4E1,7E0,8E0,5E0,1E0,1.4E1,6E0,3E0,5E0,3E0,1E0,8E0,1E0,3E0,3E0,6E0,8E0,1E0,1E0,2E1,4E0,1E0,1.7E1,1.5E1,3.3E1,2.3E1,9E0,5.6E1,6.2E1,1.6E1,4E0,7E0,2.1E1,1.2E1,2.1E1,1.1E1],"tree_param":{"num_deleted":"0","num_feature":"9","num_nodes":"109","size_leaf_vector":"1"}},{"base_weights":[4.2427955E-3,-2.7381203E-1,7.199836E-2,1.1542131E-1,-6.429494E-1,4.757186E-1,-8.7308414E-2,-2.5934157E0,1.9542612E-1,-4.6779707E-1,-1.3738787E0,1.1322788E0,2.6128262E-1,-3.5488072E-1,9.80285E-2,-1.2140481E0,-1.2017543E0,1.0369779E0,-1.0628009E-1,-1.8881404E-1,-1.2170035E0,-1.4814333E0,5.3188306E-1,8.2194513E-1,2.1895945E0,2.6453597E-2,1.0192403E0,2.6111954E-1,-4.7668883E-1,5.992837E-1,-1.3305262E-1,-1.8322545E-1,-5.44458E-1,5.105061E-1,2.638995E0,-8.87881E-1,2.3801705E-1,-6.454306E-1,4.159303E-1,-1.7572615E0,-4.598939E-1,-1.1957561E0,-2.7519124E0,1.4380386E0,5.327194E-1,1.2403097E0,1.8816339E0,1.2682152E0,-6.229765E-2,1.9787692E0,7.6782715E-1,-3.2707778E-1,1.1117637E0,-2.643254E-1,-9.616196E-1,3.0817896E-1,1.3639058E0,-7.0359993E-1,6.9486044E-2,2.4870288E-1,-1.8747547E-1,1.6726954E0,6.3557625E-1,-8.624057E-1,-2.0945849E-1,2.8369164E-1,-1.5534511E-1,2.336288E-1,-2.7813184E-1,6.430238E-1,3.6032464E-2,-6.055146E-1,1.6126108E-1,8.331208E-3,-3.8936222E-1,-5.26022E-1,-1.4444897E-1,-8.9843786E-1,-2.8321418E-1,6.4727247E-1,2.8956905E-1,4.2567673E-1,1.2068629E-1,4.4664165E-1,7.9353756E-1,2.1115123E-1,6.193524E-1,-2.9300126E-1,1.52501445E-2,2.871013E-1,7.338455E-1,5.124792E-2,4.3844432E-1,1.7420242E-2,-3.6697167E-1,5.827673E-1,-2.9603431E-2,-2.690033E-1,-1.9056737E-2,-7.195403E-1,-2.625291E-1,3.1753385E-1,-2.2535067E-4,5.5426186E-1,4.9264874E-2,-4.096568E-2,-3.0341458E-1,1.8994768E-1,-6.1198942E-2],"categories":[],"categories_nodes":[],"categories_segments":[],"categories_sizes":[],"default_left":[0,0,0,0,0,0,0,0,0,0,0,0,0,0,0,0,0,0,0,0,0,0,0,0,0,0,0,0,0,0,0,0,0,0,0,0,0,0,0,0,0,0,0,0,0,0,0,0,0,0,0,0,0,0,0,0,0,0,0,0,0,0,0,0,0,0,0,0,0,0,0,0,0,0,0,0,0,0,0,0,0,0,0,0,0,0,0,0,0,0,0,0,0,0,0,0,0,0,0,0,0,0,0,0,0,0,0,0,0],"id":16,"left_children":[1,3,5,7,9,11,13,15,17,19,21,23,25,27,29,31,-1,33,35,37,39,41,-1,43,45,47,49,51,53,55,57,-1,-1,59,61,63,65,67,69,71,73,75,77,79,81,-1,83,85,87,89,91,93,95,97,99,101,103,105,107,-1,-1,-1,-1,-1,-1,-1,-1,-1,-1,-1,-1,-1,-1,-1,-1,-1,-1,-1,-1,-1,-1,-1,-1,-1,-1,-1,-1,-1,-1,-1,-1,-1,-1,-1,-1,-1,-1,-1,-1,-1,-1,-1,-1,-1,-1,-1,-1,-1,-1],"loss_changes":[7.509616E1,1.12288734E2,2.0617227E2,8.307714E1,5.0694916E1,1.2740083E2,1.1404457E2,1.6567596E1,9.430763E1,6.770038E1,2.868753E1,7.1371155E1,1.218965E2,7.073129E1,1.5749353E2,1.4288454E0,0E0,8.1307625E1,7.394554E1,6.5988884E1,3.518689E1,2.393039E1,0E0,3.0239006E1,2.216626E1,5.782794E1,3.7561203E1,7.841771E1,8.0689316E1,9.5068695E1,1.0763329E2,0E0,0E0,2.764081E1,2.4865692E1,2.9649918E1,1.0264499E2,5.5279808E1,5.237838E1,3.164508E1,1.5564864E1,2.42491E1,2.881012E0,1.6628586E1,1.3299866E1,0E0,9.558395E0,1.4276268E1,5.0737396E1,1.341832E1,5.3584877E1,3.217018E1,6.455185E1,6.95271E1,2.7613571E1,7.23162E1,6.816139E1,4.2446503E1,1.06187584E2,0E0,0E0,0E0,0E0,0E0,0E0,0E0,0E0,0E0,0E0,0E0,0E0,0E0,0E0,0E0,0E0,0E0,0E0,0E0,0E0,0E0,0E0,0E0,0E0,0E0,0E0,0E0,0E0,0E0,0E0,0E0,0E0,0E0,0E0,0E0,0E0,0E0,0E0,0E0,0E0,0E0,0E0,0E0,0E0,0E0,0E0,0E0,0E0,0E0,0E0],"parents":[2147483647,0,0,1,1,2,2,3,3,4,4,5,5,6,6,7,7,8,8,9,9,10,10,11,11,12,12,13,13,14,14,15,15,17,17,18,18,19,19,20,20,21,21,23,23,24,24,25,25,26,26,27,27,28,28,29,29,30,30,33,33,34,34,35,35,36,36,37,37,38,38,39,39,40,40,41,41,42,42,43,43,44,44,46,46,47,47,48,48,49,49,50,50,51,51,52,52,53,53,54,54,55,55,56,56,57,57,58,58],"right_children":[2,4,6,8,10,12,14,16,18,20,22,24,26,28,30,32,-1,34,36,38,40,42,-1,44,46,48,50,52,54,56,58,-1,-1,60,62,64,66,68,70,72,74,76,78,80,82,-1,84,86,88,90,92,94,96,98,100,102,104,106,108,-1,-1,-1,-1,-1,-1,-1,-1,-1,-1,-1,-1,-1,-1,-1,-1,-1,-1,-1,-1,-1,-1,-1,-1,-1,-1,-1,-1,-1,-1,-1,-1,-1,-1,-1,-1,-1,-1,-1,-1,-1,-1,-1,-1,-1,-1,-1,-1,-1,-1],"split_conditions":[2.6333334E1,2.1E1,3.4E1,1.2666667E1,2.5E1,2.9E1,4.3666668E1,1.4E1,1.7E1,3E1,3.4E1,3.1333334E1,3.8666668E1,2.6E1,5E1,1E0,-1.2017543E0,1.9E1,1.9666666E1,2.2666666E1,2.5E1,3E1,5.3188306E-1,2.3E1,2.1E1,